{"learner":{"attributes":{"best_iteration":"124","best_score":"0.15013301459220196"},"feature_names":["year","month","week","day_of_month","day_of_week","is_weekend","quarter","wday","weekday","is_zero_sales","sell_price","price_diff","price_pct_change","price_rel_to_mean","has_price","event_name_1","event_type_1","event_name_2","event_type_2","has_event_1","has_event_2","has_any_event","is_sporting","is_cultural","is_national","is_religious","snap_CA","snap_TX","snap_WI","snap_active","lag_7","lag_14","lag_28","rolling_mean_7","rolling_mean_14","rolling_mean_28","rolling_std_7","rolling_std_28","item_id","store_id"],"feature_types":["int","int","int","int","int","int","int","int","c","int","float","float","float","float","int","c","c","c","c","int","int","int","int","int","int","int","int","int","int","int","float","float","float","float","float","float","float","float","c","c"],"gradient_booster":{"model":{"cats":{"enc":[],"feature_segments":[],"sorted_idx":[]},"gbtree_model_param":{"num_parallel_tree":"1","num_trees":"125"},"iteration_indptr":[0,1,2,3,4,5,6,7,8,9,10,11,12,13,14,15,16,17,18,19,20,21,22,23,24,25,26,27,28,29,30,31,32,33,34,35,36,37,38,39,40,41,42,43,44,45,46,47,48,49,50,51,52,53,54,55,56,57,58,59,60,61,62,63,64,65,66,67,68,69,70,71,72,73,74,75,76,77,78,79,80,81,82,83,84,85,86,87,88,89,90,91,92,93,94,95,96,97,98,99,100,101,102,103,104,105,106,107,108,109,110,111,112,113,114,115,116,117,118,119,120,121,122,123,124,125],"tree_info":[0,0,0,0,0,0,0,0,0,0,0,0,0,0,0,0,0,0,0,0,0,0,0,0,0,0,0,0,0,0,0,0,0,0,0,0,0,0,0,0,0,0,0,0,0,0,0,0,0,0,0,0,0,0,0,0,0,0,0,0,0,0,0,0,0,0,0,0,0,0,0,0,0,0,0,0,0,0,0,0,0,0,0,0,0,0,0,0,0,0,0,0,0,0,0,0,0,0,0,0,0,0,0,0,0,0,0,0,0,0,0,0,0,0,0,0,0,0,0,0,0,0,0,0,0],"trees":[{"base_weights":[-5.699595E-3,-3.56771E-2,4.5714325E-1,-4.3832574E-2,1.1287138E-1,3.2224703E-1,6.476657E-1,-4.7146324E-2,9.019745E-3,9.527021E-2,2.2535104E-1,2.5936067E-1,4.0528303E-1,5.648505E-1,7.684628E-1,-4.826884E-2,-2.8913084E-2,-3.1955007E-3,6.5676145E-2,5.1691685E-2,1.2860306E-1,3.2564378E-1,1.94637E-1,2.1171142E-1,3.1556705E-1,3.5001695E-1,5.016924E-1,5.006831E-1,6.544391E-1,8.03925E-1,6.656015E-1,-4.8904978E-2,-4.215989E-2,-1.8552605E-2,-3.813025E-2,-1.7726291E-2,1.5381915E-2,1.24547906E-1,2.744867E-2,2.8203525E-2,8.451192E-2,9.540322E-2,1.7851941E-1,3.8727543E-1,1.6842104E-1,1.3710406E-1,2.384083E-1,2.5429878E-1,1.698626E-1,2.763621E-1,3.8149568E-1,3.179214E-1,4.308753E-1,4.4200742E-1,5.559795E-1,5.8517265E-1,4.139954E-1,6.644701E-1,3.4426227E-1,7.6651686E-1,8.551616E-1,5.986413E-1,8.125506E-1,-4.939497E-2,-4.6970926E-2,-3.6172487E-2,-4.577944E-2,4.301775E-3,-2.4953647E-2,9.523808E-3,-3.848741E-2,-1.6605592E-4,-2.6345303E-2,6.7636125E-2,6.78672E-3,5.563548E-2,1.6601448E-1,6.6144355E-3,7.037701E-2,4.649999E-2,7.7755786E-3,1.0427497E-1,2.4869554E-2,1.5936927E-1,7.382198E-2,2.0846517E-1,1.2093022E-1,2.7429578E-1,4.6839377E-1,3.3382352E-2,1.10499986E-1,1.1789382E-1,2.75625E-1,4.4415584E-1,2.1807837E-1,2.6404458E-1,3.5211258E-2,1.6091527E-1,4.163793E-1,2.2752497E-1,3.2708815E-1,4.687888E-1,3.42036E-1,2.5723094E-1,3.6199835E-1,4.4314465E-1,1.7624998E-2,4.5733157E-1,2.0588234E-1,6.443425E-1,5.026268E-1,6.924745E-1,5.398512E-1,3.8755038E-1,4.9648562E-1,6.697376E-1,3.3870965E-2,5.3541668E-2,2.1447368E-2,7.1050346E-1,8.079605E-1,8.98977E-2,8.235501E-1,6.22268E-1,4.213235E-1,8.391204E-1,6.0781248E-2,3.9130426E-3,-4.940652E-2,-4.3995697E-2,-4.850335E-2,-3.8164552E-2,-2.0222941E-2,-4.0120427E-2,-4.6625577E-2,1.5593101E-3,1.135135E-2,-3.8247373E-2,-1.879578E-2,-3.1605422E-2,-4.2570084E-2,-8.265526E-3,3.5698187E-2,-3.2447528E-2,-6.2500117E-3,9.8372504E-2,9.765506E-4,-1.7443565E-3,3.1902075E-2,9.850735E-3,2.3975903E-1,2.657787E-1,1.1118567E-1,-1.8396345E-3,1.061111E-1,5.6354154E-2,1.5576921E-1,6.2399667E-2,2.857131E-3,2.197801E-2,-1.9370241E-2,9.031091E-2,1.5931231E-1,8.584893E-3,2.1195652E-1,1.2757452E-1,2.2464985E-1,1.4935423E-1,5.8665916E-2,2.7482817E-1,1.7893535E-1,1.0381502E-1,2.3839998E-1,3.8732395E-1,1.5902777E-1,3.6464646E-1,5.715789E-1,1.5316455E-1,-4.7727283E-3,7.961431E-2,1.7995495E-1,1.4166665E-1,4.128205E-2,2.3714285E-2,6.0232556E-1,2.4865107E-1,1.451271E-1,2.2190532E-1,3.1017402E-1,-2.5000012E-2,1.18333325E-2,2.226221E-1,1.4125304E-1,5.878788E-2,1.826923E-2,2.4904579E-1,7.9741366E-2,3.1835517E-1,6.1874997E-2,4.2406714E-1,6.781818E-1,3.70123E-1,2.3603895E-1,2.981132E-1,2.0973557E-1,4.0945345E-1,3.023853E-1,3.4851694E-1,4.8223212E-1,5.6674755E-1,4.1567028E-1,2.8846143E-3,3.75E-2,3.2222223E-2,6.710963E-1,5.524496E-1,4.1626212E-1,1.6956521E-2,7.231081E-1,4.9338582E-1,6.3420194E-1,4.0877292E-1,2.3140495E-1,5.480447E-1,4.2444444E-1,7.304902E-1,6.450468E-1,7.375839E-1,6.1192304E-1,8.20202E-1,6.7132354E-1,7.565217E-1,8.7444794E-1,6.378821E-1,3.4464285E-2,2.771739E-1,6.9130436E-2,7.119565E-1,8.6842105E-2,-6.3829904E-4,-4.9418E-3,-3.7029055E-3,-4.5437166E-3,-3.9313994E-3,-4.8624333E-3,-3.4174968E-3,-4.249446E-3,-4.360584E-5,-3.1552599E-3,-1.785726E-4,-4.194382E-3,-2.47934E-3,-4.6841027E-3,-1.2732571E-3,2.1509728E-3,-1.4662769E-3,-4.410689E-3,-2.845967E-3,-6.755946E-4,-3.9753616E-3,-2.0475031E-3,-2.0294131E-3,-4.336965E-3,1.9043642E-4,-2.5375183E-3,7.91237E-3,1.9920201E-4,-2.183736E-3,-3.6253624E-3,3.3953476E-3,-1.5537647E-3,1.700431E-2,4.6428563E-3,-1.0652186E-3,9.999999E-3,-1.142688E-3,1.9367406E-3,3.328883E-4,7.5100795E-3,7.7941166E-3,-1.9871807E-3,-4.8529427E-3,4.31E-2,3.814655E-2,1.5968991E-2,1.8883249E-2,4.9800784E-3,6.2313424E-3,-1.1111123E-3,1.7894736E-2,-1.9117659E-3,7.966867E-3,4.026834E-4,3.4464285E-2,4.90196E-3,5.727347E-3,2.0113636E-2,-1.3788672E-3,9.779411E-3,2.0973035E-4,5.1108366E-3,-3.514707E-3,9.729718E-4,1.0148147E-2,9.4674435E-4,2.2519084E-2,1.1917807E-2,-1.01834186E-4,1.2624999E-2,1.4423075E-2,2.8571427E-2,4.8097814E-3,1.5369368E-2,3.5714284E-2,1.7865168E-2,3.260417E-2,1.3191918E-2,5.150861E-3,1.7612902E-2,3.309582E-2,1.4346589E-2,1.3829785E-2,2.1390071E-2,8.930379E-3,2.5328947E-2,3.1907894E-2,1.1099999E-2,2.6829267E-2,5.3225804E-2,4.6428563E-3,3.064516E-2,4.213235E-2,2.328125E-2,6.341667E-2,4.5138888E-2,9.3749985E-3,2.8541667E-2,1.4342104E-2,5.019999E-3,1.459239E-2,3.3589743E-2,1.9047618E-2,8.863635E-3,7.347826E-2,4.285714E-2,3.2762643E-2,1.8016666E-2,-1.1904879E-4,1.7589742E-2,2.0709718E-2,4.860465E-2,2.7087813E-2,4.239474E-2,-1.1353266E-9,-4.7727283E-3,2.5345344E-2,3.8596482E-3,1.3057522E-2,2.605E-2,3.1541914E-2,1.995585E-2,-4.814816E-3,1.1722221E-2,1.3333333E-2,3.2552663E-2,6.355263E-2,3.8744587E-2,7.8E-2,4.761905E-2,3.95302E-2,2.7560974E-2,3.890625E-2,1.9430894E-2,3.79661E-2,2.4916943E-2,2.6103605E-2,1.502564E-2,5.203271E-2,3.5743535E-2,4.6122447E-2,2.861167E-2,4.2658728E-2,2.5675675E-2,5.1935893E-2,3.9473683E-2,7.569444E-2,5.2339178E-2,3.5862677E-2,4.7434945E-2,7.337629E-2,5.523148E-2,5.2055556E-2,6.5576926E-2,4.475138E-2,1.826923E-2,6.358491E-2,7.851415E-2,5.1994484E-2,3.3097826E-2,6.619217E-2,3.2222223E-2,4.8465516E-2,3.703259E-2,3.1929825E-2,1.5076922E-2,6.9259256E-2,5.189542E-2,3.3154763E-2,5.6634616E-2,8.36527E-2,6.768896E-2,6.6996805E-2,5.7514537E-2,7.656417E-2,5.858108E-2,4.830645E-2,7.188406E-2,8.764977E-2,7.9287216E-2,5.5520833E-2,9.047619E-2,8.1503764E-2,6.8595044E-2,7.507692E-2,9.027668E-2,4.7282606E-2,6.5472156E-2,8.2608685E-3,4.520833E-2,5.7708334E-2,8.217391E-2],"categories":[0,1,2,4,5,6,7,8,9,11,12,13,14,15,16,17,18,19,0,2,4,5,6,7,8,9,12,14,15,18,19,0,1,2,4,5,6,7,8,9,11,12,13,14,15,16,18,19,3,4,6,9,0,3,4,6,7,9,0,1,2,4,5,6,7,8,9,11,12,13,14,15,16,17,18,19,0,1,2,4,5,6,7,8,9,11,12,13,14,15,18,19,0,1,2,5,6,8,11,12,14,15,18,0,1,2,3,4,5,6,7,9,10,11,12,13,14,15,16,17,18,19,20,21,22,23,24,25,26,27,28,29,30,0,2,3,4,5,7,8,9,10,12,13,14,15,16,19,0,1,7,8,9,0,1,2,4,5,6,7,8,9,11,12,14,15,18,19,0,1,3,4,6,7,9,0,1,2,4,5,6,7,8,9,10,11,12,13,14,15,18,0,1,2,4,5,6,7,8,9,11,12,13,14,15,18,19,0,2,3,4,5,6,8,0,1,2,4,5,6,7,8,9,11,12,13,14,15,18,19,0,2,3,4,5,6,7,8,9,1,3,0,1,2,3,4,5,6,7,8,9,10,11,12,13,14,15,17,18,19,1,2,5,6,8,9,12,13,14,15,18,0,1,2,3,4,5,6,7,0,2,5,6,9,12,14,15,18,0,1,2,5,6,7,8,10,11,12,13,14,15,18,0,1,2,4,5,6,7,8,9,11,12,13,14,15,17,18,19,0,1,2,4,5,6,7,8,9,10,11,12,13,14,15,16,17,18,19,4,0,1,2,3,4,5,6,7,8,9,11,12,13,14,15,18,0,1,2,4,5,6,7,8,9,10,11,12,13,14,15,16,17,18,19,0,2,0,1,2,4,5,6,7,8,9,10,11,12,13,14,15,17,18,2,3,4,6,8,2,3,4,5,6,7,8,9,3,4,5,6,8,3,4,6,7,1,2,3,4,5,6,8,3,4,6,7,0,3,4,5,6,7,8,9,0,1,2,3,4,5,6,7,9,10,13,14,15,17,18,19,20,21,22,23,24,25,26,27,28,29,30,0,3,6,7,9,3,4,10,13,0,1,3,4,5,6,7,9,10,11,12,14,15,16,17,20,21,22,23,24,25,29,30,0,1,3,4,6,7,8,9,0,1,2,3,4,5,6,7,8,9,10,11,12,13,22,23,30,1,3,6,9,2,4,5,7,8,12,13,14,15,16,19,0,2,3,4,8,9,0,1,2,4,5,6,7,8,9,10,11,12,13,14,15,16,17,18,19,3,4,5,6,7,8,9,0,5,0,1,2,0,1,2,3,4,5,6,7,8,9,10,11,12,13,14,15,16,18,19,3,4,9,0,3,4,6,7,8,0,1,2,3,5,8,0,1,3,4,6,7,1,3,4,7,8,9,1,3,4,5,6,8,9,0,3,4,6,7,8,9,3,4,6,7,0,1,2,3,4,8,0,1,2,3,4,7],"categories_nodes":[14,16,18,21,23,27,28,32,34,35,39,40,41,42,47,50,53,55,57,62,64,67,70,73,79,84,90,94,97,100,103,104,107,110,113,115,123,129,130,131,132,134,137,140,141,143,145,151,152,154,156,166,169,185,191,195,201,203,204,227,229,231],"categories_segments":[0,18,31,48,52,58,76,92,103,133,148,153,168,175,191,207,214,230,239,241,260,271,279,288,302,319,338,339,355,374,376,393,398,406,411,415,422,426,434,461,466,470,493,501,518,522,533,539,558,565,567,570,589,592,598,604,610,616,623,630,634,640],"categories_sizes":[18,13,17,4,6,18,16,11,30,15,5,15,7,16,16,7,16,9,2,19,11,8,9,14,17,19,1,16,19,2,17,5,8,5,4,7,4,8,27,5,4,23,8,17,4,11,6,19,7,2,3,19,3,6,6,6,6,7,7,4,6,6],"default_left":[0,0,0,0,0,0,0,0,0,0,0,0,0,0,1,0,1,0,1,0,0,1,0,1,0,0,0,1,1,0,0,0,1,0,1,1,0,0,0,1,1,1,1,0,0,0,0,1,0,0,1,0,0,1,0,1,0,1,0,0,0,0,1,0,1,0,0,1,0,0,1,0,0,1,0,0,0,0,0,1,0,0,0,0,1,0,0,0,0,0,1,0,0,0,1,0,0,1,0,0,1,0,0,1,1,0,0,1,0,0,1,0,0,1,0,1,0,0,0,0,0,0,0,1,0,0,0,0,0,1,1,1,1,0,1,0,0,1,0,0,1,1,0,1,0,1,0,0,0,0,0,1,1,0,1,0,1,0,0,0,0,0,0,0,0,0,1,0,0,1,0,0,0,0,0,0,0,0,0,0,0,0,0,0,0,1,0,0,0,0,0,1,0,0,0,1,0,0,0,0,0,1,0,1,1,0,0,0,0,0,0,0,0,0,0,0,0,0,0,0,0,0,0,0,0,0,0,1,0,1,0,1,0,0,0,0,0,0,0,0,0,0,0,0,0,0,0,0,0,0,0,0,0,0,0,0,0,0,0,0,0,0,0,0,0,0,0,0,0,0,0,0,0,0,0,0,0,0,0,0,0,0,0,0,0,0,0,0,0,0,0,0,0,0,0,0,0,0,0,0,0,0,0,0,0,0,0,0,0,0,0,0,0,0,0,0,0,0,0,0,0,0,0,0,0,0,0,0,0,0,0,0,0,0,0,0,0,0,0,0,0,0,0,0,0,0,0,0,0,0,0,0,0,0,0,0,0,0,0,0,0,0,0,0,0,0,0,0,0,0,0,0,0,0,0,0,0,0,0,0,0,0,0,0,0,0,0,0,0,0,0,0,0,0,0,0,0,0,0,0,0,0,0,0,0,0,0,0,0,0,0,0,0,0,0,0,0,0,0,0,0,0,0,0,0,0,0,0,0,0,0],"id":0,"left_children":[1,3,5,7,9,11,13,15,17,19,21,23,25,27,29,31,33,35,37,39,41,43,45,47,49,51,53,55,57,59,61,63,65,67,69,71,73,75,77,79,81,83,85,87,89,91,93,95,97,99,101,103,105,107,109,111,113,115,117,119,121,123,125,127,129,131,133,135,137,-1,139,141,143,145,147,149,151,153,155,157,159,161,163,165,167,169,171,173,175,-1,177,179,181,183,185,187,189,191,193,195,197,199,201,203,205,207,-1,209,211,213,215,217,219,221,223,225,-1,-1,-1,227,229,-1,231,233,235,237,-1,-1,239,241,243,245,247,249,251,253,-1,255,257,259,261,263,265,267,269,271,273,275,277,279,281,283,285,287,289,291,293,295,297,299,301,303,305,307,309,311,313,315,317,319,321,323,325,327,329,331,333,335,-1,337,339,341,-1,-1,343,345,347,349,351,353,-1,355,357,-1,-1,359,361,363,-1,365,367,369,371,373,375,377,379,381,383,385,387,-1,-1,-1,389,391,393,-1,395,397,399,401,403,405,407,409,411,413,415,417,419,421,423,425,-1,427,-1,429,-1,-1,-1,-1,-1,-1,-1,-1,-1,-1,-1,-1,-1,-1,-1,-1,-1,-1,-1,-1,-1,-1,-1,-1,-1,-1,-1,-1,-1,-1,-1,-1,-1,-1,-1,-1,-1,-1,-1,-1,-1,-1,-1,-1,-1,-1,-1,-1,-1,-1,-1,-1,-1,-1,-1,-1,-1,-1,-1,-1,-1,-1,-1,-1,-1,-1,-1,-1,-1,-1,-1,-1,-1,-1,-1,-1,-1,-1,-1,-1,-1,-1,-1,-1,-1,-1,-1,-1,-1,-1,-1,-1,-1,-1,-1,-1,-1,-1,-1,-1,-1,-1,-1,-1,-1,-1,-1,-1,-1,-1,-1,-1,-1,-1,-1,-1,-1,-1,-1,-1,-1,-1,-1,-1,-1,-1,-1,-1,-1,-1,-1,-1,-1,-1,-1,-1,-1,-1,-1,-1,-1,-1,-1,-1,-1,-1,-1,-1,-1,-1,-1,-1,-1,-1,-1,-1,-1,-1,-1,-1,-1,-1,-1,-1,-1,-1,-1,-1,-1,-1,-1,-1,-1,-1,-1,-1,-1,-1,-1,-1,-1,-1,-1,-1,-1,-1,-1,-1,-1,-1,-1,-1,-1],"loss_changes":[4.184692E3,3.4316476E2,4.7129736E2,4.7027954E1,2.9164352E1,5.599292E1,7.5635254E1,5.170105E0,1.09647045E1,1.851252E1,6.0789185E0,1.6312988E1,2.4483154E1,2.5627563E1,1.0736206E1,9.229126E-1,1.3988571E0,3.5187292E0,6.3205395E0,4.2583103E0,1.1953041E1,4.4502716E0,3.8177795E0,5.8613434E0,7.1421814E0,7.5058594E0,5.2106323E0,1.9056946E1,5.6237183E0,3.739502E0,7.3656616E0,2.0196533E-1,4.8498154E-1,1.0098135E0,3.7306213E-1,1.1069837E0,2.569043E0,3.151226E0,1.5244509E0,1.2042644E0,2.714344E0,5.979458E0,4.9484024E0,2.932537E0,1.2372906E0,1.7317619E0,3.5296516E0,3.4924011E0,3.6252823E0,4.2906036E0,3.432312E0,5.556595E0,2.5274048E0,2.8258972E0,3.8153992E0,6.103821E0,2.6522217E0,2.8978882E0,1.3985562E0,2.5250244E0,5.8795166E-1,2.0503998E0,8.336029E-1,1.7782593E-1,1.9662476E-1,2.681818E-1,6.51207E-2,4.5238155E-1,4.4067526E-1,0E0,2.1598434E-1,7.0006466E-1,6.0140014E-1,1.6553943E0,1.0529342E0,3.5129685E0,3.7447166E0,9.666786E-1,6.5819716E-1,1.1794639E0,5.879836E-1,1.3159657E0,1.7500029E0,2.2420254E0,3.708311E0,3.6663895E0,1.9636536E0,1.788455E0,1.8576775E0,0E0,6.823797E-1,1.373064E0,1.4117956E0,2.3783894E0,1.728096E0,2.9830322E0,3.5830516E-1,1.9304504E0,2.2170763E0,2.8456993E0,1.9986038E0,2.727745E0,2.0621338E0,1.669487E0,3.3303223E0,2.7724457E0,0E0,3.2151337E0,1.51612E0,2.6018372E0,2.1452332E0,6.1566772E0,3.8124695E0,3.1927032E0,9.2998505E-1,2.215271E0,0E0,0E0,0E0,1.0863037E0,7.2055054E-1,0E0,1.2796326E0,1.8825684E0,2.4547882E0,1.865387E-1,0E0,0E0,8.459473E-2,1.4725494E-1,3.0067444E-2,1.2852097E-1,2.1116248E-1,1.2763095E-1,5.606079E-2,4.208391E-1,0E0,2.3511338E-1,4.2879617E-1,2.6074338E-1,8.5538864E-2,3.4213886E-1,6.4972854E-1,1.5117073E-1,4.276918E-1,2.0508423E0,2.958537E-1,7.502204E-1,1.5377192E0,6.795288E-1,4.596919E0,2.933714E0,2.12115E0,6.311743E-1,8.2432854E-1,5.8527243E-1,1.5557567E0,8.746252E-1,7.203859E-1,5.796039E-1,2.4091306E-1,1.2479811E0,8.959122E-1,5.990104E-1,1.8857479E-1,1.5245972E0,2.111908E0,1.6266489E0,2.265914E0,4.2438164E0,1.8389053E0,1.8536158E0,1.2493944E0,1.0820704E0,1.180958E0,6.41634E-1,4.2837334E-1,5.940006E-1,0E0,6.740899E-1,1.1291132E0,9.182906E-2,0E0,0E0,6.7473507E-1,2.9481468E0,1.062738E0,3.1223679E0,3.2248688E0,2.3863638E-2,0E0,2.1973095E0,1.5308685E0,0E0,0E0,2.5187836E0,5.616793E-1,1.0698395E0,0E0,1.8291321E0,7.5972176E-1,1.2451324E0,9.077959E-1,1.8092346E0,1.2301216E0,3.7185745E0,1.2763672E0,1.5811138E0,1.61409E0,1.3025208E0,1.6775742E0,0E0,0E0,0E0,1.8352509E0,8.0210114E-1,1.4219284E0,0E0,1.5035553E0,2.5669098E0,2.4416504E0,2.3645325E0,8.0942774E-1,3.932686E-1,1.5918293E0,2.332428E0,1.8479614E0,1.4550018E0,1.4437943E0,3.7127686E-1,1.3408604E0,4.8571777E-1,4.3251038E-1,9.634247E-1,0E0,1.5280938E0,0E0,2.0689774E-1,0E0,0E0,0E0,0E0,0E0,0E0,0E0,0E0,0E0,0E0,0E0,0E0,0E0,0E0,0E0,0E0,0E0,0E0,0E0,0E0,0E0,0E0,0E0,0E0,0E0,0E0,0E0,0E0,0E0,0E0,0E0,0E0,0E0,0E0,0E0,0E0,0E0,0E0,0E0,0E0,0E0,0E0,0E0,0E0,0E0,0E0,0E0,0E0,0E0,0E0,0E0,0E0,0E0,0E0,0E0,0E0,0E0,0E0,0E0,0E0,0E0,0E0,0E0,0E0,0E0,0E0,0E0,0E0,0E0,0E0,0E0,0E0,0E0,0E0,0E0,0E0,0E0,0E0,0E0,0E0,0E0,0E0,0E0,0E0,0E0,0E0,0E0,0E0,0E0,0E0,0E0,0E0,0E0,0E0,0E0,0E0,0E0,0E0,0E0,0E0,0E0,0E0,0E0,0E0,0E0,0E0,0E0,0E0,0E0,0E0,0E0,0E0,0E0,0E0,0E0,0E0,0E0,0E0,0E0,0E0,0E0,0E0,0E0,0E0,0E0,0E0,0E0,0E0,0E0,0E0,0E0,0E0,0E0,0E0,0E0,0E0,0E0,0E0,0E0,0E0,0E0,0E0,0E0,0E0,0E0,0E0,0E0,0E0,0E0,0E0,0E0,0E0,0E0,0E0,0E0,0E0,0E0,0E0,0E0,0E0,0E0,0E0,0E0,0E0,0E0,0E0,0E0,0E0,0E0,0E0,0E0,0E0,0E0,0E0,0E0,0E0,0E0,0E0,0E0,0E0,0E0,0E0,0E0,0E0,0E0,0E0,0E0,0E0,0E0,0E0,0E0,0E0,0E0],"parents":[2147483647,0,0,1,1,2,2,3,3,4,4,5,5,6,6,7,7,8,8,9,9,10,10,11,11,12,12,13,13,14,14,15,15,16,16,17,17,18,18,19,19,20,20,21,21,22,22,23,23,24,24,25,25,26,26,27,27,28,28,29,29,30,30,31,31,32,32,33,33,34,34,35,35,36,36,37,37,38,38,39,39,40,40,41,41,42,42,43,43,44,44,45,45,46,46,47,47,48,48,49,49,50,50,51,51,52,52,53,53,54,54,55,55,56,56,57,57,58,58,59,59,60,60,61,61,62,62,63,63,64,64,65,65,66,66,67,67,68,68,70,70,71,71,72,72,73,73,74,74,75,75,76,76,77,77,78,78,79,79,80,80,81,81,82,82,83,83,84,84,85,85,86,86,87,87,88,88,90,90,91,91,92,92,93,93,94,94,95,95,96,96,97,97,98,98,99,99,100,100,101,101,102,102,103,103,104,104,105,105,107,107,108,108,109,109,110,110,111,111,112,112,113,113,114,114,115,115,119,119,120,120,122,122,123,123,124,124,125,125,128,128,129,129,130,130,131,131,132,132,133,133,134,134,135,135,137,137,138,138,139,139,140,140,141,141,142,142,143,143,144,144,145,145,146,146,147,147,148,148,149,149,150,150,151,151,152,152,153,153,154,154,155,155,156,156,157,157,158,158,159,159,160,160,161,161,162,162,163,163,164,164,165,165,166,166,167,167,168,168,169,169,170,170,171,171,172,172,173,173,174,174,175,175,176,176,177,177,179,179,180,180,181,181,184,184,185,185,186,186,187,187,188,188,189,189,191,191,192,192,195,195,196,196,197,197,199,199,200,200,201,201,202,202,203,203,204,204,205,205,206,206,207,207,208,208,209,209,210,210,214,214,215,215,216,216,218,218,219,219,220,220,221,221,222,222,223,223,224,224,225,225,226,226,227,227,228,228,229,229,230,230,231,231,232,232,233,233,235,235,237,237],"right_children":[2,4,6,8,10,12,14,16,18,20,22,24,26,28,30,32,34,36,38,40,42,44,46,48,50,52,54,56,58,60,62,64,66,68,70,72,74,76,78,80,82,84,86,88,90,92,94,96,98,100,102,104,106,108,110,112,114,116,118,120,122,124,126,128,130,132,134,136,138,-1,140,142,144,146,148,150,152,154,156,158,160,162,164,166,168,170,172,174,176,-1,178,180,182,184,186,188,190,192,194,196,198,200,202,204,206,208,-1,210,212,214,216,218,220,222,224,226,-1,-1,-1,228,230,-1,232,234,236,238,-1,-1,240,242,244,246,248,250,252,254,-1,256,258,260,262,264,266,268,270,272,274,276,278,280,282,284,286,288,290,292,294,296,298,300,302,304,306,308,310,312,314,316,318,320,322,324,326,328,330,332,334,336,-1,338,340,342,-1,-1,344,346,348,350,352,354,-1,356,358,-1,-1,360,362,364,-1,366,368,370,372,374,376,378,380,382,384,386,388,-1,-1,-1,390,392,394,-1,396,398,400,402,404,406,408,410,412,414,416,418,420,422,424,426,-1,428,-1,430,-1,-1,-1,-1,-1,-1,-1,-1,-1,-1,-1,-1,-1,-1,-1,-1,-1,-1,-1,-1,-1,-1,-1,-1,-1,-1,-1,-1,-1,-1,-1,-1,-1,-1,-1,-1,-1,-1,-1,-1,-1,-1,-1,-1,-1,-1,-1,-1,-1,-1,-1,-1,-1,-1,-1,-1,-1,-1,-1,-1,-1,-1,-1,-1,-1,-1,-1,-1,-1,-1,-1,-1,-1,-1,-1,-1,-1,-1,-1,-1,-1,-1,-1,-1,-1,-1,-1,-1,-1,-1,-1,-1,-1,-1,-1,-1,-1,-1,-1,-1,-1,-1,-1,-1,-1,-1,-1,-1,-1,-1,-1,-1,-1,-1,-1,-1,-1,-1,-1,-1,-1,-1,-1,-1,-1,-1,-1,-1,-1,-1,-1,-1,-1,-1,-1,-1,-1,-1,-1,-1,-1,-1,-1,-1,-1,-1,-1,-1,-1,-1,-1,-1,-1,-1,-1,-1,-1,-1,-1,-1,-1,-1,-1,-1,-1,-1,-1,-1,-1,-1,-1,-1,-1,-1,-1,-1,-1,-1,-1,-1,-1,-1,-1,-1,-1,-1,-1,-1,-1,-1,-1,-1,-1],"split_conditions":[7.285714E0,4.428571E0,1.1285714E1,2.7282085E0,1.1E1,4E0,1.5142858E1,2.0892773E0,4.677284E0,5.4E0,2E0,9E0,9.333333E0,4E0,1E-45,1.5714285E0,1E-45,3E0,1E-45,3.56404E0,4E0,1E-45,6E0,1E-45,1E1,1.2E1,1E1,1E-45,1E-45,1.9428572E1,5E0,1.1126972E0,1E-45,9.9E-1,1E-45,1E-45,2E0,1.1666666E0,3.2E0,1E-45,1E-45,1E-45,1E-45,5.8333335E0,9E0,6.7222877E0,1E0,1E-45,8.182767E0,1.08E0,1E-45,7E0,1.9E1,1E-45,2E0,1E-45,1.3E1,1E-45,6.7222877E0,3E0,9.019893E0,2.5E1,1E-45,-5.8403336E1,1E-45,3.142857E0,8E0,1E-45,1.75E0,1.28E0,1E-45,3.9203377E0,5E0,1E-45,6E0,6E0,1E0,1.2E1,1.3E1,1E-45,1.97E0,5.312833E0,1.1E1,1E0,1E-45,2E0,1.1E1,6E0,1.5E1,9.6E-1,1E-45,4E0,1.7E1,6.4137545E0,1E-45,2E0,3E0,1E-45,1E0,1.4E1,1E-45,5.16E0,1.3E1,1E-45,1E-45,4.426203E0,1E0,1E-45,5E0,4.0224237E0,1E-45,1E0,1.3428572E1,1E-45,1.8E1,1E-45,2.1000001E0,1.54E0,6.499998E-1,9.019893E0,4.7E1,2.7E0,2.4E1,1E-45,2.0857143E1,9.9852914E-1,1.6199999E0,2.0599995E0,9.2E-1,1E-45,1E-45,1E-45,1E-45,8.9018977E-1,1E-45,4E0,6.2999994E-1,1E-45,4E0,4E0,1E-45,1E-45,5E0,1E-45,2E0,1E-45,4.2168407E0,3.56404E0,4E0,1.2E1,1.2E1,1E-45,1E-45,5E0,1E-45,5E0,1E-45,6.08E0,7E0,4E0,6E0,2.8E1,4.8E0,8E0,1.5E1,1E0,1E-45,8E0,6.1552877E0,1E-45,3.8317802E0,1.0299855E0,1.0013614E0,8E0,5.3333335E0,1E0,1E0,1.5E1,-1.0000027E-2,9.694576E-1,1.1E1,9.686984E-1,1.2249998E0,1.1249999E0,9.9860746E-1,1E-45,5.142857E0,6.08E0,5.7065587E0,3.3E1,1.1999998E0,1E-45,1.2E1,2.9249995E0,1.3199998E0,1E-45,4.827583E0,9.393853E-1,8.7999994E-1,3E0,2.2E1,1E-45,8E0,1E-45,1E-45,2E0,4E0,1.7E1,6E0,9.519159E-1,4.827583E0,1.0699997E0,1.6499999E0,1.2899998E0,1.62E0,1.0857142E1,4.5E1,1.6249999E0,1.3E1,1.7E1,2.9E1,1.1E1,2E0,4.9718785E0,1.1E1,2E0,3.6E1,1E-45,1.4E1,1E-45,2.1E1,1E-45,8E0,1.5428572E1,2.3599997E0,1E1,2.04E0,1.6E1,2.645E0,5.9999775E-2,-7E-1,-4E-1,-5E-1,-5E-1,-5E-1,-3E-1,-3E-1,7.999959E-2,-1E-1,3.99997E-2,-4E-1,-4.0500018E-1,-4E-1,0E0,1.1999927E-1,-3E-1,-3E-1,-1E-1,0E0,-3E-1,-2E-1,-2.500002E-1,-4E-1,1E-1,-1E-1,4E-1,1E-1,-1E-1,-2.400033E-1,2.2499974E-1,-1E-1,6E-1,2E-1,0E0,1.9449996E0,0E0,1E-1,1E-1,4E-1,5E-1,-2E-1,-7.0000045E-2,1.9499998E0,1.5E0,6.5499985E-1,1E0,5E-1,8.2999986E-1,-1E-1,1.1E0,-1.500002E-1,6E-1,1E-1,7.5999993E-1,4.8999986E-1,2E-1,3E-1,0E0,2E-1,1E-1,3E-1,-1E-1,1E-1,4E-1,3E-1,6.4499986E-1,6E-1,4.4999417E-2,1.1999997E0,4.7999987E-1,8E-1,2E-1,5E-1,6.449999E-1,8E-1,1.2799999E0,5E-1,2E-1,8.249998E-1,9.0000004E-1,6E-1,5E-1,9.0000004E-1,3E-1,7.199999E-1,8E-1,6.499998E-1,1.2899998E0,1.3799999E0,2.8999996E-1,8.4499997E-1,9.6E-1,1.28E0,1.0999999E0,2.179999E0,6.1999995E-1,1.3999999E0,4E-1,2E-1,4E-1,5E-1,4.8999998E-1,2.7999994E-1,2.6349998E0,1.095E0,9.0000004E-1,6E-1,2.6999983E-1,9.2499983E-1,7.8999907E-1,6.699999E-1,7E-1,1.3499998E0,8.499993E-2,0E0,7E-1,1.1499994E-1,5E-1,1.1E0,9.0000004E-1,8E-1,0E0,5.9999985E-1,7.4999964E-1,9.0000004E-1,1.3199999E0,1.3000001E0,2.0749998E0,1.195E0,1.1E0,1.3849999E0,1.3599999E0,1E0,1.6149998E0,1E0,9.0000004E-1,7E-1,1.2299998E0,1E0,9.549999E-1,8E-1,1.1E0,8E-1,1.3000001E0,1.2E0,1.4599999E0,1.4E0,8E-1,1.3000001E0,1.6299998E0,1.3599999E0,1.4E0,1.6099999E0,1.2E0,1.14E0,1.5E0,1.7E0,1.3000001E0,1.2799997E0,1.7E0,2.6199996E0,1.2E0,1.1E0,9.749996E-1,5.749999E-1,1.9899998E0,1.2349999E0,1.18E0,1.24E0,2.2E0,1.6E0,1.8000001E0,1.4E0,1.8299996E0,1.63E0,2.19E0,2.2949994E0,2.1000001E0,2.2E0,2.8399992E0,2.57E0,3.0349998E0,2.695E0,3.875E0,4.035E0,1.6099999E0,1.7349995E0,1.6199998E0,3.1199996E0,3.6999996E0,2.87E0],"split_indices":[33,33,33,37,31,4,33,37,37,33,7,33,33,4,38,33,38,33,38,37,4,39,32,39,31,32,32,38,38,33,4,37,38,10,15,38,7,33,33,39,38,39,38,33,3,37,30,38,37,10,39,31,30,38,7,39,31,16,37,4,37,30,38,12,38,33,2,15,33,0,38,37,31,38,31,4,30,1,31,38,10,37,32,29,38,7,32,30,31,0,39,4,31,37,38,4,32,38,28,30,16,10,30,38,39,37,0,39,32,37,39,30,33,39,3,39,0,0,0,37,2,0,33,39,33,13,0,0,10,39,15,39,38,13,15,4,0,39,4,4,15,39,1,38,7,39,37,37,4,3,2,38,39,2,39,30,39,10,7,4,30,3,33,31,3,4,38,2,37,39,37,13,13,32,33,28,29,31,0,13,1,13,0,0,13,39,33,10,37,2,0,39,1,0,0,39,37,13,0,1,3,39,3,39,39,7,3,3,4,13,37,0,0,0,10,33,2,0,32,30,3,3,4,37,32,7,2,39,31,39,32,39,3,33,0,32,0,31,0,0,0,0,0,0,0,0,0,0,0,0,0,0,0,0,0,0,0,0,0,0,0,0,0,0,0,0,0,0,0,0,0,0,0,0,0,0,0,0,0,0,0,0,0,0,0,0,0,0,0,0,0,0,0,0,0,0,0,0,0,0,0,0,0,0,0,0,0,0,0,0,0,0,0,0,0,0,0,0,0,0,0,0,0,0,0,0,0,0,0,0,0,0,0,0,0,0,0,0,0,0,0,0,0,0,0,0,0,0,0,0,0,0,0,0,0,0,0,0,0,0,0,0,0,0,0,0,0,0,0,0,0,0,0,0,0,0,0,0,0,0,0,0,0,0,0,0,0,0,0,0,0,0,0,0,0,0,0,0,0,0,0,0,0,0,0,0,0,0,0,0,0,0,0,0,0,0,0,0,0,0,0,0,0,0,0,0,0,0,0,0,0],"split_type":[0,0,0,0,0,0,0,0,0,0,0,0,0,0,1,0,1,0,1,0,0,1,0,1,0,0,0,1,1,0,0,0,1,0,1,1,0,0,0,1,1,1,1,0,0,0,0,1,0,0,1,0,0,1,0,1,0,1,0,0,0,0,1,0,1,0,0,1,0,0,1,0,0,1,0,0,0,0,0,1,0,0,0,0,1,0,0,0,0,0,1,0,0,0,1,0,0,1,0,0,1,0,0,1,1,0,0,1,0,0,1,0,0,1,0,1,0,0,0,0,0,0,0,1,0,0,0,0,0,1,1,1,1,0,1,0,0,1,0,0,1,1,0,1,0,1,0,0,0,0,0,1,1,0,1,0,1,0,0,0,0,0,0,0,0,0,1,0,0,1,0,0,0,0,0,0,0,0,0,0,0,0,0,0,0,1,0,0,0,0,0,1,0,0,0,1,0,0,0,0,0,1,0,1,1,0,0,0,0,0,0,0,0,0,0,0,0,0,0,0,0,0,0,0,0,0,0,1,0,1,0,1,0,0,0,0,0,0,0,0,0,0,0,0,0,0,0,0,0,0,0,0,0,0,0,0,0,0,0,0,0,0,0,0,0,0,0,0,0,0,0,0,0,0,0,0,0,0,0,0,0,0,0,0,0,0,0,0,0,0,0,0,0,0,0,0,0,0,0,0,0,0,0,0,0,0,0,0,0,0,0,0,0,0,0,0,0,0,0,0,0,0,0,0,0,0,0,0,0,0,0,0,0,0,0,0,0,0,0,0,0,0,0,0,0,0,0,0,0,0,0,0,0,0,0,0,0,0,0,0,0,0,0,0,0,0,0,0,0,0,0,0,0,0,0,0,0,0,0,0,0,0,0,0,0,0,0,0,0,0,0,0,0,0,0,0,0,0,0,0,0,0,0,0,0,0,0,0,0,0,0,0,0,0,0,0,0,0,0,0,0,0,0,0,0,0,0,0,0,0,0],"sum_hessian":[3.016E5,2.83255E5,1.8345E4,2.68514E5,1.4741E4,1.0742E4,7.603E3,2.52672E5,1.5842E4,1.2748E4,1.993E3,6.115E3,4.627E3,4.514E3,3.089E3,2.38017E5,1.4655E4,1.3033E4,2.809E3,5.526E3,7.222E3,4.65E2,1.528E3,3.312E3,2.803E3,2.944E3,1.683E3,2.634E3,1.88E3,2.292E3,7.97E2,2.15563E5,2.2454E4,6.901E3,7.754E3,7.313E3,5.72E3,1.105E3,1.704E3,3.222E3,2.304E3,4.339E3,2.883E3,3.33E2,1.32E2,6.62E2,8.66E2,1.639E3,1.673E3,1.761E3,1.042E3,2.111E3,8.33E2,8.06E2,8.77E2,1.331E3,1.303E3,1.82E3,6E1,1.334E3,9.58E2,5.51E2,2.46E2,1.7197E5,4.3593E4,8.464E3,1.399E4,1.51E3,5.391E3,2E1,7.734E3,2.408E3,4.905E3,8.07E2,4.913E3,4.16E2,6.89E2,1.148E3,5.56E2,1.699E3,1.523E3,1.73E3,5.74E2,1.093E3,3.246E3,1.895E3,9.88E2,1.41E2,1.92E2,3.3E1,9.9E1,5.83E2,7.9E1,7.6E1,7.9E2,1.569E3,7E1,1.616E3,5.7E1,9E2,8.61E2,3.21E2,7.21E2,8.91E2,1.22E3,7.94E2,3.9E1,7.56E2,5E1,3.26E2,5.51E2,3.91E2,9.4E2,9.91E2,3.12E2,1.79E3,3E1,2.3E1,3.7E1,5.75E2,7.59E2,3.9E2,5.68E2,4.84E2,6.7E1,2.15E2,3.1E1,2.2E1,1.71948E5,1.483E4,2.8763E4,7.523E3,9.41E2,1.826E3,1.2164E4,1.474E3,3.6E1,1.705E3,3.686E3,2.883E3,4.851E3,1.965E3,4.43E2,3.762E3,1.143E3,5.52E2,2.55E2,3.668E3,1.245E3,3.34E2,8.2E1,2.43E2,4.46E2,1.059E3,8.9E1,4.79E2,7.7E1,1.245E3,4.54E2,1E3,5.23E2,1.382E3,3.48E2,5.29E2,4.5E1,7.37E2,3.56E2,5.41E2,2.705E3,5.81E2,1.314E3,8.64E2,1.24E2,7E1,7.1E1,9.8E1,9.4E1,7.8E1,2.1E1,3.62E2,2.21E2,4.1E1,3.8E1,3.4E1,4.2E1,5.55E2,2.35E2,8.23E2,7.46E2,4.1E1,2.9E1,3.88E2,1.228E3,3.2E1,2.5E1,7.85E2,1.15E2,8.38E2,2.3E1,2.67E2,5.4E1,5.68E2,1.53E2,4.76E2,4.15E2,6.76E2,5.44E2,2.35E2,5.59E2,2.05E2,5.51E2,2.5E1,2.5E1,2.6E1,3E2,3.46E2,2.05E2,2.2E1,3.69E2,6.34E2,3.06E2,8.71E2,1.2E2,1.78E2,1.34E2,5.09E2,1.281E3,4.46E2,1.29E2,6.92E2,6.7E1,2.52E2,3.16E2,4.57E2,2.7E1,4.5E1,2.2E1,4.5E1,1.7E2,4.6E1,1.71902E5,2.547E3,1.2283E4,3.78E2,2.8385E4,3.92E3,3.603E3,3.43E2,5.98E2,8.3E1,1.743E3,1.2E2,1.2044E4,8.59E2,6.15E2,3.4E2,1.365E3,2.044E3,1.642E3,1.663E3,1.22E3,1.69E2,4.682E3,1.233E3,7.32E2,1.93E2,2.5E2,9.95E2,2.767E3,2.14E2,9.29E2,2.31E2,3.21E2,2.29E2,2.6E1,2.515E3,1.153E3,7.5E2,4.95E2,1.01E2,2.33E2,3.3E1,4.9E1,1.15E2,1.28E2,1.96E2,2.5E2,1.33E2,9.26E2,5.6E1,3.3E1,3.31E2,1.48E2,2.7E1,5E1,1.202E3,4.3E1,3.87E2,6.7E1,5.95E2,4.05E2,3.39E2,1.84E2,1.214E3,1.68E2,1.3E2,2.18E2,4.9E2,3.9E1,2.5E1,2E1,1.83E2,5.54E2,9E1,2.66E2,4.7E1,4.94E2,2.551E3,1.54E2,4.06E2,1.75E2,6.1E2,7.04E2,7.89E2,7.5E1,7.5E1,4.9E1,4E1,3E1,4.1E1,3E1,6.7E1,3.1E1,5.9E1,3.5E1,5.5E1,2.3E1,1.13E2,2.49E2,1.83E2,3.8E1,2E1,2.1E1,2.2E1,2E1,2.56E2,2.99E2,4.1E1,1.94E2,7.81E2,4.2E1,5.57E2,1.89E2,2E1,2.1E1,3.32E2,5.6E1,1.129E3,9.9E1,3.33E2,4.52E2,2.6E1,8.9E1,3.2E1,8.06E2,3.7E1,2.3E2,3.4E1,2E1,4.46E2,1.22E2,3.1E1,1.22E2,1.76E2,3E2,2.21E2,1.94E2,2.13E2,4.63E2,4.8E1,4.96E2,1.25E2,1.1E2,3.89E2,1.7E2,3.5E1,1.7E2,2.83E2,2.68E2,1.93E2,1.07E2,2.69E2,7.7E1,1.8E2,2.5E1,1.58E2,2.11E2,5.43E2,9.1E1,2.8E2,2.6E1,2.89E2,5.82E2,5.6E1,6.4E1,2.6E1,1.52E2,8.3E1,5.1E1,1.66E2,3.43E2,9.38E2,3.43E2,3.73E2,7.3E1,6.1E1,6.8E1,2.16E2,4.76E2,4.7E1,2E1,1.32E2,1.2E2,6.4E1,2.52E2,4.5E1,4.12E2,2.2E1,2.3E1,2.3E1,2.2E1],"tree_param":{"num_deleted":"0","num_feature":"40","num_nodes":"431","size_leaf_vector":"1"}},{"base_weights":[-7.819455E-3,-3.54612E-2,4.0119338E-1,-4.3964896E-2,9.414028E-2,2.846496E-1,5.486776E-1,-4.712038E-2,-6.866387E-3,6.380937E-2,1.3778727E-1,3.4834936E-1,2.368464E-1,4.7307453E-1,6.511602E-1,-4.8094686E-2,-3.0492771E-2,-1.592596E-2,2.260735E-2,5.3048767E-2,1.3580523E-1,1.8812703E-1,9.975411E-2,3.0907455E-1,4.272907E-1,1.7358533E-1,2.713507E-1,5.54909E-1,4.1119537E-1,6.0329807E-1,7.4394065E-1,-4.876407E-2,-4.203439E-2,-2.267215E-2,-4.23628E-2,-1.0417174E-2,-3.7164237E-2,5.759463E-2,-5.2110213E-3,1.19504385E-1,4.2228136E-2,2.0271929E-1,8.5835494E-2,1.7326069E-1,2.731868E-1,1.629576E-1,7.806929E-2,3.359251E-1,2.3143218E-1,3.9099407E-1,4.999004E-1,2.3845193E-1,1.351401E-1,2.9760137E-1,2.3479442E-1,5.781889E-1,4.6299765E-1,4.5805556E-1,3.4482607E-1,6.4351445E-1,5.463996E-1,7.9065216E-1,6.8101144E-1,4.761904E-3,-4.8773568E-2,-4.2430386E-2,-6.1508054E-3,-2.4617456E-2,2.4922106E-2,-3.700101E-2,-4.5536786E-2,9.693382E-4,-1.8959558E-2,-3.9238047E-2,-6.067973E-3,5.02576E-2,5.4531246E-2,9.4669E-3,-2.7102388E-2,1.827392E-1,7.246174E-2,2.1981735E-2,6.2363766E-2,5.6967203E-2,2.418708E-1,1.1753392E-1,4.2461526E-2,2.2089459E-1,1.5158245E-1,1.733108E-1,3.202922E-1,1.5189548E-1,3.31746E-1,6.823792E-2,1.5125698E-1,3.9874998E-1,3.0410323E-1,1.2838982E-1,2.4918154E-1,4.00051E-1,1.40540525E-2,5.5354106E-1,3.703333E-1,3.480663E-1,2.0611915E-1,1.1065655E-1,2.0081742E-1,2.6713815E-1,3.5704133E-1,2.2094594E-1,4.4554454E-1,6.133577E-1,5.0973684E-1,5.7078314E-1,3.929389E-1,5.307692E-1,4.072547E-1,3.6380813E-1,1.7731091E-1,7.9467215E-2,6.283558E-1,5.77267E-1,4.165803E-1,8.005979E-1,4.522727E-2,7.33E-1,5.731428E-1,-4.9190473E-2,-4.670911E-2,-3.9489973E-2,-4.560265E-2,1.5166665E-2,-2.7354272E-2,4.481131E-2,-2.5565477E-2,1.4166665E-1,7.321417E-3,-1.2915141E-2,-4.074396E-2,-2.3931636E-2,-4.6299152E-2,-2.611052E-2,6.530918E-3,1.0341354E-2,-2.112782E-2,-4.0006664E-2,-3.0769347E-3,2.7472517E-2,-3.23276E-2,1.6245723E-2,1.2444112E-1,-1.1119415E-2,2.3779843E-2,9.5890295E-3,-3.6244303E-2,2.6820275E-1,1.236593E-1,3.7322503E-2,1.4845814E-1,-2.3792214E-3,3.5445333E-2,9.411993E-2,4.6479955E-2,1.4583333E-2,1.9540219E-2,7.552082E-2,2.8629944E-1,1.674208E-1,6.734233E-2,5.8801487E-2,-3.2203402E-2,2.8351447E-1,1.8853973E-1,1.8273313E-1,1.0445061E-1,3.5925925E-2,1.3073769E-1,4.3160376E-1,2.6059112E-1,2.4746376E-1,1.3599522E-1,1.939394E-2,4.6774194E-2,3.856931E-2,7.828155E-2,2.8382352E-1,9.805446E-2,4.7251242E-1,3.1504178E-1,2.728529E-1,3.6693385E-1,1.7157893E-1,-4.7916677E-3,2.2457446E-1,3.049261E-1,4.742765E-1,3.6499998E-1,3.8081396E-1,6.0690296E-1,2.4013157E-1,4.9733332E-1,4.283333E-1,2.6576087E-1,2.2106642E-1,3.0999988E-2,2.2022471E-1,9.9722825E-2,1.741883E-1,3.3416665E-1,2.9989234E-1,2.1528715E-1,4.6495098E-1,3.1786337E-1,2.098178E-1,4.4383562E-1,5.328358E-1,2.6571428E-2,6.449344E-1,5.070588E-1,4.6692505E-1,5.9701085E-1,6.695312E-1,5.038835E-1,3.2624114E-1,4.6680325E-1,4.5891812E-1,6.054348E-1,3.7229627E-1,4.8890844E-1,3.3264402E-1,4.2205054E-1,2.0689645E-3,2.2527471E-1,6.34251E-1,3.1199997E-2,5.453543E-1,7.003125E-1,5.094488E-1,2.3432834E-1,7.804152E-1,8.900862E-2,8.2366663E-1,6.6169155E-1,3.6585364E-1,6.3185185E-1,-4.444456E-4,-4.920183E-3,-4.0706373E-3,-4.769881E-3,-3.3960037E-3,-4.362318E-3,-2.8684223E-3,-4.589776E-3,3.099999E-3,-4.396553E-3,1.511111E-2,-3.3064529E-3,-1.618308E-3,-3.2696258E-3,2.3809522E-2,4.318181E-3,3.6728382E-3,-3.2773123E-3,-2.4255333E-3,5.9459447E-3,-4.1802814E-3,4.761904E-3,1.7777767E-3,-4.931508E-3,-4.722893E-3,-3.849433E-3,-3.2418238E-3,5.367646E-3,1.6791032E-3,-6.8753323E-4,1.1749999E-2,-4.3280303E-4,-4.083145E-3,-1.816394E-3,-2.5672056E-3,-4.201443E-3,-4.8387107E-3,3.7142846E-3,1.1874999E-2,-5.1470706E-4,-4.9468097E-3,3.9130426E-3,2.3673052E-5,5.7439017E-3,7.683167E-3,2.6766468E-2,1.1014481E-3,-3.4509215E-3,7.1764695E-3,6.488E-4,1.1290322E-2,-7.4074196E-4,-2.2740976E-3,-4.4403686E-3,3.505263E-2,2.0243902E-2,3.0441174E-2,1.0158449E-2,1.4385463E-3,9.7426465E-3,3.8095236E-2,1.24154575E-2,1.8269218E-3,-1.7232717E-3,2.5254514E-3,6.102417E-3,1.3218849E-2,5.781486E-3,6.1140186E-3,1.6881584E-3,-4.87805E-3,7.872339E-3,2.0138877E-3,2.32E-2,2.4070946E-2,5.1016953E-2,2.3636352E-3,2.1377245E-2,1.139423E-2,2.6050408E-3,1.1422413E-2,1.6118409E-3,-4.8717964E-3,-1.1353266E-9,4.284091E-2,2.5493562E-2,1.3683333E-2,2.5185948E-2,1.574147E-2,2.4208074E-2,5.506992E-3,1.3675115E-2,1.9423075E-2,1.7777767E-3,5.902778E-2,3.4507044E-2,2.1314101E-2,4.09375E-2,1.4191176E-2,3.4507044E-2,1.2101139E-2,2.1123188E-2,1.3272727E-2,3.020832E-3,6.888172E-3,1.33564E-2,2.3214275E-3,3.773333E-2,1.5351561E-2,4.2692297E-3,3.662921E-2,5.011147E-2,1.0666666E-2,3.4380954E-2,2.7967645E-2,-8.0000114E-4,4.642361E-2,3.2654494E-2,7.5892843E-3,3.0124998E-2,-4.3478375E-4,2.3582589E-2,3.515432E-2,1.1785713E-2,5.1245283E-2,2.4893617E-2,3.054945E-2,4.048995E-2,4.9456522E-2,2.4390243E-2,6.3606195E-2,4.395349E-2,1.7735848E-2,3.6875E-2,6.0232557E-2,3.4545455E-2,2.848485E-2,5.0258618E-2,3.823529E-2,1.1785713E-2,1.6071428E-2,2.726384E-2,1.1874999E-2,-4.814816E-3,3.890625E-2,1.2327585E-2,9.2586195E-3,2.848485E-2,3.2285716E-2,1.5456202E-2,2.2625E-2,5.238095E-2,2.2410957E-2,3.483186E-2,1.9669903E-2,3.3525642E-2,7.161765E-2,4.1228067E-2,2.391111E-2,3.6801152E-2,1.540594E-2,2.3839468E-2,2.3714285E-2,6.1794873E-2,6.0857143E-2,4.3636363E-2,6.935864E-2,6.029476E-2,5.3950895E-2,2.6406249E-2,2.111111E-2,4.8476454E-2,7.025641E-2,4.0661763E-2,7.4659094E-2,4.761905E-2,3.9850745E-2,6.8108104E-2,3.6923077E-2,1.1199999E-2,6.319149E-2,3.5855263E-2,4.768025E-2,2.0208333E-2,6.679436E-2,3.906667E-2,4.768617E-2,3.3125E-2,4.009259E-2,6.00813E-2,3.399847E-2,1.1874999E-2,4.904018E-2,3.037594E-2,1.2745097E-2,3.4146342E-2,5.8504857E-2,6.685159E-2,5.9354004E-2,4.682731E-2,7.4208334E-2,5.6097563E-2,5.5876285E-2,3.3870965E-2,4.318181E-3,3.2065216E-2,8.695946E-2,7.650728E-2,8.566406E-2,6.0434785E-2,5.328358E-2,7.207408E-2,4.285714E-2,2.8571427E-2,7.096385E-2,4.981132E-2],"categories":[1,4,5,6,1,4,5,6,1,4,5,6,2,5,12,14,15,18,0,2,5,6,8,12,14,15,18,0,1,2,4,5,6,7,8,9,11,12,13,14,15,18,19,0,1,2,4,5,6,7,8,9,10,11,12,13,14,15,16,18,19,0,1,3,4,6,7,9,3,4,6,9,0,1,3,4,6,7,9,0,1,3,4,7,3,4,6,8,0,1,2,4,5,6,7,8,9,11,12,13,14,15,16,18,19,1,5,6,1,5,6,1,4,5,6,0,3,4,5,6,7,8,9,4,5,6,0,1,2,3,5,6,7,8,9,10,11,12,13,14,15,17,18,19,0,1,2,4,5,6,7,8,9,10,11,12,13,14,15,17,18,19,0,1,2,4,5,6,7,8,9,10,11,12,13,14,15,17,18,19,2,3,4,5,6,7,8,9,0,1,3,4,6,7,0,1,2,6,8,9,12,14,15,18,0,2,3,4,5,6,7,8,9,0,1,2,4,5,6,7,9,11,12,13,14,15,16,17,18,19,20,21,22,23,24,25,26,27,28,30,0,1,2,3,4,6,7,8,9,4,7,9,10,11,13,16,17,19,0,1,3,4,5,6,8,9,2,3,4,6,8,9,1,2,4,5,6,3,4,5,3,6,8,9,0,1,3,4,5,6,7,8,9,0,1,2,3,4,5,6,7,8,9,10,11,12,13,14,15,18,19,0,1,2,4,5,6,7,8,9,10,11,12,13,14,15,16,17,18,19,0,1,2,5,6,7,8,9,11,12,13,14,15,18,0,3,5,7,8,9,0,1,3,4,5,6,8,9,10,11,12,13,14,15,16,18,19,20,23,25,26,27,29,30,1,2,3,4,5,6,7,8,9,10,11,12,13,14,15,16,0,1,2,3,5,6,7,8,9,10,11,12,13,19,1,4,5,6,0,1,2,1,3,5,0,3,5,6,8,9,1,2,3,4,5,7,8,9,4,5,7,9,13,19,0,3,5,6,8,9,0,2,4,7,8,0,1,2,5,6,7,8,9,10,11,12,13,14,15,17,18,1,7,9,0,1,2,3,6,0,1,2,3,4,5,6,7,0,2,3,4,5,6,7,9,0,1,2,4,5,7,8,0,1,2,4,5,6,7,8,9,10,11,12,13,14,15,17,18,19,0,1,2,3,4,5,7,0,2,3,4,5,6,7,8,9,1,3,4,5,6,7,0,1,3,4,5,6,7],"categories_nodes":[5,10,13,16,17,18,20,22,23,25,26,27,28,29,30,35,38,42,43,50,55,57,62,65,66,67,70,72,74,79,82,86,88,89,95,108,128,129,130,132,133,134,135,136,142,143,151,154,159,161,162,186,189,190,194,202,205,220,230,241],"categories_segments":[0,4,8,12,18,27,43,61,68,72,79,84,88,105,108,111,115,123,126,144,162,180,188,194,204,213,240,249,258,266,272,277,280,284,293,311,330,344,350,374,390,404,408,411,414,420,428,434,440,445,461,464,469,477,485,492,510,517,526,532],"categories_sizes":[4,4,4,6,9,16,18,7,4,7,5,4,17,3,3,4,8,3,18,18,18,8,6,10,9,27,9,9,8,6,5,3,4,9,18,19,14,6,24,16,14,4,3,3,6,8,6,6,5,16,3,5,8,8,7,18,7,9,6,7],"default_left":[0,0,0,0,0,1,0,0,0,0,1,0,0,1,0,0,1,1,1,0,1,0,1,1,0,1,1,1,1,1,1,0,0,0,0,1,0,0,1,0,0,0,1,1,0,0,0,0,0,0,1,0,0,0,0,1,0,1,0,0,0,0,1,0,0,1,1,1,0,0,1,0,1,0,1,0,0,0,0,1,0,0,1,0,0,0,1,0,1,1,0,0,0,0,0,1,0,0,0,0,0,0,0,0,0,0,0,0,1,0,0,0,0,0,0,0,0,0,0,0,0,0,0,0,0,0,0,0,1,1,1,0,1,1,1,1,1,0,0,0,0,0,1,1,0,0,0,0,0,0,0,1,0,0,1,0,0,0,0,1,0,1,1,0,0,0,0,0,0,0,0,0,0,0,0,0,0,0,0,0,0,0,0,0,0,0,1,0,0,1,1,0,0,0,1,0,0,0,0,0,0,0,1,0,0,1,0,0,0,0,0,0,0,0,0,0,0,0,0,0,1,0,0,0,0,0,0,0,0,0,1,0,0,0,0,0,0,0,0,0,0,1,0,0,0,0,0,0,0,0,0,0,0,0,0,0,0,0,0,0,0,0,0,0,0,0,0,0,0,0,0,0,0,0,0,0,0,0,0,0,0,0,0,0,0,0,0,0,0,0,0,0,0,0,0,0,0,0,0,0,0,0,0,0,0,0,0,0,0,0,0,0,0,0,0,0,0,0,0,0,0,0,0,0,0,0,0,0,0,0,0,0,0,0,0,0,0,0,0,0,0,0,0,0,0,0,0,0,0,0,0,0,0,0,0,0,0,0,0,0,0,0,0,0,0,0,0,0,0,0,0,0,0,0,0,0,0,0,0,0,0,0,0,0,0,0,0,0,0,0,0,0,0,0,0,0,0,0,0,0,0,0,0,0,0,0,0,0,0,0,0,0,0,0,0,0,0,0,0,0,0,0,0,0,0,0,0,0,0,0,0,0,0,0,0,0,0,0,0,0,0,0,0,0,0,0,0,0,0,0,0,0,0,0,0,0,0,0,0,0,0],"id":1,"left_children":[1,3,5,7,9,11,13,15,17,19,21,23,25,27,29,31,33,35,37,39,41,43,45,47,49,51,53,55,57,59,61,63,65,67,69,71,73,75,77,79,81,83,85,87,89,91,93,95,97,99,101,103,105,107,109,111,113,115,117,119,121,123,125,-1,127,129,131,133,135,137,139,141,143,145,147,149,-1,151,153,155,157,159,161,163,165,167,169,171,173,175,177,179,181,183,185,187,189,191,193,195,-1,197,199,201,203,205,207,209,211,213,215,217,219,221,223,225,227,229,231,-1,233,235,237,239,-1,241,243,245,247,249,251,-1,253,255,257,259,261,263,265,267,269,271,273,275,277,279,281,283,285,287,289,291,293,295,297,299,301,303,305,307,309,311,313,-1,315,317,319,321,323,325,327,329,331,333,335,-1,337,339,341,343,345,-1,-1,347,349,351,353,355,357,359,361,363,-1,365,367,369,371,373,375,377,379,381,383,385,387,389,391,393,395,397,399,401,403,405,407,409,-1,411,413,415,417,419,421,423,425,427,429,431,433,435,437,-1,439,441,-1,443,445,447,449,451,-1,453,455,457,459,-1,-1,-1,-1,-1,-1,-1,-1,-1,-1,-1,-1,-1,-1,-1,-1,-1,-1,-1,-1,-1,-1,-1,-1,-1,-1,-1,-1,-1,-1,-1,-1,-1,-1,-1,-1,-1,-1,-1,-1,-1,-1,-1,-1,-1,-1,-1,-1,-1,-1,-1,-1,-1,-1,-1,-1,-1,-1,-1,-1,-1,-1,-1,-1,-1,-1,-1,-1,-1,-1,-1,-1,-1,-1,-1,-1,-1,-1,-1,-1,-1,-1,-1,-1,-1,-1,-1,-1,-1,-1,-1,-1,-1,-1,-1,-1,-1,-1,-1,-1,-1,-1,-1,-1,-1,-1,-1,-1,-1,-1,-1,-1,-1,-1,-1,-1,-1,-1,-1,-1,-1,-1,-1,-1,-1,-1,-1,-1,-1,-1,-1,-1,-1,-1,-1,-1,-1,-1,-1,-1,-1,-1,-1,-1,-1,-1,-1,-1,-1,-1,-1,-1,-1,-1,-1,-1,-1,-1,-1,-1,-1,-1,-1,-1,-1,-1,-1,-1,-1,-1,-1,-1,-1,-1,-1,-1,-1,-1,-1,-1,-1,-1,-1,-1,-1,-1,-1,-1,-1,-1,-1,-1,-1,-1,-1,-1,-1,-1,-1,-1,-1,-1,-1,-1,-1,-1,-1,-1,-1,-1,-1,-1,-1,-1,-1,-1],"loss_changes":[3.412102E3,3.1155997E2,3.282273E2,3.1055359E1,2.3035507E1,3.242035E1,6.502319E1,3.9594116E0,5.553565E0,7.9507103E0,1.3643677E1,1.4049194E1,1.3270081E1,2.4361816E1,1.5435425E1,9.348755E-1,1.2556E0,1.8608036E0,4.759684E0,6.4221954E0,4.4464073E0,3.8347626E0,5.561325E0,6.297394E0,3.8025818E0,5.344429E0,3.7167969E0,4.199951E0,8.453857E0,5.0601196E0,3.0271606E0,1.9274902E-1,3.262787E-1,7.562952E-1,8.978748E-2,1.2288043E0,2.1102333E-1,7.7234125E0,8.7585294E-1,3.7081509E0,3.1328278E0,3.2388802E0,1.0481725E0,2.6678543E0,2.0851288E0,1.8877201E0,2.1698704E0,4.416931E0,1.4110374E0,2.2483978E0,3.2839508E0,2.767109E0,2.158247E0,4.0566406E0,4.728874E0,3.6884155E0,3.000122E0,5.767975E0,3.5922394E0,2.6627197E0,3.7106018E0,1.9600525E0,2.5184174E0,0E0,1.7669678E-1,2.1021271E-1,8.474106E-1,5.173044E-1,6.585486E-1,1.8013835E-1,5.4432392E-2,8.15857E-1,4.587934E-1,8.5232735E-2,1.8232483E-1,5.384841E0,0E0,4.811344E-1,3.6730784E-1,2.6580467E0,1.9145164E0,1.257911E0,1.9396172E0,4.0292126E-1,3.2968006E0,1.0954499E0,3.9840072E-1,1.5998116E0,2.625122E0,1.1246591E0,1.9343185E0,1.4494381E0,1.0899782E0,7.934818E-1,2.497098E0,4.5437775E0,2.8666992E0,9.067352E-1,8.5331345E-1,2.3765411E0,0E0,3.022499E0,2.3609161E0,1.0819263E0,1.6186485E0,1.1640472E0,1.2449989E0,2.5169067E0,3.1244278E0,3.7613297E0,1.4438763E0,3.3416748E0,1.8509521E0,7.592621E-1,1.1384735E0,3.2790222E0,2.5525818E0,1.7327576E0,8.892858E-1,0E0,2.150116E0,2.7359009E0,3.1472397E0,5.136719E-1,0E0,1.7178497E0,1.8985367E0,8.7677E-2,2.0575714E-1,2.6829147E-1,5.3239822E-2,0E0,2.1752523E-1,8.824841E-1,5.1710606E-1,3.8858223E-1,3.3134016E-1,2.2386318E-1,1.6423035E-1,1.2474792E-1,2.1810055E-2,4.662615E-1,6.182637E-1,7.833403E-1,3.9175916E-1,8.546448E-2,1.2025098E-1,2.7155766E-1,1.4401552E-1,9.660998E-1,4.554847E0,3.4724402E-1,7.9858035E-1,3.853947E-1,9.550667E-2,1.103857E0,1.2339306E0,6.782516E-1,1.235352E0,4.1926908E-1,6.423118E-1,1.7669497E0,1.114573E0,0E0,3.556192E-1,8.272753E-1,3.4902039E0,1.467834E0,4.242046E-1,6.2977654E-1,3.1377666E-2,1.033678E0,1.7367897E0,1.5891953E0,1.1392899E0,0E0,8.715522E-1,1.2517548E0,1.3458872E0,1.3727865E0,9.202709E-1,0E0,0E0,5.2974844E-1,1.0280132E0,2.4769316E0,7.825515E-1,1.0377808E0,2.115345E0,1.9435654E0,1.809433E0,1.1558702E0,0E0,1.2116051E0,1.7288532E0,2.5478592E0,1.4670486E0,1.2187271E0,1.0283508E0,5.4820585E-1,9.878826E-1,8.157139E-1,1.5414219E0,1.7365227E0,3.529801E-1,1.4088454E0,1.1653261E0,8.487854E-1,1.1094251E0,3.331253E0,1.2542171E0,2.4040833E0,2.1670456E0,2.3246918E0,2.4805765E0,2.239685E-1,0E0,1.2956543E0,1.8682861E0,1.663765E0,3.4121017E0,5.980015E-1,1.6518383E0,1.2572775E0,1.9539852E0,1.474556E0,4.0618744E0,2.7391586E0,2.555275E0,1.0226135E0,2.7294197E0,0E0,9.90787E-1,1.690979E0,0E0,2.0805664E0,5.1493835E-1,8.800583E-1,1.091687E0,9.27124E-2,0E0,5.670624E-1,1.14534E0,8.362341E-2,1.0509377E0,0E0,0E0,0E0,0E0,0E0,0E0,0E0,0E0,0E0,0E0,0E0,0E0,0E0,0E0,0E0,0E0,0E0,0E0,0E0,0E0,0E0,0E0,0E0,0E0,0E0,0E0,0E0,0E0,0E0,0E0,0E0,0E0,0E0,0E0,0E0,0E0,0E0,0E0,0E0,0E0,0E0,0E0,0E0,0E0,0E0,0E0,0E0,0E0,0E0,0E0,0E0,0E0,0E0,0E0,0E0,0E0,0E0,0E0,0E0,0E0,0E0,0E0,0E0,0E0,0E0,0E0,0E0,0E0,0E0,0E0,0E0,0E0,0E0,0E0,0E0,0E0,0E0,0E0,0E0,0E0,0E0,0E0,0E0,0E0,0E0,0E0,0E0,0E0,0E0,0E0,0E0,0E0,0E0,0E0,0E0,0E0,0E0,0E0,0E0,0E0,0E0,0E0,0E0,0E0,0E0,0E0,0E0,0E0,0E0,0E0,0E0,0E0,0E0,0E0,0E0,0E0,0E0,0E0,0E0,0E0,0E0,0E0,0E0,0E0,0E0,0E0,0E0,0E0,0E0,0E0,0E0,0E0,0E0,0E0,0E0,0E0,0E0,0E0,0E0,0E0,0E0,0E0,0E0,0E0,0E0,0E0,0E0,0E0,0E0,0E0,0E0,0E0,0E0,0E0,0E0,0E0,0E0,0E0,0E0,0E0,0E0,0E0,0E0,0E0,0E0,0E0,0E0,0E0,0E0,0E0,0E0,0E0,0E0,0E0,0E0,0E0,0E0,0E0,0E0,0E0,0E0,0E0,0E0,0E0,0E0,0E0,0E0,0E0,0E0,0E0,0E0,0E0,0E0,0E0,0E0,0E0,0E0,0E0,0E0,0E0,0E0,0E0,0E0,0E0,0E0,0E0,0E0,0E0,0E0,0E0,0E0,0E0,0E0,0E0,0E0,0E0],"parents":[2147483647,0,0,1,1,2,2,3,3,4,4,5,5,6,6,7,7,8,8,9,9,10,10,11,11,12,12,13,13,14,14,15,15,16,16,17,17,18,18,19,19,20,20,21,21,22,22,23,23,24,24,25,25,26,26,27,27,28,28,29,29,30,30,31,31,32,32,33,33,34,34,35,35,36,36,37,37,38,38,39,39,40,40,41,41,42,42,43,43,44,44,45,45,46,46,47,47,48,48,49,49,50,50,51,51,52,52,53,53,54,54,55,55,56,56,57,57,58,58,59,59,60,60,61,61,62,62,64,64,65,65,66,66,67,67,68,68,69,69,70,70,71,71,72,72,73,73,74,74,75,75,77,77,78,78,79,79,80,80,81,81,82,82,83,83,84,84,85,85,86,86,87,87,88,88,89,89,90,90,91,91,92,92,93,93,94,94,95,95,96,96,97,97,98,98,99,99,101,101,102,102,103,103,104,104,105,105,106,106,107,107,108,108,109,109,110,110,111,111,112,112,113,113,114,114,115,115,116,116,117,117,118,118,120,120,121,121,122,122,123,123,125,125,126,126,127,127,128,128,129,129,130,130,132,132,133,133,134,134,135,135,136,136,137,137,138,138,139,139,140,140,141,141,142,142,143,143,144,144,145,145,146,146,147,147,148,148,149,149,150,150,151,151,152,152,153,153,154,154,155,155,156,156,157,157,158,158,159,159,160,160,161,161,162,162,164,164,165,165,166,166,167,167,168,168,169,169,170,170,171,171,172,172,173,173,174,174,176,176,177,177,178,178,179,179,180,180,183,183,184,184,185,185,186,186,187,187,188,188,189,189,190,190,191,191,193,193,194,194,195,195,196,196,197,197,198,198,199,199,200,200,201,201,202,202,203,203,204,204,205,205,206,206,207,207,208,208,209,209,210,210,211,211,212,212,213,213,214,214,215,215,217,217,218,218,219,219,220,220,221,221,222,222,223,223,224,224,225,225,226,226,227,227,228,228,229,229,230,230,232,232,233,233,235,235,236,236,237,237,238,238,239,239,241,241,242,242,243,243,244,244],"right_children":[2,4,6,8,10,12,14,16,18,20,22,24,26,28,30,32,34,36,38,40,42,44,46,48,50,52,54,56,58,60,62,64,66,68,70,72,74,76,78,80,82,84,86,88,90,92,94,96,98,100,102,104,106,108,110,112,114,116,118,120,122,124,126,-1,128,130,132,134,136,138,140,142,144,146,148,150,-1,152,154,156,158,160,162,164,166,168,170,172,174,176,178,180,182,184,186,188,190,192,194,196,-1,198,200,202,204,206,208,210,212,214,216,218,220,222,224,226,228,230,232,-1,234,236,238,240,-1,242,244,246,248,250,252,-1,254,256,258,260,262,264,266,268,270,272,274,276,278,280,282,284,286,288,290,292,294,296,298,300,302,304,306,308,310,312,314,-1,316,318,320,322,324,326,328,330,332,334,336,-1,338,340,342,344,346,-1,-1,348,350,352,354,356,358,360,362,364,-1,366,368,370,372,374,376,378,380,382,384,386,388,390,392,394,396,398,400,402,404,406,408,410,-1,412,414,416,418,420,422,424,426,428,430,432,434,436,438,-1,440,442,-1,444,446,448,450,452,-1,454,456,458,460,-1,-1,-1,-1,-1,-1,-1,-1,-1,-1,-1,-1,-1,-1,-1,-1,-1,-1,-1,-1,-1,-1,-1,-1,-1,-1,-1,-1,-1,-1,-1,-1,-1,-1,-1,-1,-1,-1,-1,-1,-1,-1,-1,-1,-1,-1,-1,-1,-1,-1,-1,-1,-1,-1,-1,-1,-1,-1,-1,-1,-1,-1,-1,-1,-1,-1,-1,-1,-1,-1,-1,-1,-1,-1,-1,-1,-1,-1,-1,-1,-1,-1,-1,-1,-1,-1,-1,-1,-1,-1,-1,-1,-1,-1,-1,-1,-1,-1,-1,-1,-1,-1,-1,-1,-1,-1,-1,-1,-1,-1,-1,-1,-1,-1,-1,-1,-1,-1,-1,-1,-1,-1,-1,-1,-1,-1,-1,-1,-1,-1,-1,-1,-1,-1,-1,-1,-1,-1,-1,-1,-1,-1,-1,-1,-1,-1,-1,-1,-1,-1,-1,-1,-1,-1,-1,-1,-1,-1,-1,-1,-1,-1,-1,-1,-1,-1,-1,-1,-1,-1,-1,-1,-1,-1,-1,-1,-1,-1,-1,-1,-1,-1,-1,-1,-1,-1,-1,-1,-1,-1,-1,-1,-1,-1,-1,-1,-1,-1,-1,-1,-1,-1,-1,-1,-1,-1,-1,-1,-1,-1,-1,-1,-1,-1,-1,-1],"split_conditions":[7.071429E0,3.9285715E0,1.0642858E1,2.3171206E0,5.571429E0,1E-45,1.4142858E1,1.8571428E0,3.56404E0,4.9718785E0,1E-45,9.142858E0,8.071428E0,1E-45,1.8285715E1,1.5166624E0,1E-45,1E-45,1E-45,2E0,1E-45,5.512372E0,1E-45,1E-45,1.0071428E1,1E-45,1E-45,1E-45,1E-45,1E-45,1E-45,-1.62E0,3.760699E0,3.6E0,1.3E1,1E-45,7E0,8.826367E0,1E-45,1.08E0,4.5833335E0,3.0331502E0,1E-45,1E-45,4.1804533E0,7.267016E0,1.0303754E0,2E0,3.349761E0,2.3E1,1E-45,7E0,5.137784E0,1E0,5E1,1E-45,1.4E1,1E-45,9.9860746E-1,4E0,8.826367E0,5.2E1,1E-45,2.0139997E0,1.1126972E0,1E-45,1E-45,1E-45,2E0,2E0,1E-45,1.5384616E0,1E-45,3.3846154E0,1E-45,3.391165E0,2.4641998E0,2.5384614E0,1.28E0,1E-45,4.928571E0,2.8959012E0,1E-45,3E0,9.8E-1,2.014E3,1E-45,2E0,1E-45,1E-45,2E0,8E0,5E0,4E0,2.6E1,1E-45,1.1E1,3.2829525E0,1.1E1,2E0,7.9849994E-1,3.59232E0,1.1E1,5E0,1.4E1,7E0,1.4E1,1E1,1E-45,1.9E1,1.1E1,7.554038E0,1.0004283E0,1E0,1.2071428E1,5E0,1E0,1E0,2.014E3,2.0020502E0,5.2E1,1.97E0,1.6E1,2.015E3,2.2003496E0,1.5E1,1.4E1,9.2E-1,1E-45,1E-45,1E-45,7.349999E-1,1E-45,1E-45,1E-45,1E-45,1E-45,2.78E0,8E0,2.013E3,2.6367369E0,3.760699E0,1E-45,1E-45,1.0327955E0,8.9018977E-1,2.19E0,9.424614E-1,4E0,2.3804762E0,4.827583E0,1E-45,2.2990682E0,2.090909E0,1E-45,2.7688746E0,7E0,3.670993E0,9.393853E-1,1E-45,6E0,1E-45,1E-45,5.62E-1,1.6431676E0,2.4E1,7.267016E0,2.73252E0,5.919544E0,1.08E0,1.0004283E0,3E0,3.8483145E0,4.1E1,6.071429E0,1.4209999E0,1.2E1,5E0,6.785714E0,5E0,1E1,1.6854994E0,1.2414998E0,1E0,5.312833E0,3.0331502E0,1E-45,6E0,7.357143E0,1E-45,1E-45,2.8867514E0,-6.0000126E-3,2.0615528E0,1E-45,5.56E0,9E0,1.2E1,1.8E1,3.3E1,8E0,7E0,1E-45,4.1190934E0,3.952094E0,1E-45,3E1,3E0,1E0,8.785714E0,1.8E1,3E0,7E0,8.785714E0,5E0,5E0,4.2999983E-1,1.3E1,2.6E1,6E0,1E-45,1.3E1,1.6E1,7.554038E0,2E0,1.044379E1,1.0256504E0,2.013E3,1.2071428E1,2.2E1,1E-45,2.4049996E-1,7E0,1.2E1,1.4703747E0,1.9E1,6.4137545E0,9.9860746E-1,2E1,1E1,2.298E0,1E-45,1.8E1,1.5E1,8.826367E0,9.399984E-2,-6.3000005E-1,-4.5000002E-1,-4.6000004E-1,-3.5E-1,-3.6999997E-1,-3.6999997E-1,-4.5000002E-1,2.6999995E-1,-5.6000006E-1,8.817499E-1,-1.690001E-1,-8.150041E-2,-2.6000005E-1,2.0500003E-1,2.6379994E-1,7.8999996E-2,-1.7550014E-1,-1.3500033E-1,5.4999918E-2,-3.6000004E-1,1.3999997E-1,1.1499991E-1,-1.6000004E-1,-3.6000004E-1,-2.6000005E-1,-2.119999E-1,5.8199996E-1,1.1000004E-1,-1.1999893E-2,7.999999E-1,-6.70003E-2,-3.7599966E-1,-1E-1,-2.6000005E-1,-3.6000004E-1,-1.2850003E-1,2.4999991E-1,9.9559975E-1,1.9997887E-3,-4.6000004E-1,1.2499993E-1,1.0000038E-2,3.499999E-1,3.6000004E-1,1.4294995E0,1.0499994E-1,-2.3855007E-1,4.187501E-1,8.099981E-2,2.55E-1,-1.0000038E-2,-2.987E-1,-4.0449992E-1,1.1756246E0,7.949999E-1,1.0353999E0,4.7199988E-1,7.974996E-2,3.6619976E-1,9.067499E-1,3.6999997E-1,9.519995E-2,-3.7500072E-2,1.6000004E-1,1.9932498E-1,4.6000004E-1,2.1149981E-1,2.6000005E-1,1.6000004E-1,-1.8500006E-1,4.3742475E-1,2.407E-1,1.1363748E0,8.1000006E-1,3.0284243E0,2.4249993E-1,8.7555E-1,9.739999E-1,4.9099994E-1,5.9199995E-1,5.2799832E-2,-8.0875E-2,1.6467746E0,8.419998E-1,8.7700003E-1,4.9999985E-1,7.4885E-1,4.7629997E-1,7.3349994E-1,1.6999999E-1,4.1000006E-1,7.43E-1,3.9387494E-1,1.772E0,1.27425E0,1.0219998E0,1.2164998E0,2.4319999E-1,3.759999E-1,2.6000005E-1,5.32E-1,5.902497E-1,1.8000002E-1,2.8000003E-1,6.9649994E-1,4.6799965E-2,6.2825006E-1,5.259999E-1,1.9999985E-1,1.3284999E0,1.1251E0,1.2367496E0,7.923748E-1,9.1E-1,2.999996E-2,9.179999E-1,8.279998E-1,3.399999E-1,1.02E0,3.341749E-1,6.319999E-1,7.669999E-1,3.1699997E-1,1.38525E0,4.913999E-1,9.1E-1,1.1600001E0,9.494999E-1,5.7985E-1,1.4719995E0,1.4869999E0,9.6969986E-1,1.4899999E0,1.188E0,1.4426E0,5.5600005E-1,8.299001E-1,1.0889996E0,1.6150004E-1,3.5E-1,7.43E-1,5.9399986E-1,-1.999998E-2,7.787999E-1,2.5999996E-1,4.1499993E-1,5.435E-1,1.5183748E0,7.1999997E-1,7.9999983E-1,1.2532749E0,6.3E-1,8.0499995E-1,6.210001E-1,8.6039954E-1,2.1556497E0,1.359E0,6.2775004E-1,8.994999E-1,7.0499986E-1,8.1000006E-1,1.1774998E0,1.6899999E0,1.9224999E0,1.1084995E0,1.769E0,1.3659997E0,1.8083998E0,2.5059001E0,7.89E-1,1.15895E0,1.769E0,9.7999996E-1,2.15E0,1.4197248E0,1.8844242E0,1.5507249E0,1.0704497E0,1.8841248E0,1.9594249E0,1.1918E0,1.1515999E0,1.2748E0,1.7419999E0,7.6162475E-1,1.376E0,1.13E0,1.4590496E0,1.6674747E0,8.9E-1,7.591999E-1,1.0879999E0,9.4999975E-1,1.135E0,1.5939498E0,1.7566245E0,1.8769995E0,1.4529248E0,1.13E0,1.43E0,1.7919998E0,1.9519997E0,1.386E0,1.1965E-1,1.418E0,3.6276996E0,2.7922995E0,2.9166E0,1.5493999E0,2.874825E0,2.296125E0,2.073175E0,1.3899997E0,1.8701247E0,2.6740997E0],"split_indices":[34,34,34,37,34,8,34,34,37,37,8,34,34,8,34,37,38,38,38,7,38,37,39,39,34,39,39,39,38,8,8,11,36,34,3,8,30,36,39,10,34,36,8,38,36,36,13,7,37,31,38,3,37,28,2,38,3,39,13,3,36,2,39,0,37,38,39,15,30,7,39,34,38,34,39,36,0,34,10,39,34,37,8,7,10,0,39,7,39,39,7,2,7,7,2,38,32,37,32,7,0,36,30,7,31,2,32,31,38,31,30,37,13,28,34,7,29,29,0,0,2,10,30,0,0,3,30,10,38,39,15,0,38,38,8,8,8,10,31,0,36,36,39,39,36,13,10,13,31,36,37,38,36,34,39,36,2,36,13,39,32,38,39,0,36,3,36,36,37,10,13,32,36,2,34,0,31,31,34,7,30,0,0,31,37,36,8,32,34,15,39,36,0,36,39,10,30,31,30,2,1,32,38,37,36,39,3,3,28,34,31,1,32,34,30,7,0,31,30,2,39,32,32,37,7,37,13,0,34,30,39,0,1,32,0,3,37,13,30,31,0,39,30,31,36,0,0,0,0,0,0,0,0,0,0,0,0,0,0,0,0,0,0,0,0,0,0,0,0,0,0,0,0,0,0,0,0,0,0,0,0,0,0,0,0,0,0,0,0,0,0,0,0,0,0,0,0,0,0,0,0,0,0,0,0,0,0,0,0,0,0,0,0,0,0,0,0,0,0,0,0,0,0,0,0,0,0,0,0,0,0,0,0,0,0,0,0,0,0,0,0,0,0,0,0,0,0,0,0,0,0,0,0,0,0,0,0,0,0,0,0,0,0,0,0,0,0,0,0,0,0,0,0,0,0,0,0,0,0,0,0,0,0,0,0,0,0,0,0,0,0,0,0,0,0,0,0,0,0,0,0,0,0,0,0,0,0,0,0,0,0,0,0,0,0,0,0,0,0,0,0,0,0,0,0,0,0,0,0,0,0,0,0,0,0,0,0,0,0,0,0,0,0,0,0,0,0,0,0,0,0,0,0,0,0,0,0,0,0,0,0],"split_type":[0,0,0,0,0,1,0,0,0,0,1,0,0,1,0,0,1,1,1,0,1,0,1,1,0,1,1,1,1,1,1,0,0,0,0,1,0,0,1,0,0,0,1,1,0,0,0,0,0,0,1,0,0,0,0,1,0,1,0,0,0,0,1,0,0,1,1,1,0,0,1,0,1,0,1,0,0,0,0,1,0,0,1,0,0,0,1,0,1,1,0,0,0,0,0,1,0,0,0,0,0,0,0,0,0,0,0,0,1,0,0,0,0,0,0,0,0,0,0,0,0,0,0,0,0,0,0,0,1,1,1,0,1,1,1,1,1,0,0,0,0,0,1,1,0,0,0,0,0,0,0,1,0,0,1,0,0,0,0,1,0,1,1,0,0,0,0,0,0,0,0,0,0,0,0,0,0,0,0,0,0,0,0,0,0,0,1,0,0,1,1,0,0,0,1,0,0,0,0,0,0,0,1,0,0,1,0,0,0,0,0,0,0,0,0,0,0,0,0,0,1,0,0,0,0,0,0,0,0,0,1,0,0,0,0,0,0,0,0,0,0,1,0,0,0,0,0,0,0,0,0,0,0,0,0,0,0,0,0,0,0,0,0,0,0,0,0,0,0,0,0,0,0,0,0,0,0,0,0,0,0,0,0,0,0,0,0,0,0,0,0,0,0,0,0,0,0,0,0,0,0,0,0,0,0,0,0,0,0,0,0,0,0,0,0,0,0,0,0,0,0,0,0,0,0,0,0,0,0,0,0,0,0,0,0,0,0,0,0,0,0,0,0,0,0,0,0,0,0,0,0,0,0,0,0,0,0,0,0,0,0,0,0,0,0,0,0,0,0,0,0,0,0,0,0,0,0,0,0,0,0,0,0,0,0,0,0,0,0,0,0,0,0,0,0,0,0,0,0,0,0,0,0,0,0,0,0,0,0,0,0,0,0,0,0,0,0,0,0,0,0,0,0,0,0,0,0,0,0,0,0,0,0,0,0,0,0,0,0,0,0,0,0,0,0,0,0,0,0,0,0,0,0,0,0,0,0,0,0,0,0],"sum_hessian":[3.01798E5,2.82694E5,1.9104E4,2.65288E5,1.7406E4,1.0673E4,8.431E3,2.44492E5,2.0796E4,1.0271E4,7.135E3,4.573E3,6.1E3,4.855E3,3.576E3,2.30957E5,1.3535E4,1.5907E4,4.889E3,8.937E3,1.334E3,3.069E3,4.066E3,3.057E3,1.516E3,2.155E3,3.945E3,2.087E3,2.768E3,2.364E3,1.212E3,2.07978E5,2.2979E4,8.161E3,5.374E3,1.2632E4,3.275E3,2.165E3,2.724E3,1.25E3,7.687E3,5.69E2,7.65E2,2.615E3,4.54E2,1.037E3,3.029E3,2.269E3,7.88E2,1.015E3,5.01E2,8E2,1.355E3,2.292E3,1.653E3,1.661E3,4.26E2,1.619E3,1.149E3,1.379E3,9.85E2,6.89E2,5.23E2,2E1,2.07958E5,2.2728E4,2.51E2,7.841E3,3.2E2,2.003E3,3.371E3,5.415E3,7.217E3,3.07E3,2.05E2,2.134E3,3.1E1,1.631E3,1.093E3,5.32E2,7.18E2,3.834E3,3.853E3,1.21E2,4.48E2,4.41E2,3.24E2,8.15E2,1.8E3,1.47E2,3.07E2,9.75E2,6.2E1,2.672E3,3.57E2,7.59E2,1.51E3,1.17E2,6.71E2,9.79E2,3.6E1,3.52E2,1.49E2,1.8E2,6.2E2,9.89E2,3.66E2,1.519E3,7.73E2,1.553E3,1E2,1.092E3,5.69E2,1.65E2,2.61E2,6.62E2,9.57E2,1.031E3,1.18E2,1.21E2,1.258E3,7.93E2,1.92E2,6.68E2,2.1E1,3.49E2,1.74E2,1.72999E5,3.4959E4,1.1802E4,1.0926E4,2.9E1,2.22E2,1.05E2,7.736E3,4.1E1,2.79E2,2.7E2,1.733E3,1.16E2,3.255E3,9.22E2,4.493E3,4.97E2,6.72E3,3.006E3,6.4E1,9E1,1.15E2,1.464E3,6.7E2,6.69E2,9.62E2,2.18E2,8.75E2,2.16E2,3.16E2,4.92E2,2.26E2,1.365E3,2.469E3,1.283E3,2.57E3,3.5E1,8.6E1,9.5E1,3.53E2,2.2E2,2.21E2,2.66E2,5.8E1,2.75E2,5.4E2,1.082E3,7.18E2,2.6E1,1.21E2,1.05E2,2.02E2,1.37E2,8.38E2,3.2E1,3E1,6.77E2,1.995E3,1.01E2,2.56E2,4.01E2,3.58E2,1.012E3,4.98E2,9.4E1,2.3E1,4.69E2,2.02E2,3.1E2,6.69E2,8.5E1,2.67E2,7.5E1,7.4E1,8.9E1,9.1E1,5.71E2,4.9E1,8.8E1,9.01E2,3.07E2,5.9E1,9.28E2,5.91E2,2.03E2,5.7E2,1.481E3,7.2E1,6.6E1,3.4E1,8.38E2,2.54E2,3.86E2,1.83E2,6.3E1,1.02E2,1.4E2,1.21E2,3.41E2,3.21E2,6.74E2,2.83E2,6.76E2,3.55E2,2.8E1,9E1,1.234E3,2.4E1,6.34E2,1.59E2,1.26E2,6.6E1,5.53E2,1.15E2,1.49E2,2E2,4E1,1.34E2,4.4E1,1.72955E5,4.954E3,3.0005E4,5.052E3,6.75E3,1.89E2,1.0737E4,4.9E1,1.73E2,4.4E1,6.1E1,3.342E3,4.394E3,2E1,2.1E1,1.61E2,1.18E2,2.34E2,3.6E1,1.713E3,2E1,4.4E1,7.2E1,2.904E3,3.51E2,8.55E2,6.7E1,2.545E3,1.948E3,5.9E1,4.38E2,8.77E2,5.843E3,3.71E2,2.635E3,3E1,3.4E1,2.3E1,6.7E1,9.3E1,2.2E1,1.055E3,4.09E2,5.04E2,1.66E2,3.44E2,3.25E2,2.54E2,7.08E2,3E1,1.88E2,3.31E2,5.44E2,9.4E1,1.22E2,3.3E1,2.83E2,3.57E2,1.35E2,2E1,2.06E2,5.71E2,7.94E2,1.767E3,7.02E2,6.25E2,6.58E2,1.718E3,8.52E2,4E1,4.6E1,7.1E1,2.4E1,2.95E2,5.8E1,5.4E1,1.66E2,1.03E2,1.18E2,1.15E2,1.51E2,3.8E1,2E1,4.3E1,2.32E2,2.99E2,2.41E2,7.61E2,3.21E2,2.85E2,4.33E2,7.7E1,4.4E1,3.5E1,7E1,1.55E2,4.7E1,6.7E1,7E1,7.01E2,1.37E2,5.4E1,6.23E2,1.707E3,2.88E2,2.7E1,7.4E1,1.27E2,1.29E2,8.8E1,3.13E2,4.4E1,3.14E2,9.88E2,2.4E1,1.43E2,3.55E2,5.5E1,3.9E1,2.2E1,4.47E2,1.61E2,4.1E1,2.64E2,4.6E1,2.72E2,3.97E2,4.5E1,4E1,2.25E2,4.2E1,5.2E1,2.3E1,4.2E1,3.2E1,3.2E1,5.7E1,5E1,4.1E1,2.65E2,3.06E2,2.3E1,2.6E1,3.1E1,5.7E1,8.69E2,3.2E1,3.4E1,2.73E2,3.9E1,2E1,3.64E2,5.64E2,5.14E2,7.7E1,3.3E1,1.7E2,2.24E2,3.46E2,5.04E2,9.77E2,3.4E1,3.8E1,3.4E1,3.2E1,3.81E2,4.57E2,2.23E2,3.1E1,2.6E1,3.6E2,1.16E2,6.7E1,4.3E1,2E1,6.6E1,3.6E1,1.16E2,2.4E1,4.6E1,7.5E1,3.18E2,2.3E1,2.47E2,7.4E1,1.87E2,4.87E2,1.61E2,1.22E2,6.53E2,2.3E1,2.23E2,1.32E2,5E1,4E1,5.14E2,7.2E2,3.86E2,2.48E2,1.19E2,4E1,9.6E1,3E1,2.1E1,4.5E1,7.3E1,4.8E2,1.27E2,2.2E1,6.6E1,1.34E2,2E1,2E1,8.2E1,5.2E1],"tree_param":{"num_deleted":"0","num_feature":"40","num_nodes":"461","size_leaf_vector":"1"}},{"base_weights":[-1.2787058E-2,-3.5536353E-2,3.3796003E-1,-4.3586098E-2,8.8916E-2,2.4528559E-1,5.1591665E-1,-4.74056E-2,-1.1319493E-2,1.0748879E-1,-4.997538E-3,2.5878203E-1,-4.9905493E-3,5.338336E-1,-4.9742283E-3,-4.110688E-2,-4.9999715E-3,8.797634E-3,-4.9994825E-3,9.1258384E-2,2.1003376E-1,2.1831238E-1,3.331531E-1,4.9860737E-1,7.3905724E-1,-8.992066E-3,-4.2252418E-2,3.4596518E-2,-1.0627437E-2,1.2218371E-1,6.796843E-2,1.8617794E-1,3.578397E-1,2.7868652E-1,1.709366E-1,3.9678872E-1,2.8379083E-1,5.497523E-1,4.273061E-1,8.24147E-1,6.741683E-1,2.2329545E-1,-1.7860254E-2,-3.8029525E-2,-4.6350837E-2,2.313954E-2,1.1846233E-1,-2.2977076E-3,-3.0654008E-2,9.364277E-2,1.5408508E-1,6.374964E-2,2.0949073E-1,5.5892855E-2,1.8014203E-1,3.0639267E-1,5.1594204E-1,2.5776473E-1,4.017857E-1,1.518247E-1,2.3259333E-1,3.2008454E-1,4.2432845E-1,3.943023E-1,2.5817254E-1,4.7852322E-1,6.054867E-1,5.5571204E-1,3.7378326E-1,8.4669536E-1,5.6911767E-2,5.880658E-1,7.4944234E-1,3.008333E-1,5.51724E-3,-2.0140424E-2,1.826923E-2,-2.4488648E-2,-4.2303566E-2,-4.3222234E-2,-4.7553483E-2,1.015162E-2,3.9376393E-2,9.485293E-2,4.027397E-1,1.2646077E-2,-1.4377435E-2,-1.5000012E-2,-3.4626275E-2,8.2199045E-2,1.6076387E-1,2.1339385E-1,1.2457769E-1,9.663546E-2,4.903366E-2,2.4813828E-1,-4.8275874E-3,2.511111E-1,1.5225117E-1,4.0545455E-1,2.7151513E-1,3.9555556E-1,7.1200006E-2,2.9517722E-1,1.9867457E-1,5.245161E-1,3.414596E-1,1.3533255E-1,2.2235972E-1,4.203125E-2,2.2609374E-1,3.4541175E-1,9.387754E-2,3.9177912E-1,4.777096E-1,4.9638554E-1,2.5247252E-1,2.8234157E-1,2.0314135E-1,5.261378E-1,4.1298586E-1,6.524799E-1,5.679473E-1,6.550347E-1,4.728693E-1,4.051869E-1,3.0180085E-1,8.8881575E-2,7.6033056E-1,8.1250004E-2,5.463942E-1,6.6952056E-1,8.375E-1,3.85E-2,2.0967742E-2,-2.936632E-3,3.274335E-3,1.1915524E-3,-2.7810705E-3,-4.342062E-3,-2.2877024E-3,-3.5958302E-3,-4.624439E-3,-4.448328E-3,-4.82824E-3,3.5609324E-3,-6.215841E-5,6.638206E-3,2.7724127E-3,1.6836364E-2,6.1557363E-3,2.622222E-2,6.0689654E-2,2.4750894E-3,-1.1017711E-3,5.0454536E-3,-1.6148308E-3,2.4338614E-3,-3.1787343E-3,-3.5699725E-3,7.199999E-3,5.7963436E-3,1.021162E-2,2.7365267E-2,8.92857E-3,5.12E-2,2.0443408E-2,1.7425569E-2,1.0095356E-2,2.3552112E-3,1.0611782E-2,4.2087496E-3,1.2382628E-2,1.7272726E-2,3.2833334E-2,4.6122447E-2,2.2751678E-2,1.736028E-2,7.0943385E-3,5.7708334E-2,2.6406249E-2,2.2314047E-2,3.9555557E-2,4.9374998E-2,2.7045453E-2,3.0490851E-2,9.695121E-3,2.3827076E-2,1.1346704E-2,3.6065575E-2,6.2421054E-2,3.1443298E-2,5.7656247E-2,1.5446744E-2,7.407406E-3,3.13986E-2,1.9364223E-2,3.677083E-2,2.1840086E-2,2.2323232E-2,3.8134556E-2,1.7954545E-2,2.3214275E-3,3.763405E-2,5.5071425E-2,4.9895346E-2,3.175E-2,3.9244186E-2,5.478659E-2,1.7991802E-2,3.9344262E-2,2.4326464E-2,3.1905122E-2,1.8493151E-2,3.4761902E-2,4.456973E-2,5.875289E-2,4.981735E-2,3.5818964E-2,7.090402E-2,5.655518E-2,6.0337078E-2,4.9893294E-2,6.830152E-2,3.5925925E-2,5.006515E-2,2.7717391E-2,4.260258E-2,3.2178897E-2,3.4954954E-2,1.8607141E-2,6.0125E-2,8.286586E-2,6.2755905E-2,4.140244E-2,7.5062506E-2,5.626866E-2,8.910891E-2,5.7708334E-2],"categories":[0,1,2,4,5,6,7,8,9,10,11,12,13,14,15,18,19,0,1,2,4,5,6,7,8,9,10,12,13,14,15,18,19,1,4,5,6,1,4,5,6,1,4,5,6,0,1,2,4,5,6,7,8,9,11,12,13,14,15,16,17,18,19,1,4,5,6,1,2,6,8,12,14,15,18,2,5,8,12,14,15,18,0,2,3,4,5,6,7,8,9,0,1,3,5,0,3,5,6,7,8,9,1,4,5,6,3,4,5,6,7,8,0,1,3,6,7,9,0,1,2,4,5,6,7,8,9,10,1,3,4,5,6,0,1,2,3,4,5,6,7,8,9,11,12,13,14,15,16,17,18,3,4,6,7,9,1,2,3,4,5,7,9,0,1,2,3,4,5,6,7,8,9,11,12,13,14,15,16,18,19,0,1,3,7,3,4,5,6,7,8,1,2,3,4,6,8,1,3,4,6,8,0,4,5,7,9,13,19,0,2,3,4,5,6,8,9,1,3,4,5,6,0,1,3,5,6,0,1,2,3,4,5,6,7,8,9,10,11,12,13,14,15,16,18,19,4,5,6,7,8,9,0,1,2,4,5,6,7,8,9,10,11,12,13,14,15,16,18,19,0,1,2,3,4,5,6,7,8,9,10,11,12,13,14,15,17,18,0,2,3,4,5,6,7,8,9,3,4,7,0,1,2,5,6,7,8,9,11,12,14,15,18,19,0,1,2,4,5,6,7,8,9,10,11,12,13,14,15,17,18,19,1,3,7,0,1,2,4,5,6,7,8,9,11,12,13,14,15,16,17,18,19,1,4,5,6,0,1,3,4,0,1,2,3,4,5,6,7,8,9,10,11,12,13,14,15,17,18,19,2,3,6,0,3,4,6,7],"categories_nodes":[15,17,19,21,22,23,24,26,28,36,41,43,47,50,51,52,54,55,57,58,63,64,65,67,69,77,79,81,82,83,85,90,92,97,98,103,104,107,108,120,121,123,125,126],"categories_segments":[0,17,33,37,41,45,63,67,75,82,91,95,102,106,112,118,128,133,151,156,163,181,185,191,197,202,209,217,222,227,246,252,270,288,297,300,314,332,335,353,357,361,380,383],"categories_sizes":[17,16,4,4,4,18,4,8,7,9,4,7,4,6,6,10,5,18,5,7,18,4,6,6,5,7,8,5,5,19,6,18,18,9,3,14,18,3,18,4,4,19,3,5],"default_left":[0,0,0,0,0,0,0,0,0,0,0,0,0,0,0,1,0,1,0,1,0,1,1,1,1,0,1,0,1,0,0,0,0,0,0,0,1,0,0,0,0,1,0,1,0,0,0,1,0,0,1,1,1,0,1,1,0,1,1,0,0,0,0,1,1,1,0,1,0,1,0,0,0,0,0,0,0,1,0,1,0,1,1,1,0,1,0,0,0,0,1,0,1,0,0,0,0,1,1,0,0,0,0,1,1,0,0,1,1,0,0,0,0,0,0,0,0,0,0,0,1,1,0,1,0,1,1,0,0,0,0,0,0,0,0,0,0,0,0,0,0,0,0,0,0,0,0,0,0,0,0,0,0,0,0,0,0,0,0,0,0,0,0,0,0,0,0,0,0,0,0,0,0,0,0,0,0,0,0,0,0,0,0,0,0,0,0,0,0,0,0,0,0,0,0,0,0,0,0,0,0,0,0,0,0,0,0,0,0,0,0,0,0,0,0,0,0,0,0,0,0,0,0,0,0,0,0,0,0,0,0,0,0,0,0,0,0,0,0],"id":2,"left_children":[1,3,5,7,9,11,13,15,17,19,-1,21,-1,23,-1,25,-1,27,-1,29,31,33,35,37,39,41,43,45,47,49,51,53,55,57,59,61,63,65,67,69,71,73,75,77,79,81,83,85,87,89,91,93,95,-1,97,99,101,103,105,107,109,111,113,115,117,119,121,123,125,127,-1,129,131,133,-1,135,-1,137,139,141,143,145,147,149,151,153,155,157,159,161,163,165,167,169,171,173,-1,175,177,179,181,183,-1,185,187,189,191,193,195,-1,197,199,201,203,205,207,209,211,213,215,217,219,221,223,225,227,229,-1,231,-1,233,235,237,-1,-1,-1,-1,-1,-1,-1,-1,-1,-1,-1,-1,-1,-1,-1,-1,-1,-1,-1,-1,-1,-1,-1,-1,-1,-1,-1,-1,-1,-1,-1,-1,-1,-1,-1,-1,-1,-1,-1,-1,-1,-1,-1,-1,-1,-1,-1,-1,-1,-1,-1,-1,-1,-1,-1,-1,-1,-1,-1,-1,-1,-1,-1,-1,-1,-1,-1,-1,-1,-1,-1,-1,-1,-1,-1,-1,-1,-1,-1,-1,-1,-1,-1,-1,-1,-1,-1,-1,-1,-1,-1,-1,-1,-1,-1,-1,-1,-1,-1,-1,-1,-1,-1,-1,-1,-1],"loss_changes":[2.4062585E3,2.837123E2,3.0279907E2,3.2780945E1,4.438739E1,4.8139954E1,6.3764893E1,3.8840942E0,2.1906057E1,2.5238953E1,0E0,3.4696167E1,0E0,4.370105E1,0E0,2.5522156E0,0E0,9.2825775E0,0E0,9.429848E0,7.242836E0,2.1358673E1,1.2668945E1,1.8749878E1,4.3639526E0,4.9293756E0,1.1577301E0,7.641773E0,1.762673E0,5.109833E0,4.450798E0,3.9198647E0,2.1763458E0,8.367096E0,4.9091644E0,3.613739E0,6.3956146E0,1.173114E1,1.4767761E1,1.7090454E0,2.871231E0,1.1305614E0,1.0572845E0,1.9089317E0,1.2584686E-1,1.4759922E0,6.378107E0,1.3475595E0,1.9249344E-1,2.2703934E0,4.621544E0,3.5096836E0,2.1637821E0,0E0,3.4454956E0,6.465645E-1,1.3469524E0,6.1623077E0,3.3451385E0,3.699356E0,1.1140862E0,2.6774788E0,2.0768127E0,6.100403E0,2.4245148E0,3.9455261E0,2.6195068E0,4.948059E0,3.3611755E0,5.901184E-1,0E0,1.8287277E0,1.332428E0,3.7961197E-1,0E0,1.1128857E0,0E0,9.581499E-1,5.433235E-1,2.0578957E-1,5.2783966E-2,1.0671718E0,9.771209E-1,2.153297E0,1.9350538E0,9.561424E-1,4.7474706E-1,4.168197E-1,2.8585434E-1,1.2211151E0,3.4614124E0,2.2524033E0,2.066721E0,1.552597E0,2.6022701E0,1.0802345E0,0E0,2.349018E0,2.185524E0,1.1822968E0,9.01804E-1,4.1925287E-1,0E0,3.2902374E0,3.6640053E0,2.3069458E0,1.864708E0,3.0373802E0,1.5337543E0,0E0,9.655342E-1,1.780777E0,2.924571E-1,1.7925415E0,1.5058823E0,1.1174049E0,1.7907114E0,1.7786255E0,1.4432297E0,3.5357056E0,2.4636307E0,3.2668152E0,2.0214539E0,2.1380997E0,1.7749939E0,1.7224884E0,2.5432014E0,0E0,8.169861E-1,0E0,1.974884E0,8.426819E-1,1.2162552E0,0E0,0E0,0E0,0E0,0E0,0E0,0E0,0E0,0E0,0E0,0E0,0E0,0E0,0E0,0E0,0E0,0E0,0E0,0E0,0E0,0E0,0E0,0E0,0E0,0E0,0E0,0E0,0E0,0E0,0E0,0E0,0E0,0E0,0E0,0E0,0E0,0E0,0E0,0E0,0E0,0E0,0E0,0E0,0E0,0E0,0E0,0E0,0E0,0E0,0E0,0E0,0E0,0E0,0E0,0E0,0E0,0E0,0E0,0E0,0E0,0E0,0E0,0E0,0E0,0E0,0E0,0E0,0E0,0E0,0E0,0E0,0E0,0E0,0E0,0E0,0E0,0E0,0E0,0E0,0E0,0E0,0E0,0E0,0E0,0E0,0E0,0E0,0E0,0E0,0E0,0E0,0E0,0E0,0E0,0E0,0E0,0E0,0E0,0E0,0E0,0E0,0E0,0E0,0E0,0E0,0E0],"parents":[2147483647,0,0,1,1,2,2,3,3,4,4,5,5,6,6,7,7,8,8,9,9,11,11,13,13,15,15,17,17,19,19,20,20,21,21,22,22,23,23,24,24,25,25,26,26,27,27,28,28,29,29,30,30,31,31,32,32,33,33,34,34,35,35,36,36,37,37,38,38,39,39,40,40,41,41,42,42,43,43,44,44,45,45,46,46,47,47,48,48,49,49,50,50,51,51,52,52,54,54,55,55,56,56,57,57,58,58,59,59,60,60,61,61,62,62,63,63,64,64,65,65,66,66,67,67,68,68,69,69,71,71,72,72,73,73,75,75,77,77,78,78,79,79,80,80,81,81,82,82,83,83,84,84,85,85,86,86,87,87,88,88,89,89,90,90,91,91,92,92,93,93,94,94,95,95,97,97,98,98,99,99,100,100,101,101,103,103,104,104,105,105,106,106,107,107,108,108,110,110,111,111,112,112,113,113,114,114,115,115,116,116,117,117,118,118,119,119,120,120,121,121,122,122,123,123,124,124,125,125,126,126,128,128,130,130,131,131,132,132],"right_children":[2,4,6,8,10,12,14,16,18,20,-1,22,-1,24,-1,26,-1,28,-1,30,32,34,36,38,40,42,44,46,48,50,52,54,56,58,60,62,64,66,68,70,72,74,76,78,80,82,84,86,88,90,92,94,96,-1,98,100,102,104,106,108,110,112,114,116,118,120,122,124,126,128,-1,130,132,134,-1,136,-1,138,140,142,144,146,148,150,152,154,156,158,160,162,164,166,168,170,172,174,-1,176,178,180,182,184,-1,186,188,190,192,194,196,-1,198,200,202,204,206,208,210,212,214,216,218,220,222,224,226,228,230,-1,232,-1,234,236,238,-1,-1,-1,-1,-1,-1,-1,-1,-1,-1,-1,-1,-1,-1,-1,-1,-1,-1,-1,-1,-1,-1,-1,-1,-1,-1,-1,-1,-1,-1,-1,-1,-1,-1,-1,-1,-1,-1,-1,-1,-1,-1,-1,-1,-1,-1,-1,-1,-1,-1,-1,-1,-1,-1,-1,-1,-1,-1,-1,-1,-1,-1,-1,-1,-1,-1,-1,-1,-1,-1,-1,-1,-1,-1,-1,-1,-1,-1,-1,-1,-1,-1,-1,-1,-1,-1,-1,-1,-1,-1,-1,-1,-1,-1,-1,-1,-1,-1,-1,-1,-1,-1,-1,-1,-1,-1],"split_conditions":[7.285714E0,4.071429E0,1.2142858E1,2.0892773E0,1E0,1E0,1E0,1E0,1E0,7.678571E0,-8.8100004E-1,9.535714E0,-9.78E-1,2.0428572E1,-1.081965E0,1E-45,-7.67E-1,1E-45,-8.1500006E-1,1E-45,5.5291433E0,1E-45,1E-45,1E-45,1E-45,1.8181819E-1,1E-45,4.0224237E0,1E-45,5.2E0,6.373307E0,1.6666667E-1,1.0303754E0,1.0166667E1,9.75E0,9.142858E0,1E-45,1.4571428E1,3E0,1E1,5E0,1E-45,3.0331502E0,1E-45,9.692315E-1,2.6276913E0,1.62E0,1E-45,9.424614E-1,4.9718785E0,1E-45,1E-45,1E-45,2.088864E0,1E-45,1E-45,1.3E1,1E-45,1E-45,5.312833E0,2E0,1.1E1,1.5E1,1E-45,1E-45,1E-45,1.4E1,1E-45,7.8830743E0,1E-45,3.0245697E0,2E0,2.4142857E1,9.565141E-1,4.047998E0,3.142857E0,5.6385005E-1,1E-45,2.4E0,1E-45,2.26E0,1E-45,1E-45,1E-45,4.827583E0,1E-45,1.037037E0,1E0,4.5E0,2.5819888E0,1E-45,2E0,1E-45,2.781981E0,1.2E1,1.4E1,-8.7747514E-2,1E-45,1E-45,6.7682734E0,1.0571428E1,7.0912423E0,1.3425713E0,1E-45,1E-45,6E0,1.5E1,1E-45,1E-45,8.0066997E-1,4.821429E0,4.827583E0,5.512372E0,2.5E1,1.1E1,1E1,1.1E1,5.512372E0,2.8E1,1.2E1,1E-45,1E-45,8.182767E0,1E-45,9.9E-1,1E-45,1E-45,2.8851557E0,2.2428572E1,2.5881817E0,1.0483547E1,8E0,2.4E1,2.133E0,2.6279998E0,-1.25E-1,8.256104E-2,1.601998E-1,-2.1330063E-1,-3.33E-1,-1.3400002E-1,-2.245004E-1,-4.04E-1,-3.04E-1,-4.04E-1,1.589797E-1,0E0,2.8017494E-1,1.24500014E-1,4.9876675E-1,3.7203372E-1,9.9709475E-1,2.335605E0,1.1064001E-1,-4.880031E-2,1.6550007E-1,-8.999997E-2,1.2769811E-1,-1.3400002E-1,-2.2400008E-1,4.3930373E-1,1.6219999E-1,3.565311E-1,1.0609074E0,4.667848E-1,1.0566124E0,7.305226E-1,6.4133495E-1,2.7555498E-1,5.7499778E-2,3.3824715E-1,1.7153583E-1,3.698202E-1,6.148358E-1,7.8992486E-1,1.2863654E0,8.0603695E-1,5.236051E-1,3.7013748E-1,1.5764999E0,1.6522E0,7.31975E-1,1.4052404E0,1.8546981E0,8.8504994E-1,8.1350005E-1,1.5031832E0,8.4925E-1,4.0219995E-1,1.20489E0,1.188011E0,1.1113447E0,1.47464E0,4.6716624E-1,2.7945E-1,1.3992882E0,8.5368186E-1,1.1378568E0,7.079E-1,7.419136E-1,1.1101508E0,1.0626488E0,9.8774E-1,1.0706598E0,1.906845E0,1.4073497E0,9.0039986E-1,1.385388E0,1.4759599E0,4.2612988E-1,7.61585E-1,6.6124004E-1,1.13436E0,6.582748E-1,1.1721375E0,1.095468E0,1.42184E0,1.2357258E0,1.3929998E0,1.86172E0,1.4923E0,1.5143375E0,1.7524666E0,1.9776375E0,1.0732317E0,1.5372735E0,1.1024169E0,1.094695E0,9.822297E-1,1.3280467E0,9.123375E-1,2.5548375E0,3.7889156E0,2.8158388E0,2.036627E0,2.13834E0,2.1952045E0,3.3081422E0,3.625832E0],"split_indices":[33,35,33,37,9,9,9,9,9,35,0,35,0,33,0,38,0,38,0,8,36,8,8,38,8,35,38,37,38,33,36,33,13,33,33,33,39,33,7,1,1,8,36,39,13,36,10,8,13,37,39,39,38,0,8,38,31,39,39,37,3,1,31,38,39,39,3,39,36,39,0,1,33,13,0,33,0,38,33,39,10,8,8,38,37,39,35,31,33,36,38,3,38,37,1,3,0,39,39,36,35,37,0,38,38,31,31,39,38,0,35,37,37,32,1,31,33,37,3,32,8,39,37,38,10,8,39,0,33,0,36,1,3,0,0,0,0,0,0,0,0,0,0,0,0,0,0,0,0,0,0,0,0,0,0,0,0,0,0,0,0,0,0,0,0,0,0,0,0,0,0,0,0,0,0,0,0,0,0,0,0,0,0,0,0,0,0,0,0,0,0,0,0,0,0,0,0,0,0,0,0,0,0,0,0,0,0,0,0,0,0,0,0,0,0,0,0,0,0,0,0,0,0,0,0,0,0,0,0,0,0,0,0,0,0,0,0,0,0],"split_type":[0,0,0,0,0,0,0,0,0,0,0,0,0,0,0,1,0,1,0,1,0,1,1,1,1,0,1,0,1,0,0,0,0,0,0,0,1,0,0,0,0,1,0,1,0,0,0,1,0,0,1,1,1,0,1,1,0,1,1,0,0,0,0,1,1,1,0,1,0,1,0,0,0,0,0,0,0,1,0,1,0,1,1,1,0,1,0,0,0,0,1,0,1,0,0,0,0,1,1,0,0,0,0,1,1,0,0,1,1,0,0,0,0,0,0,0,0,0,0,0,1,1,0,1,0,1,1,0,0,0,0,0,0,0,0,0,0,0,0,0,0,0,0,0,0,0,0,0,0,0,0,0,0,0,0,0,0,0,0,0,0,0,0,0,0,0,0,0,0,0,0,0,0,0,0,0,0,0,0,0,0,0,0,0,0,0,0,0,0,0,0,0,0,0,0,0,0,0,0,0,0,0,0,0,0,0,0,0,0,0,0,0,0,0,0,0,0,0,0,0,0,0,0,0,0,0,0,0,0,0,0,0,0,0,0,0,0,0,0],"sum_hessian":[3.01562E5,2.83195E5,1.8367E4,2.65991E5,1.7204E4,1.2079E4,6.288E3,2.37837E5,2.8154E4,1.5175E4,2.029E3,1.1551E4,5.28E2,6.095E3,1.93E2,6.9384E4,1.68453E5,1.8521E4,9.633E3,1.3103E4,2.072E3,7.483E3,4.068E3,5.205E3,8.9E2,2.39E3,6.6994E4,7.955E3,1.0566E4,5.627E3,7.476E3,1.786E3,2.86E2,3.288E3,4.195E3,1.774E3,2.294E3,3.027E3,2.178E3,3.8E2,5.1E2,8.7E1,2.303E3,3.3001E4,3.3993E4,7E3,9.55E2,7.463E3,3.103E3,2.972E3,2.655E3,7.261E3,2.15E2,2.7E1,1.759E3,2.18E2,6.8E1,2.813E3,4.75E2,3.205E3,9.9E2,4.72E2,1.302E3,4.29E2,1.865E3,1.333E3,1.694E3,6.38E2,1.54E3,3.47E2,3.3E1,2.42E2,2.68E2,5.9E1,2.8E1,2.278E3,2.5E1,7.919E3,2.5082E4,9.449E3,2.4544E4,3.89E3,3.11E3,8.83E2,7.2E1,3.336E3,4.127E3,6.29E2,2.474E3,2.541E3,4.31E2,8.8E2,1.775E3,2.243E3,5.018E3,1.87E2,2.8E1,4.94E2,1.265E3,5.4E1,1.64E2,4.4E1,2.4E1,1.72E3,1.093E3,1.54E2,3.21E2,2.6E3,6.05E2,3.1E1,9.59E2,4.24E2,4.8E1,8.14E2,4.88E2,2.48E2,1.81E2,1.293E3,5.72E2,7.68E2,5.65E2,7.45E2,9.49E2,2.87E2,3.51E2,1.069E3,4.71E2,2.27E2,1.2E2,3.5E1,2.07E2,1.45E2,1.23E2,2.9E1,3E1,1.94E3,3.38E2,6.62E2,7.257E3,2.3717E4,1.365E3,2.78E3,6.669E3,4.721E3,1.9823E4,1.156E3,2.734E3,9.36E2,2.174E3,2.74E2,6.09E2,4.4E1,2.8E1,2.207E3,1.129E3,1.09E2,4.018E3,1.88E2,4.41E2,2.45E3,2.4E1,1.148E3,1.393E3,1.66E2,2.65E2,2.4E1,8.56E2,5.7E2,1.205E3,2.58E2,1.985E3,4.593E3,4.25E2,9.8E1,8.9E1,4.8E1,4.46E2,1.001E3,2.64E2,2.3E1,3.1E1,1.2E2,4.4E1,2.3E1,2.1E1,1.639E3,8.1E1,7.45E2,3.48E2,6E1,9.4E1,2.9E2,3.1E1,1.98E3,6.2E2,1.42E2,4.63E2,4.7E1,9.12E2,9.8E1,3.26E2,2.1E1,2.7E1,7.45E2,6.9E1,4.29E2,5.9E1,8.5E1,1.63E2,1.21E2,6E1,6.3E2,6.63E2,5.1E2,6.2E1,3.36E2,4.32E2,2.18E2,3.47E2,4.47E2,2.98E2,6.22E2,3.27E2,2.61E2,2.6E1,3.06E2,4.5E1,8.52E2,2.17E2,3.32E2,1.39E2,3.9E1,8.1E1,1.26E2,8.1E1,7.9E1,6.6E1,1E2,2.3E1],"tree_param":{"num_deleted":"0","num_feature":"40","num_nodes":"239","size_leaf_vector":"1"}},{"base_weights":[-1.7218394E-2,-3.574793E-2,2.871484E-1,-4.3368705E-2,7.1800925E-2,1.9988701E-1,4.2557895E-1,-4.6606533E-2,-8.2846945E-3,8.597021E-2,-4.9974527E-3,2.1168901E-1,-4.9895844E-3,4.4053012E-1,-4.975611E-3,-3.8633652E-2,-4.999972E-3,1.3920365E-2,-4.9993596E-3,4.9835835E-2,1.20378725E-1,2.663009E-1,1.6947404E-1,3.7214372E-1,5.1227874E-1,-4.264668E-2,-2.7944602E-2,6.3943565E-3,1.1572419E-1,2.2174036E-2,6.770415E-2,1.0442463E-1,1.7686841E-1,1.877629E-1,3.0941445E-1,1.4801283E-1,2.2861366E-1,4.3023756E-1,3.3031476E-1,4.818517E-1,6.4448214E-1,-6.064528E-3,-4.3191098E-2,-1.8142289E-2,-3.344761E-2,2.2952465E-2,-1.0677599E-2,2.3504272E-1,5.1899683E-2,4.342652E-2,-9.038208E-4,5.6243602E-2,1.0915817E-1,1.3487943E-1,8.0146655E-2,2.517562E-1,1.5116443E-1,1.7661844E-1,3.2330507E-1,2.6586872E-1,3.4541076E-1,1.2781385E-1,2.1527347E-1,2.57E-1,1.4048256E-1,4.4036457E-1,1.24999985E-1,4.7484568E-1,3.0111453E-1,5.2761936E-1,4.1683817E-1,7.359127E-1,5.744083E-1,1.7624998E-2,-1.5964685E-2,-4.0296935E-2,-4.7332253E-2,-1.8972093E-2,1.4583333E-2,-2.4881091E-2,-3.7083205E-2,1.3203741E-2,5.2849576E-2,-2.7634683E-3,-3.122658E-2,1.5384614E-1,3.70229E-1,8.089742E-2,9.665416E-3,1.5763534E-2,5.908666E-2,5.525209E-2,-1.1089951E-2,8.056562E-2,4.3006293E-2,1.3152741E-1,5.4588597E-2,9.679202E-2,1.6646229E-1,1.1655372E-1,6.628034E-2,3.7801203E-1,1.8526645E-1,2.007703E-1,1.00639194E-1,1.9724812E-1,1.18110225E-1,1.6756756E-2,3.8963413E-1,3.395161E-1,2.2848026E-1,3.49512E-1,4.318181E-3,1.0350968E-1,1.6270737E-1,2.6842105E-1,1.777583E-1,4.0511364E-1,2.4449669E-1,1.1682389E-1,2.723214E-1,3.824708E-1,4.8626006E-1,2.32E-2,-2.2727386E-4,5.3140795E-1,1.3854165E-1,2.7447003E-1,3.5499057E-1,5.073142E-1,6.4608294E-1,4.4748712E-1,3.345238E-1,8.233051E-2,6.540741E-1,6.562091E-1,5.0403225E-1,7.6149305E-4,-3.701801E-3,-2.5242078E-3,-4.2376486E-3,1.612902E-3,-4.742216E-3,-9.57968E-4,-2.613073E-3,6.484965E-5,-3.1403464E-3,-3.457091E-3,-4.6299226E-3,3.0681388E-3,-5.721703E-4,8.489387E-3,2.43348E-3,-1.2310899E-3,1.8999312E-3,-1.3559334E-3,-3.6219943E-3,2.3839999E-2,4.3298956E-3,4.622093E-2,1.9021738E-2,6.6288942E-3,2.1447368E-2,-4.7131264E-4,1.4423075E-2,4.573378E-3,-1.1987394E-3,1.0290909E-2,4.3929904E-3,3.3179712E-3,2.7045453E-2,-1.3967148E-3,9.428571E-3,5.9544565E-3,1.4267241E-2,6.7876703E-3,3.2946367E-3,1.727134E-2,1.0045557E-2,1.6888877E-3,1.4619564E-2,1.3852656E-2,7.836691E-3,1.9331729E-2,1.19003365E-2,5.2006165E-3,1.4584506E-2,9.449793E-3,5.5948785E-3,4.2444445E-2,1.703125E-2,1.26715675E-2,2.8663794E-2,1.681081E-2,3.1281248E-2,7.7363625E-3,1.8258063E-2,4.203125E-2,1.9020172E-2,1.3943217E-2,1.230768E-3,5.0125E-2,2.767442E-2,4.3583814E-2,2.746183E-2,4.111842E-2,2.1054637E-2,3.7128713E-2,2.9203746E-2,9.40239E-3,2.117647E-2,2.1604395E-2,1.3469036E-2,3.8419116E-2,2.0776514E-2,2.3291139E-2,1.3820894E-2,3.2E-2,6.1874997E-2,3.5954546E-2,2.3097483E-2,1.5931817E-2,2.121211E-3,1.1874999E-2,3.757576E-2,4.8455883E-2,3.2891415E-2,5.1913477E-2,3.4760274E-2,6.315217E-2,4.2892855E-2,2.8571427E-2,2.3214275E-3,1.8323863E-2,2.9181316E-2,4.6294417E-2,2.9044775E-2,5.620656E-2,4.700645E-2,3.6875E-2,6.770619E-2,5.7819147E-2,4.288433E-2,4.083799E-2,2.1767242E-2,8.1621625E-2,5.868687E-2,7.974359E-2,6.026087E-2,5.5844594E-2,2.8461536E-2],"categories":[1,4,5,6,1,4,5,6,0,1,2,4,5,6,7,8,9,10,11,12,13,14,15,18,19,1,2,3,5,6,7,8,9,12,14,15,18,19,0,1,2,4,5,6,7,8,9,10,12,14,15,18,19,0,1,2,4,5,6,7,8,9,10,11,12,13,14,15,16,18,19,0,2,7,8,9,1,4,5,6,0,1,2,3,4,5,6,7,8,9,11,12,13,14,15,16,18,19,0,3,4,0,1,2,4,5,6,7,8,9,11,12,13,14,15,18,19,0,1,2,3,4,5,6,7,8,9,11,12,13,14,15,16,17,18,19,1,5,6,1,4,5,6,1,6,8,14,15,18,0,2,3,5,7,8,9,2,5,8,12,14,15,18,1,3,4,0,1,2,4,5,6,7,8,10,11,12,13,14,15,17,18,19,3,6,0,1,3,4,6,7,9,1,3,4,5,6,1,2,3,4,7,3,6,9,0,1,3,4,5,6,0,1,2,4,5,6,7,8,9,11,12,13,2,5,6,7,8,0,1,2,3,4,5,6,7,8,9,11,12,13,14,15,16,17,18,19,0,2,3,4,5,6,7,8,9,0,1,2,4,5,6,7,8,9,11,12,13,14,15,16,18,19,1,3,6,0,3,4,5,6,7,8,9,0,3,5,7,8,9,1,2,5,7,8,12,14,15,18,1,6,8,9,15,18,0,1,2,4,5,6,7,8,9,10,11,12,14,15,16,18,19,0,1,2,5,6,7,8,9,10,11,12,13,14,15,18,19,0,1,2,3,4,5,6,7,8,9,10,11,12,13,14,15,16,17,18,0,1,3,4,7,8,9,0,1,2,3,4,5,6,7,8,9,10,11,12,13,14,15,17,18,19,3,5,6,7,1,2,3,5,6,8,2,3,4,0,1,2,3,5,0,1,3,5,6,7,9,1,2,3,7,8],"categories_nodes":[11,23,25,26,27,28,29,31,32,36,37,38,39,40,42,44,46,48,51,52,54,55,56,57,59,60,62,63,67,70,74,75,77,79,80,82,89,91,94,109,111,121,122,125,128,129],"categories_segments":[0,4,8,25,38,53,71,76,80,98,101,117,136,139,143,149,156,163,166,183,185,192,197,202,205,211,223,228,247,256,273,276,284,290,299,305,322,338,357,364,383,387,393,396,401,408],"categories_sizes":[4,4,17,13,15,18,5,4,18,3,16,19,3,4,6,7,7,3,17,2,7,5,5,3,6,12,5,19,9,17,3,8,6,9,6,17,16,19,7,19,4,6,3,5,7,5],"default_left":[0,0,0,0,0,0,0,0,0,0,0,1,0,0,0,0,0,0,0,0,0,0,0,1,0,1,1,1,1,1,0,1,1,0,0,0,1,1,1,1,1,0,1,0,1,0,1,0,1,0,0,1,1,0,1,1,1,1,0,1,1,0,1,1,0,0,0,1,0,0,1,0,0,0,1,1,0,1,0,1,1,0,1,0,0,0,0,0,0,1,0,1,0,0,1,0,0,0,0,0,0,0,0,0,0,0,0,0,0,1,0,1,0,0,0,0,0,0,0,0,0,1,1,0,0,1,0,0,1,1,0,0,0,0,0,0,0,0,0,0,0,0,0,0,0,0,0,0,0,0,0,0,0,0,0,0,0,0,0,0,0,0,0,0,0,0,0,0,0,0,0,0,0,0,0,0,0,0,0,0,0,0,0,0,0,0,0,0,0,0,0,0,0,0,0,0,0,0,0,0,0,0,0,0,0,0,0,0,0,0,0,0,0,0,0,0,0,0,0,0,0,0,0,0,0,0,0,0,0,0,0,0,0,0,0,0,0,0,0,0,0,0,0,0,0,0,0,0,0,0,0],"id":3,"left_children":[1,3,5,7,9,11,13,15,17,19,-1,21,-1,23,-1,25,-1,27,-1,29,31,33,35,37,39,41,43,45,47,49,51,53,55,57,59,61,63,65,67,69,71,73,75,77,79,81,83,85,87,89,91,93,95,97,99,101,103,105,107,109,111,113,115,117,119,121,123,125,127,129,131,133,135,-1,137,139,141,143,-1,145,147,149,151,153,155,157,159,161,163,165,167,169,171,173,175,177,179,181,183,185,187,189,191,193,195,197,199,-1,201,203,205,207,-1,209,211,213,215,217,219,221,223,225,227,-1,-1,229,231,233,235,237,239,241,243,-1,245,247,249,-1,-1,-1,-1,-1,-1,-1,-1,-1,-1,-1,-1,-1,-1,-1,-1,-1,-1,-1,-1,-1,-1,-1,-1,-1,-1,-1,-1,-1,-1,-1,-1,-1,-1,-1,-1,-1,-1,-1,-1,-1,-1,-1,-1,-1,-1,-1,-1,-1,-1,-1,-1,-1,-1,-1,-1,-1,-1,-1,-1,-1,-1,-1,-1,-1,-1,-1,-1,-1,-1,-1,-1,-1,-1,-1,-1,-1,-1,-1,-1,-1,-1,-1,-1,-1,-1,-1,-1,-1,-1,-1,-1,-1,-1,-1,-1,-1,-1,-1,-1,-1,-1,-1,-1,-1,-1,-1,-1,-1,-1,-1,-1,-1,-1],"loss_changes":[1.7015021E3,2.3308499E2,2.0904968E2,3.016681E1,3.2474205E1,3.1320648E1,4.758789E1,6.5755005E0,2.0782547E1,2.0952827E1,0E0,2.3336609E1,0E0,3.164856E1,0E0,3.1124496E0,0E0,1.1219149E1,0E0,4.0633736E0,7.762848E0,1.4908234E1,7.229828E0,7.940094E0,1.241687E1,1.0507431E0,1.0683136E0,3.8551424E0,7.664171E0,1.5837401E0,2.3673897E0,4.96891E0,3.6192856E0,2.3129387E0,4.3786316E0,5.681305E0,3.771515E0,4.2385254E0,8.036026E0,7.4450073E0,3.350937E0,1.4016442E0,6.213074E-1,9.725225E-1,3.9429855E-1,2.0170708E0,1.0919561E0,3.7958488E0,8.0506957E-1,7.2728825E-1,8.8665843E-1,1.2573223E0,1.3123751E0,3.575779E0,1.885395E0,3.9930134E0,3.5312881E0,1.7292786E0,1.1536417E0,3.4882965E0,1.9160614E0,2.7257805E0,1.8843155E0,2.0306396E0,1.1316228E0,3.3851318E0,6.2696356E-1,6.089546E0,2.2209015E0,3.299591E0,2.5472412E0,1.2638245E0,1.6150436E0,0E0,3.656538E-1,9.5737076E-1,1.22779846E-1,4.765935E-1,0E0,6.3010716E-1,2.0462704E-1,1.7274683E0,1.5531125E0,1.0077524E0,1.6421366E-1,2.0554066E0,2.0811157E0,7.4680805E-1,5.2115536E-1,5.0705475E-1,7.081721E-1,1.1215334E0,3.9909762E-1,1.7918587E0,6.327572E-1,9.6291924E-1,1.0888557E0,1.0318594E0,2.0557175E0,1.9454918E0,7.8709507E-1,1.528614E0,1.8570633E0,2.5603275E0,1.328568E0,1.6050262E0,8.577876E-1,0E0,8.945074E-1,2.5932808E0,2.737854E0,1.815155E0,0E0,1.9404106E0,1.952385E0,2.7220135E0,1.213314E0,1.4021358E0,1.5706406E0,1.28864E0,8.449297E-1,3.1156464E0,3.2200317E0,0E0,0E0,2.571022E0,8.0807287E-1,1.6632538E0,3.5653534E0,2.3707886E0,1.614685E0,1.6430206E0,2.4483833E0,0E0,9.920578E-1,6.776428E-1,2.06176E0,0E0,0E0,0E0,0E0,0E0,0E0,0E0,0E0,0E0,0E0,0E0,0E0,0E0,0E0,0E0,0E0,0E0,0E0,0E0,0E0,0E0,0E0,0E0,0E0,0E0,0E0,0E0,0E0,0E0,0E0,0E0,0E0,0E0,0E0,0E0,0E0,0E0,0E0,0E0,0E0,0E0,0E0,0E0,0E0,0E0,0E0,0E0,0E0,0E0,0E0,0E0,0E0,0E0,0E0,0E0,0E0,0E0,0E0,0E0,0E0,0E0,0E0,0E0,0E0,0E0,0E0,0E0,0E0,0E0,0E0,0E0,0E0,0E0,0E0,0E0,0E0,0E0,0E0,0E0,0E0,0E0,0E0,0E0,0E0,0E0,0E0,0E0,0E0,0E0,0E0,0E0,0E0,0E0,0E0,0E0,0E0,0E0,0E0,0E0,0E0,0E0,0E0,0E0,0E0,0E0,0E0,0E0,0E0,0E0,0E0,0E0,0E0,0E0,0E0],"parents":[2147483647,0,0,1,1,2,2,3,3,4,4,5,5,6,6,7,7,8,8,9,9,11,11,13,13,15,15,17,17,19,19,20,20,21,21,22,22,23,23,24,24,25,25,26,26,27,27,28,28,29,29,30,30,31,31,32,32,33,33,34,34,35,35,36,36,37,37,38,38,39,39,40,40,41,41,42,42,43,43,44,44,45,45,46,46,47,47,48,48,49,49,50,50,51,51,52,52,53,53,54,54,55,55,56,56,57,57,58,58,59,59,60,60,61,61,62,62,63,63,64,64,65,65,66,66,67,67,68,68,69,69,70,70,71,71,72,72,74,74,75,75,76,76,77,77,79,79,80,80,81,81,82,82,83,83,84,84,85,85,86,86,87,87,88,88,89,89,90,90,91,91,92,92,93,93,94,94,95,95,96,96,97,97,98,98,99,99,100,100,101,101,102,102,103,103,104,104,105,105,106,106,108,108,109,109,110,110,111,111,113,113,114,114,115,115,116,116,117,117,118,118,119,119,120,120,121,121,122,122,125,125,126,126,127,127,128,128,129,129,130,130,131,131,132,132,134,134,135,135,136,136],"right_children":[2,4,6,8,10,12,14,16,18,20,-1,22,-1,24,-1,26,-1,28,-1,30,32,34,36,38,40,42,44,46,48,50,52,54,56,58,60,62,64,66,68,70,72,74,76,78,80,82,84,86,88,90,92,94,96,98,100,102,104,106,108,110,112,114,116,118,120,122,124,126,128,130,132,134,136,-1,138,140,142,144,-1,146,148,150,152,154,156,158,160,162,164,166,168,170,172,174,176,178,180,182,184,186,188,190,192,194,196,198,200,-1,202,204,206,208,-1,210,212,214,216,218,220,222,224,226,228,-1,-1,230,232,234,236,238,240,242,244,-1,246,248,250,-1,-1,-1,-1,-1,-1,-1,-1,-1,-1,-1,-1,-1,-1,-1,-1,-1,-1,-1,-1,-1,-1,-1,-1,-1,-1,-1,-1,-1,-1,-1,-1,-1,-1,-1,-1,-1,-1,-1,-1,-1,-1,-1,-1,-1,-1,-1,-1,-1,-1,-1,-1,-1,-1,-1,-1,-1,-1,-1,-1,-1,-1,-1,-1,-1,-1,-1,-1,-1,-1,-1,-1,-1,-1,-1,-1,-1,-1,-1,-1,-1,-1,-1,-1,-1,-1,-1,-1,-1,-1,-1,-1,-1,-1,-1,-1,-1,-1,-1,-1,-1,-1,-1,-1,-1,-1,-1,-1,-1,-1,-1,-1,-1,-1],"split_conditions":[7.571429E0,4E0,1.18E1,2.2724483E0,1E0,1E0,1E0,1E0,1E0,3.56404E0,-7.9814994E-1,1E-45,-8.802E-1,1.5E1,-9.7544473E-1,1.5166624E0,-6.903E-1,5.137784E0,-7.4250007E-1,4.8333335E0,5.512372E0,4.426203E0,5.919544E0,1E-45,2.2428572E1,1E-45,1E-45,1E-45,1E-45,1E-45,8E0,1E-45,1E-45,1.0857142E1,9.333333E0,1.0166667E1,1E-45,1E-45,1E-45,1E-45,1E-45,9.091362E-8,1E-45,3.8483145E0,1E-45,3.645683E0,1E-45,1.2E1,1E-45,2.676569E0,6E0,1E-45,1E-45,5.6E0,1E-45,1E-45,1E-45,1E-45,1.1E1,1E-45,1E-45,8E0,1E-45,1E-45,2.8E1,5.919544E0,1.3E1,1E-45,1E0,1.0379956E0,1E-45,1.6E1,8.826367E0,1.7197001E0,1E-45,1E-45,8.0600023E-1,1E-45,2.7556E-1,1E-45,1E-45,1.0095363E0,1E-45,1E0,9.424614E-1,3E0,1E0,2.016E3,1.3E1,1E-45,2.013E3,1E-45,1.1E1,1E0,1E-45,2.751623E0,8E0,4.5E0,9.9860746E-1,5.25E0,9.72715E-1,1.3E1,9E0,1.6E1,1.3E1,3E0,4.2168407E0,4.6757647E-1,1.1285714E1,1E-45,2E0,1E-45,8.7600136E-1,2.9E1,9.7445697E-1,4.1804533E0,9E0,1.8E1,1E0,1.0166667E1,7.0912423E0,1E-45,1E-45,8.2009614E-1,1.0032699E-1,1E-45,1.2E1,4.9718785E0,1E-45,1E-45,4.1804533E0,2E0,1.6E1,3.4583783E0,9.5607245E-1,1E1,9.7445697E-1,3.517991E-2,-1.9118337E-1,-1.8266992E-1,-3.337E-1,3.9618E-1,-3.6360002E-1,-5.0020028E-2,-1.3059998E-1,1.6330052E-2,-1.9334899E-1,-2.0051503E-1,-2.836001E-1,1.7198248E-1,-1.947491E-2,3.1824812E-1,2.4606542E-1,-7.099991E-2,1.0203359E-1,-3.671029E-2,-2.0160007E-1,8.025188E-1,4.8954406E-1,1.5566894E0,7.906272E-1,4.490126E-1,7.2656345E-1,-1.8056894E-2,1.1160393E0,1.6028862E-1,-1.5822466E-2,4.4284302E-1,1.7663984E-1,1.0178502E-1,4.9447966E-1,-3.3153534E-2,4.3045622E-1,2.4076998E-1,3.4196994E-1,2.1603127E-1,1.1499224E-1,4.4537783E-1,3.3490154E-1,9.0520695E-2,4.0881205E-1,4.75245E-1,3.4027997E-1,5.7483953E-1,4.708651E-1,1.69208E-1,4.263614E-1,2.6601943E-1,2.348465E-1,1.2054482E0,8.994056E-1,4.9092242E-1,8.112084E-1,1.0667384E0,1.1980995E0,3.3757186E-1,9.292594E-1,1.055819E0,6.9099545E-1,4.824805E-1,1.05558455E-1,1.235711E0,9.7766113E-1,1.5688952E0,7.183547E-1,1.4199919E0,7.3701996E-1,1.1226362E0,9.2720884E-1,3.7528345E-1,6.719083E-1,7.000708E-1,4.3243882E-1,8.803031E-1,5.3408676E-1,7.3953617E-1,5.082547E-1,1.3523433E0,1.8205312E0,1.1324396E0,8.1045055E-1,1.2411319E0,1.4588796E-1,7.457852E-1,1.9556068E0,1.2657572E0,9.449382E-1,1.5066835E0,1.3424877E0,1.2147306E0,1.101853E0,5.5169034E-1,6.3591164E-1,5.1916426E-1,9.4207686E-1,1.5074434E0,8.7784666E-1,1.9045286E0,1.7936356E0,1.504553E0,1.6705378E0,1.7631749E0,1.2808002E0,1.208495E0,7.3107964E-1,3.901786E0,2.4981382E0,2.2875402E0,2.6396625E0,3.037417E0,3.0801497E0],"split_indices":[33,33,33,37,9,9,9,9,9,37,0,8,0,33,0,37,0,37,0,33,37,37,37,8,33,38,38,38,38,39,32,8,38,33,33,33,39,38,38,8,8,37,38,36,39,37,38,32,8,37,3,38,8,33,39,8,39,39,30,8,38,32,39,38,3,37,33,39,29,13,38,3,36,0,39,39,13,39,0,38,38,13,38,5,13,6,30,0,31,38,0,15,31,5,39,36,30,33,13,33,13,30,31,31,31,30,37,0,33,38,30,39,0,3,13,36,30,31,31,33,37,39,39,0,0,8,30,37,39,39,36,31,30,0,13,31,13,0,0,0,0,0,0,0,0,0,0,0,0,0,0,0,0,0,0,0,0,0,0,0,0,0,0,0,0,0,0,0,0,0,0,0,0,0,0,0,0,0,0,0,0,0,0,0,0,0,0,0,0,0,0,0,0,0,0,0,0,0,0,0,0,0,0,0,0,0,0,0,0,0,0,0,0,0,0,0,0,0,0,0,0,0,0,0,0,0,0,0,0,0,0,0,0,0,0,0,0,0,0,0,0,0,0,0,0,0,0,0,0,0,0],"split_type":[0,0,0,0,0,0,0,0,0,0,0,1,0,0,0,0,0,0,0,0,0,0,0,1,0,1,1,1,1,1,0,1,1,0,0,0,1,1,1,1,1,0,1,0,1,0,1,0,1,0,0,1,1,0,1,1,1,1,0,1,1,0,1,1,0,0,0,1,0,0,1,0,0,0,1,1,0,1,0,1,1,0,1,0,0,0,0,0,0,1,0,1,0,0,1,0,0,0,0,0,0,0,0,0,0,0,0,0,0,1,0,1,0,0,0,0,0,0,0,0,0,1,1,0,0,1,0,0,1,1,0,0,0,0,0,0,0,0,0,0,0,0,0,0,0,0,0,0,0,0,0,0,0,0,0,0,0,0,0,0,0,0,0,0,0,0,0,0,0,0,0,0,0,0,0,0,0,0,0,0,0,0,0,0,0,0,0,0,0,0,0,0,0,0,0,0,0,0,0,0,0,0,0,0,0,0,0,0,0,0,0,0,0,0,0,0,0,0,0,0,0,0,0,0,0,0,0,0,0,0,0,0,0,0,0,0,0,0,0,0,0,0,0,0,0,0,0,0,0,0,0],"sum_hessian":[3.01694E5,2.84382E5,1.7312E4,2.65565E5,1.8817E4,1.062E4,6.692E3,2.43127E5,2.2438E4,1.6856E4,1.961E3,1.0141E4,4.79E2,6.488E3,2.04E2,7.2586E4,1.70541E5,1.4643E4,7.795E3,8.223E3,8.633E3,4.419E3,5.722E3,3.325E3,3.163E3,5.2771E4,1.9815E4,1.3636E4,1.007E3,3.228E3,4.995E3,6.734E3,1.899E3,1.568E3,2.851E3,4.201E3,1.521E3,1.388E3,1.937E3,2.575E3,5.88E2,7.74E2,5.1997E4,7.126E3,1.2689E4,6.922E3,6.714E3,3.5E2,6.57E2,1.68E3,1.548E3,3.915E3,1.08E3,2.985E3,3.749E3,4.83E2,1.416E3,1.451E3,1.17E2,1.294E3,1.557E3,3.233E3,9.68E2,1.149E3,3.72E2,1.343E3,4.5E1,3.23E2,1.614E3,1.507E3,1.068E3,2.51E2,3.37E2,3.9E1,7.35E2,3.0613E4,2.1384E4,7.091E3,3.5E1,3.783E3,8.906E3,5.221E3,1.701E3,4.848E3,1.866E3,2.2E2,1.3E2,3.89E2,2.68E2,6.08E2,1.072E3,2.37E2,1.311E3,1.378E3,2.537E3,7.65E2,3.15E2,1.355E3,1.63E3,1.032E3,2.717E3,1.65E2,3.18E2,7.13E2,7.03E2,1.071E3,3.8E2,3.6E1,8.1E1,4.33E2,8.61E2,1.536E3,2.1E1,1.908E3,1.325E3,3.98E2,5.7E2,8.7E1,1.062E3,3.17E2,5.5E1,5.98E2,7.45E2,2.4E1,2.1E1,2.76E2,4.7E1,1.084E3,5.3E2,1.291E3,2.16E2,7.75E2,2.93E2,1.17E2,1.34E2,1.52E2,1.85E2,3.47E2,3.88E2,3.717E3,2.6896E4,3E1,2.1354E4,3.068E3,4.023E3,7.7E2,3.013E3,7.002E3,1.904E3,2.714E3,2.507E3,8E2,9.01E2,3.37E3,1.478E3,4.12E2,1.454E3,1.24E2,9.6E1,8.5E1,4.5E1,3.52E2,3.7E1,2.43E2,2.5E1,2.92E2,3.16E2,2.74E2,7.98E2,2.16E2,2.1E1,1.277E3,3.4E1,1.031E3,3.47E2,7.29E2,1.808E3,3.27E2,4.38E2,2.24E2,9.1E1,4.13E2,9.42E2,1.039E3,5.91E2,3.23E2,7.09E2,7.26E2,1.991E3,1.34E2,3.1E1,2.03E2,1.15E2,5.54E2,1.59E2,5.49E2,1.54E2,3.1E1,1.04E3,3.16E2,6.4E1,3.9E1,4.2E1,1.72E2,2.61E2,7.5E1,7.86E2,1.11E3,4.26E2,1.756E3,1.52E2,4.54E2,8.71E2,1.35E2,2.63E2,2.36E2,3.34E2,6.4E1,2.3E1,1.09E2,9.53E2,2.19E2,9.8E1,2.3E1,3.2E1,2.03E2,3.95E2,6E2,1.45E2,1.37E2,1.39E2,2E1,2.7E1,1.75E2,9.09E2,1.96E2,3.34E2,5.17E2,7.74E2,2.3E1,1.93E2,9.3E1,6.82E2,1.78E2,1.15E2,3.6E1,9.8E1,3.8E1,1.14E2,1.47E2,3.8E1],"tree_param":{"num_deleted":"0","num_feature":"40","num_nodes":"251","size_leaf_vector":"1"}},{"base_weights":[-2.0650437E-2,-3.8548563E-2,2.0422122E-1,-4.4801336E-2,3.1889457E-2,1.4316353E-1,3.389522E-1,-3.3374295E-2,-4.999973E-3,4.7040436E-2,-4.998595E-3,1.5405124E-1,-4.9938816E-3,3.5158694E-1,-4.97717E-3,-3.983622E-2,-1.0397148E-2,3.595154E-2,1.1033879E-1,1.09373E-1,1.8845071E-1,3.1931362E-1,4.6673483E-1,-3.3409186E-2,-4.3880194E-2,5.781311E-3,-2.5809864E-2,1.6858106E-2,6.354524E-2,1.636252E-1,7.061509E-2,9.540218E-2,1.8288556E-1,1.6137885E-1,2.2366272E-1,2.8312394E-1,3.6549324E-1,3.9120093E-1,5.673046E-1,1.2241043E-2,-3.4433037E-2,1.4285713E-2,-4.3981206E-2,1.2508945E-3,1.24761894E-1,-2.7003115E-2,7.1202414E-3,8.248891E-4,3.109612E-2,8.012853E-2,4.1527476E-2,1.1961206E-1,2.2144212E-1,4.701272E-2,1.0924436E-1,1.23052426E-1,6.726302E-2,2.7137303E-1,1.2749998E-1,1.4421973E-1,2.1361645E-1,2.6270422E-1,1.845613E-1,3.105209E-1,2.3008937E-1,3.933531E-1,2.8881684E-1,3.4093308E-1,4.9397808E-1,5.184146E-1,6.566514E-1,2.8571427E-2,9.784617E-4,-1.8721791E-2,-3.660969E-2,-3.7010055E-2,-4.586271E-2,2.5652174E-2,5.392513E-4,5.0740737E-2,8.85813E-2,-2.453208E-2,-3.9504893E-2,2.5840323E-2,-4.93671E-3,-1.55520495E-2,2.131187E-2,2.8518518E-2,2.9742721E-2,1.7793103E-1,7.624044E-2,6.033425E-2,1.023147E-2,1.854489E-1,6.2433142E-2,3.139394E-1,1.7878787E-1,3.782653E-2,1.8153845E-1,1.8749999E-1,8.2869366E-2,9.989445E-2,1.7944586E-1,1.17811486E-1,5.1423565E-2,1.8744186E-1,3.7470928E-1,1.1362861E-1,3.632353E-2,1.350982E-1,2.7336243E-1,2.0210044E-1,4.7187498E-1,3.41908E-1,2.2338098E-1,1.5553243E-1,2.4471402E-1,2.9349542E-1,4.0440676E-1,2.0857812E-1,3.4522292E-1,4.506571E-1,3.3639574E-1,3.952153E-1,2.3374082E-1,3.1010526E-1,4.930851E-1,3.8375E-1,5.76129E-1,3.3880594E-1,5.5188954E-1,7.2118056E-1,5.24E-1,-2.2690229E-3,6.1458326E-3,-2.400294E-3,7.959182E-3,6.1567046E-4,-3.7167054E-3,-1.8036676E-3,-4.196016E-3,-2.5753023E-3,-4.6084514E-3,2.017857E-2,-1.4590858E-5,2.4013158E-2,3.4345784E-3,-2.5606137E-3,1.0981297E-3,-4.185705E-3,1.9230651E-4,-4.9056616E-3,4.7043E-3,-5.922564E-4,-2.6011574E-3,4.606016E-3,8.238839E-4,1.7132293E-3,4.9570478E-3,2.9017856E-2,1.061111E-2,1.1721428E-2,6.6554383E-3,2.802652E-3,7.661357E-3,3.7587401E-3,3.773466E-5,1.1347516E-2,2.398907E-2,3.6458322E-3,2.8461536E-2,2.5807692E-2,5.0694443E-2,4.203125E-2,1.5496987E-2,2.1304347E-2,3.3475924E-3,3.8095236E-2,8.444443E-3,5.74468E-3,2.4136363E-2,6.6749365E-3,1.8153844E-2,1.4688754E-2,8.308297E-3,3.3351064E-2,1.5797948E-2,1.3376622E-2,1.8749988E-3,1.1123595E-2,4.2194687E-3,2.5489131E-2,1.3588709E-2,9.523808E-3,4.1085526E-2,1.8152984E-2,5.6406236E-3,1.2824426E-2,2.1849593E-2,3.2814812E-2,1.9263158E-2,1.9025125E-2,3.168317E-2,3.159091E-2,5.8148146E-2,4.3760683E-2,3.1740975E-2,1.2995391E-2,2.4398765E-2,1.0455695E-2,1.8025989E-2,2.9608106E-2,1.5216345E-2,6.604167E-2,2.8788531E-2,1.0124999E-2,4.5019533E-2,1.3333333E-2,2.4369603E-2,5.093023E-2,2.8086955E-2,3.6760125E-2,5.01354E-2,1.4754097E-2,3.5057034E-2,8.965516E-3,4.4198897E-2,1.40873E-2,2.7411971E-2,2.3590734E-2,3.97235E-2,5.626866E-2,3.0892855E-2,4.6141304E-2,1.2413792E-2,7.066666E-2,5.18018E-2,4.627907E-2,1.1199999E-2,6.184091E-2,4.304E-2,5.431818E-2,7.471545E-2,3.3870965E-2,6.4E-2],"categories":[0,1,2,6,7,8,13,14,15,18,0,2,5,6,7,9,12,14,15,18,19,0,1,2,4,5,6,7,8,9,11,12,14,15,16,18,19,2,3,5,6,7,9,10,12,13,14,16,17,18,19,20,21,22,24,26,27,28,29,30,1,4,6,0,1,2,4,5,6,7,8,9,10,11,12,14,15,17,18,19,0,2,3,4,5,9,0,1,2,3,4,5,6,7,8,9,10,11,12,13,14,15,18,19,0,3,5,7,0,1,2,4,5,6,7,8,9,10,11,12,13,14,15,17,18,19,0,3,4,5,6,7,8,9,0,3,4,5,6,7,8,9,0,1,2,4,5,6,7,8,9,10,11,12,13,14,15,16,17,18,19,3,4,8,3,4,5,6,7,8,0,1,7,9,0,2,3,4,5,6,7,9,1,2,3,4,5,6,7,9,1,2,3,4,6,7,8,9,0,1,3,4,5,6,1,2,3,4,6,8,1,3,4,5,6,7,3,4,5,9,10,11,12,16,19,1,2,6,8,14,15,18,0,3,4,6,7,9,10,11,12,13,14,15,16,17,18,19,21,22,23,24,25,26,28,29,30,0,2,3,4,5,6,7,9,2,5,9,10,18,19,0,1,2,5,6,7,8,9,10,12,13,14,15,16,17,18,19,0,1,2,3,5,6,7,1,3,4,5,0,1,2,4,5,6,7,8,9,11,12,13,14,15,17,18,19,2,3,4,6,8,0,1,2,4,5,6,7,8,9,10,11,12,13,14,15,16,17,18,19,0,3,4,6,8],"categories_nodes":[15,16,18,23,28,31,32,34,35,36,40,42,44,45,46,50,52,54,56,61,65,70,74,75,76,80,85,92,101,105,107,116,120,130],"categories_segments":[0,10,21,37,60,63,80,86,104,108,126,134,142,161,164,170,174,182,190,198,204,210,216,225,232,257,265,271,288,295,299,316,321,340],"categories_sizes":[10,11,16,23,3,17,6,18,4,18,8,8,19,3,6,4,8,8,8,6,6,6,9,7,25,8,6,17,7,4,17,5,19,5],"default_left":[0,0,0,0,0,0,0,0,0,0,0,0,0,0,0,1,1,0,1,0,0,0,0,1,0,0,0,0,1,0,0,1,1,0,1,1,1,0,0,0,1,0,1,0,1,1,1,0,0,0,1,0,1,0,1,0,1,0,0,0,0,1,0,0,0,1,0,0,0,0,1,0,0,0,1,1,1,0,0,0,1,0,0,0,0,1,0,0,0,0,0,0,1,0,0,0,0,0,0,0,0,1,0,0,0,1,0,1,0,0,0,0,0,0,0,0,1,0,0,0,1,0,0,0,0,0,0,0,0,0,1,0,0,0,0,0,0,0,0,0,0,0,0,0,0,0,0,0,0,0,0,0,0,0,0,0,0,0,0,0,0,0,0,0,0,0,0,0,0,0,0,0,0,0,0,0,0,0,0,0,0,0,0,0,0,0,0,0,0,0,0,0,0,0,0,0,0,0,0,0,0,0,0,0,0,0,0,0,0,0,0,0,0,0,0,0,0,0,0,0,0,0,0,0,0,0,0,0,0,0,0,0,0,0,0,0,0,0,0,0,0,0,0,0,0],"id":4,"left_children":[1,3,5,7,9,11,13,15,-1,17,-1,19,-1,21,-1,23,25,27,29,31,33,35,37,39,41,43,45,47,49,51,53,55,57,59,61,63,65,67,69,71,73,-1,75,77,79,81,83,85,87,89,91,93,95,97,99,101,103,105,107,109,111,113,115,117,119,121,123,125,127,129,131,-1,133,135,137,139,141,-1,143,-1,145,147,149,151,-1,153,155,-1,157,159,161,163,165,167,169,171,173,175,177,179,181,183,185,187,189,191,193,195,-1,197,199,201,203,205,207,209,211,213,215,217,219,221,223,225,227,229,231,233,235,237,239,241,243,-1,-1,-1,-1,-1,-1,-1,-1,-1,-1,-1,-1,-1,-1,-1,-1,-1,-1,-1,-1,-1,-1,-1,-1,-1,-1,-1,-1,-1,-1,-1,-1,-1,-1,-1,-1,-1,-1,-1,-1,-1,-1,-1,-1,-1,-1,-1,-1,-1,-1,-1,-1,-1,-1,-1,-1,-1,-1,-1,-1,-1,-1,-1,-1,-1,-1,-1,-1,-1,-1,-1,-1,-1,-1,-1,-1,-1,-1,-1,-1,-1,-1,-1,-1,-1,-1,-1,-1,-1,-1,-1,-1,-1,-1,-1,-1,-1,-1,-1,-1,-1,-1,-1,-1,-1,-1,-1,-1,-1,-1,-1,-1],"loss_changes":[1.2130891E3,1.229628E2,1.8274951E2,1.5230347E1,2.8239683E1,3.216037E1,3.4048767E1,1.1904442E1,0E0,1.3479004E1,0E0,2.2229187E1,0E0,2.4790405E1,0E0,1.6250381E0,4.389029E0,8.611483E0,6.048649E0,6.4528503E0,7.7596436E0,8.662109E0,1.0922028E1,1.1302414E0,7.3075104E-1,4.629047E0,3.5438728E-1,2.2058551E0,2.4375458E0,3.0831413E0,1.4919453E0,4.1122932E0,4.890835E0,4.1166153E0,5.3739014E0,4.207596E0,4.801758E0,4.1765137E0,2.398407E0,1.635208E0,8.078594E-1,0E0,5.018158E-1,1.5029311E0,4.31602E0,2.6776314E-1,3.3542916E-1,1.5255783E0,1.7515135E0,1.4360046E0,1.6909533E0,2.6084995E0,2.023098E0,1.2548635E0,1.2682638E0,3.4689827E0,2.0972767E0,3.2775936E0,1.9861097E0,4.069496E0,3.3010635E0,5.4519424E0,3.0666237E0,2.9806976E0,2.421997E0,5.348053E0,3.523243E0,2.5113068E0,2.2600784E0,2.2780914E0,1.4881592E0,0E0,7.328803E-1,1.4967126E0,4.9518967E-1,7.6600933E-1,1.3362503E-1,0E0,1.1378647E0,0E0,2.3671615E0,2.774315E-1,1.3981676E-1,3.8025546E-1,0E0,2.5436503E-1,6.531615E-1,0E0,1.2723365E0,1.1381421E0,1.4479351E0,9.419284E-1,2.9112E-1,1.2384148E0,2.1480312E0,1.6481571E0,2.0230703E0,7.223892E-1,1.2263541E0,1.0789361E0,7.306671E-1,1.4848919E0,2.51371E0,9.868841E-1,1.1004128E0,7.1299076E-1,1.6983719E0,2.2705312E0,0E0,1.8342667E0,9.4963074E-1,1.4283447E0,6.3685894E-1,1.2372894E0,2.2573814E0,1.4962673E0,2.6980324E0,3.1960602E0,4.0493393E0,2.2162247E0,1.5147247E0,3.3400269E0,2.2210007E0,2.9474335E0,1.4950943E0,2.977089E0,1.0310192E0,2.3621922E0,8.0971146E-1,1.8322392E0,2.5138474E0,2.5991058E-1,1.3952503E0,0E0,0E0,0E0,0E0,0E0,0E0,0E0,0E0,0E0,0E0,0E0,0E0,0E0,0E0,0E0,0E0,0E0,0E0,0E0,0E0,0E0,0E0,0E0,0E0,0E0,0E0,0E0,0E0,0E0,0E0,0E0,0E0,0E0,0E0,0E0,0E0,0E0,0E0,0E0,0E0,0E0,0E0,0E0,0E0,0E0,0E0,0E0,0E0,0E0,0E0,0E0,0E0,0E0,0E0,0E0,0E0,0E0,0E0,0E0,0E0,0E0,0E0,0E0,0E0,0E0,0E0,0E0,0E0,0E0,0E0,0E0,0E0,0E0,0E0,0E0,0E0,0E0,0E0,0E0,0E0,0E0,0E0,0E0,0E0,0E0,0E0,0E0,0E0,0E0,0E0,0E0,0E0,0E0,0E0,0E0,0E0,0E0,0E0,0E0,0E0,0E0,0E0,0E0,0E0,0E0,0E0,0E0,0E0,0E0,0E0,0E0,0E0],"parents":[2147483647,0,0,1,1,2,2,3,3,4,4,5,5,6,6,7,7,9,9,11,11,13,13,15,15,16,16,17,17,18,18,19,19,20,20,21,21,22,22,23,23,24,24,25,25,26,26,27,27,28,28,29,29,30,30,31,31,32,32,33,33,34,34,35,35,36,36,37,37,38,38,39,39,40,40,42,42,43,43,44,44,45,45,46,46,47,47,48,48,49,49,50,50,51,51,52,52,53,53,54,54,55,55,56,56,57,57,58,58,59,59,60,60,61,61,62,62,63,63,64,64,65,65,66,66,67,67,68,68,69,69,70,70,72,72,73,73,74,74,75,75,76,76,78,78,80,80,81,81,82,82,83,83,85,85,86,86,88,88,89,89,90,90,91,91,92,92,93,93,94,94,95,95,96,96,97,97,98,98,99,99,100,100,101,101,102,102,103,103,104,104,105,105,106,106,107,107,109,109,110,110,111,111,112,112,113,113,114,114,115,115,116,116,117,117,118,118,119,119,120,120,121,121,122,122,123,123,124,124,125,125,126,126,127,127,128,128,129,129,130,130,131,131,132,132],"right_children":[2,4,6,8,10,12,14,16,-1,18,-1,20,-1,22,-1,24,26,28,30,32,34,36,38,40,42,44,46,48,50,52,54,56,58,60,62,64,66,68,70,72,74,-1,76,78,80,82,84,86,88,90,92,94,96,98,100,102,104,106,108,110,112,114,116,118,120,122,124,126,128,130,132,-1,134,136,138,140,142,-1,144,-1,146,148,150,152,-1,154,156,-1,158,160,162,164,166,168,170,172,174,176,178,180,182,184,186,188,190,192,194,196,-1,198,200,202,204,206,208,210,212,214,216,218,220,222,224,226,228,230,232,234,236,238,240,242,244,-1,-1,-1,-1,-1,-1,-1,-1,-1,-1,-1,-1,-1,-1,-1,-1,-1,-1,-1,-1,-1,-1,-1,-1,-1,-1,-1,-1,-1,-1,-1,-1,-1,-1,-1,-1,-1,-1,-1,-1,-1,-1,-1,-1,-1,-1,-1,-1,-1,-1,-1,-1,-1,-1,-1,-1,-1,-1,-1,-1,-1,-1,-1,-1,-1,-1,-1,-1,-1,-1,-1,-1,-1,-1,-1,-1,-1,-1,-1,-1,-1,-1,-1,-1,-1,-1,-1,-1,-1,-1,-1,-1,-1,-1,-1,-1,-1,-1,-1,-1,-1,-1,-1,-1,-1,-1,-1,-1,-1,-1,-1,-1],"split_conditions":[6.428571E0,3E0,1.1714286E1,1E0,1E0,1E0,1E0,1.8326117E0,-6.2127E-1,4.827583E0,-7.0425E-1,7.678571E0,-7.74685E-1,1.8142857E1,-8.8439256E-1,1E-45,1E-45,4.5833335E0,1E-45,5.312833E0,4E0,4E0,4E0,1E-45,1.25E0,5.1223135E0,3.4846601E0,2.8959012E0,1E-45,4.4347115E0,5E0,1E-45,1E-45,6.4137545E0,1E-45,1E-45,1E-45,1E0,1E0,7.1428575E-2,1E-45,1.9199362E0,1E-45,5.769231E-1,1E-45,1E-45,1E-45,4E0,8.410107E-1,2E0,1E-45,2.5E1,1E-45,5E1,1E-45,5E0,1E-45,6.7682734E0,1.8E1,1.1928572E1,5.3E0,1E-45,1.3E1,5.3E0,4.2E1,1E-45,5E0,1.94E0,1.6E1,6E0,1E-45,1.92773E0,1.5735916E0,2.94E0,1E-45,1E-45,1E-45,1.0908245E0,7.1428575E-2,2.1001177E0,1E-45,3.75E0,5E1,8E0,-1.06285475E-1,1E-45,1.9148542E0,7.0703113E-1,4E0,2.013E3,1.3E1,3.149704E0,1E-45,3E0,1.2E1,7.714286E0,3.2E0,1.5833334E0,2.7945526E0,1.1E1,1.5E1,1E-45,7E0,5.773503E0,2.9607217E0,1E-45,6.75E0,1E-45,1.3785442E0,4.9E1,1.9E1,2.9E1,9.983614E-1,8.357142E0,8.357142E0,8.357142E0,1E-45,4.821429E0,1.1928572E1,1.2071428E1,1E-45,1.3428572E1,4.677284E0,1E1,9E0,2.1857143E1,8.826367E0,1.5E1,1E0,9.565141E-1,1E-45,9.9E-1,1.9857143E1,-2.0032997E-1,2.7653745E-1,-1.55333E-1,2.7259707E-1,1.4733207E-2,-2.3732996E-1,-1.2740293E-1,-2.9024002E-1,-2.6504025E-1,-3.3724004E-1,8.719826E-1,-8.510525E-4,6.653056E-1,2.3658875E-1,-1.8112813E-1,8.335525E-2,-2.3317038E-1,1.2520903E-1,-2.836184E-1,3.9099795E-1,-2.473369E-2,-1.11314654E-1,1.6487293E-1,3.0003741E-2,9.868439E-2,2.383457E-1,4.0727893E-1,4.6669993E-1,3.967508E-1,2.3649839E-1,1.16097726E-1,2.94457E-1,2.222992E-1,9.591676E-3,3.7971103E-1,6.098176E-1,2.8582472E-1,1.5384859E0,7.074245E-1,1.5748495E0,8.3150667E-1,9.237323E-1,1.4454738E0,2.4462502E-1,1.271313E0,6.810753E-1,9.2214215E-1,8.5281086E-1,2.513273E-1,9.437998E-1,4.528091E-1,3.294911E-1,7.673162E-1,7.353295E-1,4.5661327E-1,3.9945375E-2,3.2737258E-1,1.5781844E-1,7.319426E-1,6.2791896E-1,2.9404405E-1,1.1517608E0,6.900436E-1,3.595186E-1,4.703548E-1,6.8456286E-1,1.2882365E0,7.0021945E-1,8.8252395E-1,1.1576833E0,1.0261937E0,1.7803844E0,1.0684584E0,9.0718335E-1,4.5428547E-1,8.247048E-1,4.313739E-1,7.241382E-1,9.5702505E-1,7.042305E-1,2.684979E0,9.664138E-1,7.4478006E-1,1.0888073E0,5.808549E-1,7.478511E-1,2.1650903E0,8.762355E-1,1.1647242E0,1.5378615E0,8.7735856E-1,1.4527043E0,1.0586683E0,1.2415123E0,6.9686455E-1,7.764391E-1,1.0751618E0,2.0464897E0,1.0988129E0,1.7338734E0,2.4314244E0,1.137371E0,1.6953923E0,1.8226664E0,3.36246E0,9.505249E-1,2.3720756E0,1.660194E0,2.0914683E0,3.0012991E0,2.0919712E0,2.2010207E0],"split_indices":[33,35,33,9,9,9,9,37,0,37,0,35,0,33,0,38,38,34,38,37,4,4,4,15,10,36,37,37,8,36,33,38,39,37,38,39,38,29,29,34,39,0,39,35,38,39,39,4,13,3,39,2,39,2,39,4,39,36,31,35,10,8,31,10,2,39,4,10,2,31,39,0,36,10,38,38,15,0,34,0,39,33,2,3,0,38,36,0,33,0,2,37,38,4,1,34,33,34,36,2,31,39,2,36,37,8,33,38,0,2,3,3,13,34,35,34,39,35,35,34,38,33,37,35,31,33,36,2,27,13,39,10,33,0,0,0,0,0,0,0,0,0,0,0,0,0,0,0,0,0,0,0,0,0,0,0,0,0,0,0,0,0,0,0,0,0,0,0,0,0,0,0,0,0,0,0,0,0,0,0,0,0,0,0,0,0,0,0,0,0,0,0,0,0,0,0,0,0,0,0,0,0,0,0,0,0,0,0,0,0,0,0,0,0,0,0,0,0,0,0,0,0,0,0,0,0,0,0,0,0,0,0,0,0,0,0,0,0,0,0,0,0,0,0,0],"split_type":[0,0,0,0,0,0,0,0,0,0,0,0,0,0,0,1,1,0,1,0,0,0,0,1,0,0,0,0,1,0,0,1,1,0,1,1,1,0,0,0,1,0,1,0,1,1,1,0,0,0,1,0,1,0,1,0,1,0,0,0,0,1,0,0,0,1,0,0,0,0,1,0,0,0,1,1,1,0,0,0,1,0,0,0,0,1,0,0,0,0,0,0,1,0,0,0,0,0,0,0,0,1,0,0,0,1,0,1,0,0,0,0,0,0,0,0,1,0,0,0,1,0,0,0,0,0,0,0,0,0,1,0,0,0,0,0,0,0,0,0,0,0,0,0,0,0,0,0,0,0,0,0,0,0,0,0,0,0,0,0,0,0,0,0,0,0,0,0,0,0,0,0,0,0,0,0,0,0,0,0,0,0,0,0,0,0,0,0,0,0,0,0,0,0,0,0,0,0,0,0,0,0,0,0,0,0,0,0,0,0,0,0,0,0,0,0,0,0,0,0,0,0,0,0,0,0,0,0,0,0,0,0,0,0,0,0,0,0,0,0,0,0,0,0,0],"sum_hessian":[3.01402E5,2.79182E5,2.222E4,2.5642E5,2.2762E4,1.5292E4,6.928E3,8.0179E4,1.76241E5,1.9208E4,3.554E3,1.4476E4,8.16E2,6.71E3,2.18E2,6.2579E4,1.76E4,1.6346E4,2.862E3,6.299E3,8.177E3,5.244E3,1.466E3,2.4172E4,3.8407E4,8.587E3,9.013E3,9.662E3,6.684E3,1.221E3,1.641E3,5.295E3,1.004E3,4.626E3,3.551E3,2.944E3,2.3E3,8.4E2,6.26E2,5.3E2,2.3642E4,2E1,3.8387E4,8.273E3,3.14E2,8.698E3,3.15E2,4.545E3,5.117E3,3.811E3,2.873E3,6.95E2,5.26E2,1.02E3,6.21E2,2.669E3,2.626E3,3.85E2,6.19E2,3.485E3,1.141E3,1.774E3,1.777E3,1.938E3,1.006E3,1.684E3,6.16E2,5.67E2,2.73E2,4.09E2,2.17E2,2E1,5.1E2,2.878E3,2.0764E4,8.163E3,3.0224E4,2.2E1,8.251E3,2.6E1,2.88E2,7.265E3,1.433E3,2.37E2,7.8E1,2.526E3,2.019E3,2.6E1,5.091E3,1.44E2,3.667E3,1.794E3,1.079E3,3.22E2,3.73E2,1.64E2,3.62E2,9.56E2,6.4E1,1.55E2,4.66E2,1.894E3,7.75E2,6.25E2,2.001E3,2.14E2,1.71E2,5.86E2,3.3E1,3.257E3,2.28E2,1.094E3,4.7E1,5.86E2,1.188E3,1.201E3,5.76E2,1.644E3,2.94E2,8.5E2,1.56E2,8.36E2,8.48E2,2.08E2,4.08E2,4.74E2,9.3E1,1.19E2,1.54E2,6.6E1,3.43E2,1.43E2,7.4E1,3.67E2,1.43E2,2.732E3,1.46E2,2.67E2,2.0497E4,1.69E3,6.473E3,3.31E2,2.9893E4,2.7E1,8.224E3,7.5E1,2.13E2,7.052E3,2.13E2,1.356E3,7.7E1,5.2E1,1.85E2,1.316E3,1.21E3,6.97E2,1.322E3,3.113E3,1.978E3,5.5E1,8.9E1,6.99E2,2.968E3,6.02E2,1.192E3,2.85E2,7.94E2,1.4E2,1.82E2,3.35E2,3.8E1,1.29E2,3.5E1,3.1E1,3.31E2,2.2E1,9.34E2,2E1,4.4E1,4.6E1,1.09E2,4.02E2,6.4E1,4.97E2,1.397E3,9.3E1,6.82E2,5.38E2,8.7E1,2.66E2,1.735E3,9.1E1,1.23E2,2E1,1.51E2,2.67E2,3.19E2,3.012E3,2.45E2,1.34E2,9.4E1,9.94E2,1E2,2.1E1,2.6E1,1.16E2,4.7E2,2.16E2,9.72E2,3.94E2,8.07E2,3.69E2,2.07E2,2.3E1,1.621E3,3.9E1,2.55E2,2.72E2,5.78E2,4.2E1,1.14E2,3.2E2,5.16E2,6E1,7.88E2,2.8E1,1.8E2,1.25E2,2.83E2,2.58E2,2.16E2,6.6E1,2.7E1,9.1E1,2.8E1,4.4E1,1.1E2,4.2E1,2.4E1,2.19E2,1.24E2,2.1E1,1.22E2,3E1,4.4E1],"tree_param":{"num_deleted":"0","num_feature":"40","num_nodes":"245","size_leaf_vector":"1"}},{"base_weights":[-2.3878057E-2,-3.830428E-2,1.7482989E-1,-4.4284623E-2,2.738383E-2,1.21615544E-1,2.5106585E-1,-3.1863883E-2,-4.999973E-3,4.0468E-2,-4.9985293E-3,1.3074835E-1,-4.991791E-3,2.6303244E-1,-4.9844733E-3,-3.742979E-2,-4.6767658E-3,1.856385E-2,6.220733E-2,1.05552986E-1,1.64194E-1,2.3405808E-1,3.3447164E-1,-4.1018695E-2,-2.9190693E-2,-5.9995754E-3,2.8412697E-1,6.301317E-3,4.3368567E-2,5.0386604E-2,9.051549E-2,7.698499E-2,1.2614205E-1,1.3155878E-1,2.0121896E-1,2.1304187E-1,2.864051E-1,3.047719E-1,4.0859726E-1,4.5833323E-2,-4.1173346E-2,6.499999E-2,-2.9512387E-2,-1.1187627E-2,2.9124282E-2,6.0576923E-2,5.6578936E-3,-2.6072115E-3,1.782533E-2,3.7624903E-2,9.902912E-2,2.4399301E-2,5.88427E-2,7.549307E-2,1.514505E-1,5.7230584E-2,1.14422046E-1,1.0658222E-1,1.6018115E-1,9.634273E-2,1.5184289E-1,1.7690113E-1,2.542361E-1,2.4811988E-1,1.8461707E-1,1.8623595E-1,2.9836398E-1,2.7396291E-1,3.6956927E-1,4.8226413E-1,3.586466E-1,1.3703703E-2,2.5861952E-3,-4.1358527E-2,1.5686262E-2,1.2195121E-1,-1.5000012E-3,-3.358592E-2,-2.5308592E-2,1.7840908E-1,-1.188543E-2,8.300652E-2,1.0251513E-2,-1.1383359E-2,1.1133729E-2,1.3124262E-2,5.3698212E-2,6.3908435E-2,2.719664E-2,1.3606556E-1,4.4881877E-2,1.867647E-2,2.1166168E-2,2.4181817E-1,5.6937113E-2,5.196323E-2,9.915753E-2,8.69658E-2,1.937677E-1,4.7756594E-2,1.5030302E-1,2.2824073E-1,9.958133E-2,1.0370525E-1,3.0441174E-2,3.9555556E-1,1.5213323E-1,1.8811475E-1,8.2834914E-2,1.15614325E-1,1.7154205E-1,2.2494714E-1,1.5619348E-1,1.776946E-1,3.1963822E-1,2.3349483E-1,3.7729728E-1,1.5690765E-1,2.2859588E-1,1.554487E-1,3.8695652E-2,4.033854E-1,2.8232756E-1,2.4839948E-1,3.2974502E-1,4.1257223E-1,2.8888887E-1,3.5071427E-1,5.2678573E-1,2.1249999E-1,3.9636075E-1,3.970587E-3,-4.800001E-3,-1.713116E-3,-4.1677873E-3,1.9047618E-2,-1.2030088E-3,1.9047618E-2,4.761904E-3,-3.4960248E-3,-2.2884952E-3,-3.0133908E-3,-1.586766E-3,