{"learner":{"attributes":{"best_iteration":"113","best_score":"0.39147553423411086"},"feature_names":["year","month","week","day_of_month","day_of_week","is_weekend","quarter","wday","weekday","is_zero_sales","sell_price","price_diff","price_pct_change","price_rel_to_mean","has_price","event_name_1","event_type_1","event_name_2","event_type_2","has_event_1","has_event_2","has_any_event","is_sporting","is_cultural","is_national","is_religious","snap_CA","snap_TX","snap_WI","snap_active","lag_7","lag_14","lag_28","rolling_mean_7","rolling_mean_14","rolling_mean_28","rolling_std_7","rolling_std_28","item_id","store_id"],"feature_types":["int","int","int","int","int","int","int","int","c","int","float","float","float","float","int","c","c","c","c","int","int","int","int","int","int","int","int","int","int","int","float","float","float","float","float","float","float","float","c","c"],"gradient_booster":{"model":{"cats":{"enc":[],"feature_segments":[],"sorted_idx":[]},"gbtree_model_param":{"num_parallel_tree":"1","num_trees":"114"},"iteration_indptr":[0,1,2,3,4,5,6,7,8,9,10,11,12,13,14,15,16,17,18,19,20,21,22,23,24,25,26,27,28,29,30,31,32,33,34,35,36,37,38,39,40,41,42,43,44,45,46,47,48,49,50,51,52,53,54,55,56,57,58,59,60,61,62,63,64,65,66,67,68,69,70,71,72,73,74,75,76,77,78,79,80,81,82,83,84,85,86,87,88,89,90,91,92,93,94,95,96,97,98,99,100,101,102,103,104,105,106,107,108,109,110,111,112,113,114],"tree_info":[0,0,0,0,0,0,0,0,0,0,0,0,0,0,0,0,0,0,0,0,0,0,0,0,0,0,0,0,0,0,0,0,0,0,0,0,0,0,0,0,0,0,0,0,0,0,0,0,0,0,0,0,0,0,0,0,0,0,0,0,0,0,0,0,0,0,0,0,0,0,0,0,0,0,0,0,0,0,0,0,0,0,0,0,0,0,0,0,0,0,0,0,0,0,0,0,0,0,0,0,0,0,0,0,0,0,0,0,0,0,0,0,0,0],"trees":[{"base_weights":[-9.9628314E-2,-3.27165E-1,1.6722739E-1,-4.5862144E-1,-1.716439E-1,3.6456253E-2,3.744391E-1,-4.883749E-1,-3.668287E-1,-2.2908448E-1,-1.15814805E-1,-2.5729721E-2,1.12555526E-1,4.0778998E-1,1.6833735E-1,-4.902895E-1,-4.372671E-1,-3.3040738E-1,-4.0005314E-1,-1.9304101E-1,-2.6246005E-1,-4.9652487E-2,-1.3799252E-1,4.0881272E-2,-7.724639E-2,1.9888943E-1,7.1486406E-2,3.44548E-1,4.5188E-1,1.841451E-1,7.739938E-4,-4.0823328E-1,-4.9103367E-1,-4.0807393E-1,-4.585735E-1,-3.5364237E-1,-3.0590928E-1,-4.1360143E-1,-3.595347E-1,-1.4602861E-1,-2.1768004E-1,-2.4342246E-1,-3.1520665E-1,-2.454763E-2,-1.4487633E-1,-7.4651785E-2,-1.7519476E-1,8.441933E-2,8.762229E-3,-1.2365511E-2,-1.4390449E-1,1.6632597E-1,2.4664932E-1,9.9883825E-2,-2.0120561E-2,3.4731394E-1,-4.920635E-2,4.546844E-1,-4.9382716E-2,2.004501E-1,1.9448947E-2,9.5454544E-2,-9.77918E-2,-4.4076306E-1,-2.1511628E-1,-4.8246822E-1,-4.944458E-1,-3.75E-1,-4.3669724E-1,-4.3351063E-1,-4.751515E-2,-3.649229E-1,-3.1978932E-1,-2.9428646E-1,-3.4296483E-1,-3.9236373E-1,-4.3240222E-1,-3.334446E-1,-3.8843283E-1,-1.04406916E-1,-1.7364532E-1,-1.3188143E-1,-2.3192196E-1,-1.315331E-1,-2.481787E-1,-3.611996E-1,-2.878072E-1,-5.645922E-2,1.6793894E-2,-1.5030833E-1,1.5277778E-2,-1.23953715E-1,-4.3451175E-2,-1.5816283E-1,-2.0991652E-1,-1.6958425E-2,9.635215E-2,3.895562E-2,-2.2648387E-2,-5.8070477E-2,4.7262397E-2,8.4586464E-2,-1.4865606E-1,1.6874315E-1,-3.4285717E-2,2.494459E-1,-1.3513513E-2,1.0926889E-1,-8.6225025E-2,1.871597E-2,-1.1900636E-1,3.861396E-1,3.034087E-1,4.6824056E-1,3.7814716E-1,1.433843E-1,2.2543353E-1,4.85348E-2,-2.013889E-1,1.1551155E-1,-1.25E-2,-3.8333334E-2,-6.7708336E-2,-3.8787878E-1,-4.6556886E-2,1.904762E-2,-3.409091E-1,-4.4874716E-1,-4.8707193E-1,-4.6751103E-1,-4.949836E-1,-3.8586956E-1,-1.6E-2,-3.7244898E-1,-4.497768E-1,-4.5345347E-2,-4.0301725E-1,-3.3848417E-1,-3.7860715E-1,-3.5158312E-1,-2.770979E-1,-2.9985976E-1,-2.1933086E-1,-2.5840336E-1,-3.6363637E-1,-3.4709027E-1,-4.253699E-1,-4.411843E-1,-3.8651994E-1,-3.0814442E-1,-4.301948E-1,-2.9042906E-1,-4.1666666E-1,4.5081966E-2,-1.1226701E-1,-2.0369482E-1,-1.3367282E-1,-3.809524E-1,-9.9658705E-2,-2.2760807E-1,-3.609375E-1,-1.4647378E-1,2.5E-2,-2.6896194E-1,-2.2737405E-1,-3.7381595E-1,-3.144963E-1,-2.4933244E-1,-3.2200357E-1,-8.702128E-2,-1.848917E-2,-3.0294118E-2,6.757614E-2,-2.25E-1,-1.3209955E-1,-8.356071E-2,-1.4670774E-1,-8.066009E-2,-5.5031446E-3,-1.8101433E-1,-1.2767823E-1,-1.3992974E-1,-2.2179027E-1,7.7586204E-2,-6.08E-2,1.349762E-1,6.339542E-2,-9.214891E-3,7.876295E-2,-4.4133622E-2,1.5377223E-2,-3.7971698E-2,-1.629721E-1,1.712828E-2,1.2049616E-1,3.125E-1,-1.0204082E-1,-1.0183747E-1,-1.6897056E-1,1.9365904E-1,1.2064128E-1,2.2701062E-1,2.9358897E-1,7.9905845E-2,1.6199377E-1,-1.8691589E-3,-1.9424461E-1,-2.0297699E-2,5.8166057E-2,-1.8028846E-2,-1.5083587E-1,3.8867226E-1,-2.2619048E-1,3.3369118E-1,2.5204483E-1,4.6909747E-1,-2.4390243E-2,4.016605E-1,3.3176556E-1,1.6970803E-1,7.481061E-2,2.9442772E-1,2.1286182E-1,-1.2345679E-2,9.7039476E-2,-2.7884614E-1,-0E0,4.5774646E-2,1.7592593E-1,-4.0697675E-2,-2.9032258E-2,-3.4736842E-2,-4.3661974E-2,-4.5945946E-2,-1.8333334E-2,-3.1054689E-2,-4.667526E-2,-4.4798657E-2,-4.877839E-2,-2.4390245E-2,-4.7753457E-2,-4.33526E-2,-4.9521204E-2,-3.388158E-2,-4.07767E-2,-2.5E-2,-4.3076925E-2,-4.607046E-2,-3.9375003E-2,-4.551282E-2,-3.7419356E-2,-2.4275362E-2,-3.49018E-2,-4.2098444E-2,-3.710479E-2,-3.1295847E-2,-3.957143E-2,-2.3893805E-2,-3.311966E-2,-2.7781984E-2,-3.1269487E-2,-8.860759E-3,-2.7225131E-2,-3.1164384E-2,-1.7204301E-2,-4.2105265E-2,-3.338583E-2,-3.037037E-2,-3.7574258E-2,-4.3895822E-2,-3.6951754E-2,-4.4304654E-2,-3.0555556E-2,-3.5215054E-2,-4.970588E-2,-3.3387803E-2,-2.2080293E-2,-3.214286E-2,-4.6025105E-2,-3.8839288E-2,-2.3177084E-2,-4.272051E-2,-3.112245E-2,-8.870968E-3,1.8032787E-2,-1.01656625E-2,-1.7879747E-2,-2.1575544E-2,-1.4973958E-2,-7.667211E-3,-1.6996874E-2,-4.695122E-2,-3.101852E-2,-4.8426152E-4,-1.3675215E-2,-2.6376395E-2,-2.1289805E-2,-3.306773E-2,-4.6428572E-2,-2.1338914E-2,-9.52381E-3,-2.2520185E-2,-2.841114E-2,-2.4401544E-2,-2.0456942E-2,-3.9311044E-2,-3.343496E-2,-4.0677965E-2,-2.9799426E-2,-2.3824787E-2,-4.1052632E-2,-2.929448E-2,-3.621429E-2,-6.1491937E-3,-1.3093859E-2,-8.163265E-3,1.3524265E-3,-4.9621216E-3,3.6745407E-3,1.2710437E-2,3.1536114E-3,-1.6585367E-2,-2.9261364E-2,-1.5486726E-3,-1.5163935E-2,-3.0215827E-3,-1.3147669E-2,-1.6438356E-2,-6.860707E-3,-9.730141E-3,-8.986929E-4,-4.1341144E-3,2.7963526E-3,-2.059508E-2,-1.614081E-2,-3.2667876E-3,-1.39070675E-2,-2.0528456E-2,-1.13300495E-2,-2.330801E-2,-1.4858841E-2,4.241071E-3,1.9402986E-2,2.259887E-3,-9.354121E-3,1.0220049E-2,1.7878193E-2,1.0511714E-2,3.7008182E-3,-5.573081E-3,1.588202E-3,4.8413123E-3,1.1832866E-2,-1.2658228E-3,-9.590517E-3,3.2909294E-3,-1.0036496E-2,-6.7421906E-3,3.5812673E-3,-7.795699E-3,-2.344932E-2,2.683113E-3,-1.891892E-2,1.7449666E-2,3.3794164E-3,3.897059E-2,2.0754717E-2,-2.6086958E-3,-3.636364E-2,-4.8448145E-3,-1.2952045E-2,-1.1584554E-2,-1.8695457E-2,1.8514387E-2,3.0945122E-2,1.7290076E-2,6.281619E-3,2.0581989E-2,2.79724E-2,2.6246184E-2,3.3770017E-2,8.316008E-3,-3.8690478E-2,1.6406251E-2,-4.7727272E-2,1.1597938E-2,-6.871345E-3,-2.583732E-2,-1.291866E-2,1.024735E-2,-3.8242897E-3,9.009009E-4,8.509887E-3,-1.178161E-2,5.3497944E-3,-1.1170213E-2,-1.8968133E-2,3.4862384E-2,4.1566163E-2,-3.8636364E-2,-4.761905E-3,2.775157E-2,3.6271047E-2,2.2345483E-2,2.902768E-2,4.786065E-2,4.52968E-2,1.904762E-2,-2.3809524E-2,4.2846154E-2,3.324573E-2,2.795341E-2,3.7148338E-2,-1.1627908E-2,1.7884037E-2,1.4043211E-2,-2.9268293E-3,3.2295372E-2,1.3592233E-2,2.3739403E-2,1.7405063E-2,-7.0866146E-3,5.1282053E-3,8.547009E-4,1.5159574E-2,-1.9642858E-2,-3.6000002E-2,9.375E-3,-1.2903226E-2,1.4855072E-2,3.2E-2,7.6530613E-3,-1.1180124E-2],"categories":[0,1,2,5,6,7,8,9,11,12,13,14,15,3,4,7,8,9,10,13,15,17,18,1,2,6,8,9,2,3,4,5,6,8,9,0,1,2,6,7,8,9,13,14,15,17,0,1,2,5,6,7,8,9,11,12,13,14,15,17,3,4,6,0,1,3,4,6,7,8,9,10,11,12,13,14,15,17,18,19,0,1,4,7,9,10,11,13,14,18,2,4,6,8,9,4,6,3,6,8,13,16,17,0,1,2,6,7,8,9,13,14,15,17,3,4,5,6,9,3,4,5,6,8,9,3,4,5,6,1,1,0,1,3,4,6,7,8,10,16,17,18,19,3,6,7,8,10,12,15,17,19,0,1,2,3,5,7,8,11,12,3,4,7,9,10,18,0,5,11,13,14,0,5,7,11,13,14,15,17,19,0,1,2,3,5,8,9,1,6,7,9,17,5,11,12,0,1,2,6,7,8,9,13,14,15,1,6,8,0,2,7,9,13,14,15,0,1,2,4,5,6,7,8,9,11,12,13,14,15,17,18,19,0,1,2,4,5,6,7,8,9,11,12,13,14,15,17,18,0,5,8,11,1,3,8,9,2,4,6,8,9,0,1,5,6,8,9,0,1,2,3,4,5,6,7,4,10,3,7,9,13,15,17,18,1,3,5,7,9,10,17,19,22,27,29,1,6,4,6,8,9,2,4,5,6,8,9,0,2,8,0,1,2,5,6,7,8,9,11,12,13,14,15,16,17,6,8,17,3,4,5,6,1,2,8,9,2,4,5,6,8,0,3,4,5,6,8,9,3,6,7,8,15,0,1,2,3,4,5,6,7,8,9,10,11,12,13,14,15,16,17,18,19,20,21,22,24,25,26,27,28,29,30,0,5,6,11,12,14,19,4,5,0,1,2,6,7,8,9,8,17,3,10,3,5,4,9,1,2,5,8,9,4,0,9,12,15,0,1,3,4,5,6,8,9,10,11,13,14,16,17,3,4,5,19,3,4,5,6,8,9,0,1,2,3,4,11,18,19,0,1,3,4,5,6,8,9,4,5,0,1,2,6,17,0,1,3,4,5,6,8,9,10,11,12,16,17,18,19,1,6,7,8,9,14,15,0,1,2,6,7,9,14,15,1,27,1,1,6,0,1,2,3,4,5,6,7,8,9,11,12,13,14,15,17,18,19,1,4,6,8,0,12],"categories_nodes":[6,8,9,10,11,12,14,15,16,19,20,21,22,23,24,26,27,28,29,32,34,36,37,39,40,41,46,48,50,53,54,55,57,62,63,68,71,74,77,78,82,86,91,94,95,96,99,103,108,112,115,129,130,137,139,141,145,148,156,158,163,168,169,172,175,180,184,186,189,192,193,194,197,198,203,204,205,215,217,227],"categories_segments":[0,13,23,28,35,46,60,63,80,90,95,97,103,114,119,125,129,130,131,143,152,159,161,167,172,181,188,193,196,206,209,216,233,249,253,257,262,268,276,278,285,296,298,302,308,311,326,329,333,337,342,349,354,384,391,393,400,402,404,406,408,413,414,418,432,436,442,450,458,460,463,465,480,487,495,497,498,500,518,522],"categories_sizes":[13,10,5,7,11,14,3,17,10,5,2,6,11,5,6,4,1,1,12,9,7,2,6,5,9,7,5,3,10,3,7,17,16,4,4,5,6,8,2,7,11,2,4,6,3,15,3,4,4,5,7,5,30,7,2,7,2,2,2,2,5,1,4,14,4,6,8,8,2,3,2,15,7,8,2,1,2,18,4,2],"default_left":[0,0,0,0,0,0,1,0,1,1,1,1,1,0,1,1,1,0,0,1,1,1,1,1,1,0,1,1,1,1,0,0,1,0,1,0,1,1,0,1,1,1,0,0,0,0,1,0,1,0,1,0,0,1,1,1,0,1,0,0,0,0,1,1,0,0,0,0,1,0,0,1,0,0,1,0,0,1,1,0,0,0,1,0,0,0,1,0,0,0,0,1,0,0,1,1,1,0,0,1,0,0,0,1,0,0,0,0,1,0,0,0,1,0,0,1,0,0,0,0,0,0,0,0,0,0,0,0,0,1,1,0,0,0,0,0,0,1,0,1,0,1,0,0,0,1,0,0,1,0,0,0,0,0,0,0,1,0,1,0,0,0,0,1,0,0,0,0,1,1,0,0,1,0,0,1,0,0,0,0,1,0,0,0,1,0,1,0,0,1,0,0,1,1,1,0,0,1,1,0,0,0,0,1,1,1,0,0,0,0,0,0,0,0,0,1,0,1,0,0,0,0,0,0,0,0,0,1,0,0,0,0,0,0,0,0,0,0,0,0,0,0,0,0,0,0,0,0,0,0,0,0,0,0,0,0,0,0,0,0,0,0,0,0,0,0,0,0,0,0,0,0,0,0,0,0,0,0,0,0,0,0,0,0,0,0,0,0,0,0,0,0,0,0,0,0,0,0,0,0,0,0,0,0,0,0,0,0,0,0,0,0,0,0,0,0,0,0,0,0,0,0,0,0,0,0,0,0,0,0,0,0,0,0,0,0,0,0,0,0,0,0,0,0,0,0,0,0,0,0,0,0,0,0,0,0,0,0,0,0,0,0,0,0,0,0,0,0,0,0,0,0,0,0,0,0,0,0,0,0,0,0,0,0,0,0,0,0,0,0,0,0,0,0,0,0,0,0,0,0,0,0,0,0,0,0,0,0,0,0,0,0,0,0,0,0,0,0,0,0,0,0,0,0,0,0,0,0,0,0,0,0,0],"id":0,"left_children":[1,3,5,7,9,11,13,15,17,19,21,23,25,27,29,31,33,35,37,39,41,43,45,47,49,51,53,55,57,59,61,63,65,67,69,71,73,75,77,79,81,83,85,87,89,91,93,95,97,99,101,103,105,107,109,111,-1,113,-1,115,117,119,121,123,125,127,129,131,133,135,-1,137,139,141,143,145,147,149,151,153,155,157,159,161,163,165,167,169,171,173,-1,175,177,179,181,183,185,187,189,191,193,195,197,199,-1,201,-1,203,205,207,209,211,213,215,217,219,221,223,225,227,-1,-1,229,231,-1,-1,233,235,237,239,241,243,-1,245,247,-1,249,251,253,255,257,259,261,263,265,267,269,271,273,275,277,279,281,283,285,287,289,291,293,295,297,299,-1,301,303,305,307,309,311,313,315,317,319,321,323,325,327,329,331,333,335,337,339,341,343,345,347,349,351,353,355,357,359,361,363,365,367,369,371,373,375,377,379,381,383,385,387,389,391,393,395,397,399,401,403,405,407,409,411,413,415,417,419,421,423,425,-1,427,429,431,-1,-1,-1,-1,-1,-1,-1,-1,-1,-1,-1,-1,-1,-1,-1,-1,-1,-1,-1,-1,-1,-1,-1,-1,-1,-1,-1,-1,-1,-1,-1,-1,-1,-1,-1,-1,-1,-1,-1,-1,-1,-1,-1,-1,-1,-1,-1,-1,-1,-1,-1,-1,-1,-1,-1,-1,-1,-1,-1,-1,-1,-1,-1,-1,-1,-1,-1,-1,-1,-1,-1,-1,-1,-1,-1,-1,-1,-1,-1,-1,-1,-1,-1,-1,-1,-1,-1,-1,-1,-1,-1,-1,-1,-1,-1,-1,-1,-1,-1,-1,-1,-1,-1,-1,-1,-1,-1,-1,-1,-1,-1,-1,-1,-1,-1,-1,-1,-1,-1,-1,-1,-1,-1,-1,-1,-1,-1,-1,-1,-1,-1,-1,-1,-1,-1,-1,-1,-1,-1,-1,-1,-1,-1,-1,-1,-1,-1,-1,-1,-1,-1,-1,-1,-1,-1,-1,-1,-1,-1,-1,-1,-1,-1,-1,-1,-1,-1,-1,-1,-1,-1,-1,-1,-1,-1,-1,-1,-1,-1,-1,-1,-1,-1,-1,-1,-1,-1,-1,-1,-1,-1,-1,-1,-1,-1,-1,-1,-1,-1,-1,-1,-1,-1],"loss_changes":[1.8313107E4,3.328121E3,3.7613093E3,2.4076758E2,2.3911841E2,4.027317E2,3.690962E2,6.3046875E0,2.6005615E1,4.416455E1,5.5486053E1,1.6071419E2,1.3567807E2,1.2873828E2,1.9818161E1,3.7197266E0,1.3150024E0,5.760498E0,6.0496826E0,2.0441833E1,1.908374E1,2.2697397E1,6.67301E1,2.8561592E1,1.1421283E2,1.9144287E1,6.746936E1,4.412085E1,7.245264E1,1.8355972E1,6.0379767E0,3.5676193E0,1.6210938E0,8.09433E-1,3.7072754E-1,1.9014893E0,2.0637207E0,3.2062988E0,2.0094604E0,6.971695E0,1.4137756E1,7.4310913E0,6.268799E0,9.916609E0,3.225956E0,1.6118557E1,1.0518738E1,1.0491138E1,1.1149242E1,3.6478043E1,1.4154755E1,9.089371E0,5.3710938E0,3.4589447E1,2.3574486E1,3.2153564E1,0E0,2.7996582E1,0E0,8.83696E0,3.9729238E0,1.4735861E0,2.6971002E0,4.7270966E-1,4.4527082E0,2.6015625E0,4.267578E-1,1.0693436E0,2.904663E-1,1.6023254E-1,0E0,1.3035278E0,1.7064514E0,1.5354614E0,1.9931641E0,5.8012085E0,1.6326904E0,3.5342407E0,3.586792E0,2.857954E0,4.3617935E0,1.3228594E1,5.451721E0,3.3086271E0,5.75531E0,9.9253845E-1,4.0957336E0,4.92099E0,7.8333426E0,2.6169243E0,0E0,3.721138E0,9.066041E0,8.318878E0,4.846161E0,3.7932339E0,9.8667755E0,1.1494455E1,4.708171E0,1.5969116E1,1.2815233E1,1.1346167E1,1.211972E1,8.730484E0,0E0,4.8485107E0,0E0,2.9166855E1,8.66523E0,6.7855015E0,5.5608273E0,1.5662842E1,1.3742065E1,9.748047E0,4.328308E0,3.4116058E0,3.688736E0,1.6135294E0,1.1231303E0,1.2685199E0,0E0,0E0,1.7199161E0,1.7412758E-1,0E0,0E0,1.1486897E0,5.3170166E0,2.2607422E-1,1.9186859E0,4.111328E-1,3.358078E-1,0E0,5.921507E-1,9.288788E-2,0E0,1.7816162E-1,1.2857056E0,6.763611E-1,1.1682129E0,1.1016998E0,9.2160034E-1,1.8368015E0,1.0406752E0,1.4956512E0,1.9793091E0,1.5818176E0,8.1152344E-1,2.5869446E0,2.6031723E0,8.5894775E-1,1.6511364E0,1.020462E0,2.2235591E0,1.6103668E0,1.3238144E0,3.237196E0,1.0388508E0,5.151823E0,5.062439E0,8.4721756E-1,1.8756123E0,0E0,4.3936462E0,2.5037537E0,9.940338E-1,4.9858856E-1,2.5787735E0,1.8499756E0,2.6267223E0,3.8276892E0,2.204478E0,3.37714E0,1.4711266E0,3.568201E0,3.743228E0,3.573864E0,3.8659763E0,3.81518E0,3.3118896E0,5.5525055E0,1.4630013E0,4.1107635E0,1.1796002E0,1.7087259E0,5.108841E0,4.6067677E0,3.1680572E0,3.935337E0,5.9987154E0,4.226068E0,1.38224745E1,7.3876114E0,8.244762E0,7.9206448E0,8.914747E-1,2.9112852E0,5.7046204E0,8.479507E0,4.685318E0,7.528801E0,3.6230621E0,2.2029877E0,1.8425575E1,8.9930725E0,4.222433E0,1.706378E0,4.888309E0,2.9013038E0,2.9754868E0,1.979353E0,1.0666138E1,1.1829007E0,9.010376E0,3.5432892E0,3.3144531E0,1.9279907E0,4.88385E0,2.763153E0,3.5988655E0,3.610251E0,2.958397E0,3.4453583E0,9.084506E-1,1.4663613E0,2.7708817E-1,0E0,1.2029688E0,5.914006E-1,2.1590765E0,0E0,0E0,0E0,0E0,0E0,0E0,0E0,0E0,0E0,0E0,0E0,0E0,0E0,0E0,0E0,0E0,0E0,0E0,0E0,0E0,0E0,0E0,0E0,0E0,0E0,0E0,0E0,0E0,0E0,0E0,0E0,0E0,0E0,0E0,0E0,0E0,0E0,0E0,0E0,0E0,0E0,0E0,0E0,0E0,0E0,0E0,0E0,0E0,0E0,0E0,0E0,0E0,0E0,0E0,0E0,0E0,0E0,0E0,0E0,0E0,0E0,0E0,0E0,0E0,0E0,0E0,0E0,0E0,0E0,0E0,0E0,0E0,0E0,0E0,0E0,0E0,0E0,0E0,0E0,0E0,0E0,0E0,0E0,0E0,0E0,0E0,0E0,0E0,0E0,0E0,0E0,0E0,0E0,0E0,0E0,0E0,0E0,0E0,0E0,0E0,0E0,0E0,0E0,0E0,0E0,0E0,0E0,0E0,0E0,0E0,0E0,0E0,0E0,0E0,0E0,0E0,0E0,0E0,0E0,0E0,0E0,0E0,0E0,0E0,0E0,0E0,0E0,0E0,0E0,0E0,0E0,0E0,0E0,0E0,0E0,0E0,0E0,0E0,0E0,0E0,0E0,0E0,0E0,0E0,0E0,0E0,0E0,0E0,0E0,0E0,0E0,0E0,0E0,0E0,0E0,0E0,0E0,0E0,0E0,0E0,0E0,0E0,0E0,0E0,0E0,0E0,0E0,0E0,0E0,0E0,0E0,0E0,0E0,0E0,0E0,0E0,0E0,0E0,0E0,0E0,0E0,0E0,0E0,0E0,0E0,0E0,0E0,0E0,0E0,0E0,0E0,0E0,0E0,0E0,0E0,0E0,0E0,0E0,0E0,0E0,0E0,0E0,0E0],"parents":[2147483647,0,0,1,1,2,2,3,3,4,4,5,5,6,6,7,7,8,8,9,9,10,10,11,11,12,12,13,13,14,14,15,15,16,16,17,17,18,18,19,19,20,20,21,21,22,22,23,23,24,24,25,25,26,26,27,27,28,28,29,29,30,30,31,31,32,32,33,33,34,34,35,35,36,36,37,37,38,38,39,39,40,40,41,41,42,42,43,43,44,44,45,45,46,46,47,47,48,48,49,49,50,50,51,51,52,52,53,53,54,54,55,55,57,57,59,59,60,60,61,61,62,62,63,63,64,64,65,65,66,66,67,67,68,68,69,69,71,71,72,72,73,73,74,74,75,75,76,76,77,77,78,78,79,79,80,80,81,81,82,82,83,83,84,84,85,85,86,86,87,87,88,88,89,89,91,91,92,92,93,93,94,94,95,95,96,96,97,97,98,98,99,99,100,100,101,101,102,102,103,103,105,105,107,107,108,108,109,109,110,110,111,111,112,112,113,113,114,114,115,115,116,116,117,117,118,118,119,119,122,122,123,123,126,126,127,127,128,128,129,129,130,130,131,131,133,133,134,134,136,136,137,137,138,138,139,139,140,140,141,141,142,142,143,143,144,144,145,145,146,146,147,147,148,148,149,149,150,150,151,151,152,152,153,153,154,154,155,155,156,156,157,157,158,158,159,159,160,160,161,161,163,163,164,164,165,165,166,166,167,167,168,168,169,169,170,170,171,171,172,172,173,173,174,174,175,175,176,176,177,177,178,178,179,179,180,180,181,181,182,182,183,183,184,184,185,185,186,186,187,187,188,188,189,189,190,190,191,191,192,192,193,193,194,194,195,195,196,196,197,197,198,198,199,199,200,200,201,201,202,202,203,203,204,204,205,205,206,206,207,207,208,208,209,209,210,210,211,211,212,212,213,213,214,214,215,215,216,216,217,217,218,218,219,219,220,220,221,221,222,222,223,223,224,224,225,225,227,227,228,228,229,229],"right_children":[2,4,6,8,10,12,14,16,18,20,22,24,26,28,30,32,34,36,38,40,42,44,46,48,50,52,54,56,58,60,62,64,66,68,70,72,74,76,78,80,82,84,86,88,90,92,94,96,98,100,102,104,106,108,110,112,-1,114,-1,116,118,120,122,124,126,128,130,132,134,136,-1,138,140,142,144,146,148,150,152,154,156,158,160,162,164,166,168,170,172,174,-1,176,178,180,182,184,186,188,190,192,194,196,198,200,-1,202,-1,204,206,208,210,212,214,216,218,220,222,224,226,228,-1,-1,230,232,-1,-1,234,236,238,240,242,244,-1,246,248,-1,250,252,254,256,258,260,262,264,266,268,270,272,274,276,278,280,282,284,286,288,290,292,294,296,298,300,-1,302,304,306,308,310,312,314,316,318,320,322,324,326,328,330,332,334,336,338,340,342,344,346,348,350,352,354,356,358,360,362,364,366,368,370,372,374,376,378,380,382,384,386,388,390,392,394,396,398,400,402,404,406,408,410,412,414,416,418,420,422,424,426,-1,428,430,432,-1,-1,-1,-1,-1,-1,-1,-1,-1,-1,-1,-1,-1,-1,-1,-1,-1,-1,-1,-1,-1,-1,-1,-1,-1,-1,-1,-1,-1,-1,-1,-1,-1,-1,-1,-1,-1,-1,-1,-1,-1,-1,-1,-1,-1,-1,-1,-1,-1,-1,-1,-1,-1,-1,-1,-1,-1,-1,-1,-1,-1,-1,-1,-1,-1,-1,-1,-1,-1,-1,-1,-1,-1,-1,-1,-1,-1,-1,-1,-1,-1,-1,-1,-1,-1,-1,-1,-1,-1,-1,-1,-1,-1,-1,-1,-1,-1,-1,-1,-1,-1,-1,-1,-1,-1,-1,-1,-1,-1,-1,-1,-1,-1,-1,-1,-1,-1,-1,-1,-1,-1,-1,-1,-1,-1,-1,-1,-1,-1,-1,-1,-1,-1,-1,-1,-1,-1,-1,-1,-1,-1,-1,-1,-1,-1,-1,-1,-1,-1,-1,-1,-1,-1,-1,-1,-1,-1,-1,-1,-1,-1,-1,-1,-1,-1,-1,-1,-1,-1,-1,-1,-1,-1,-1,-1,-1,-1,-1,-1,-1,-1,-1,-1,-1,-1,-1,-1,-1,-1,-1,-1,-1,-1,-1,-1,-1,-1,-1,-1,-1,-1,-1,-1],"split_conditions":[7.1428573E-1,1.4285715E-1,2.3333333E0,2.6226526E-1,7.373268E-1,1.1666666E0,1E-45,1.8898223E-1,1E-45,1E-45,1E-45,1E-45,1E-45,5.285714E0,1E-45,1E-45,1E-45,6.118322E-1,1E0,1E-45,1E-45,1E-45,1E-45,1E-45,1E-45,1.75E0,1E-45,1E-45,1E-45,1E-45,2.625425E0,2.9E1,1E-45,1.7E1,1E-45,4.09E0,1E-45,1E-45,2.9E1,1E-45,1E-45,1E-45,4.4095856E-1,4E0,7.1E0,3.3333334E-1,1E-45,8.7891227E-1,1E-45,1.1773884E0,1E-45,8E0,1E1,1E-45,1E-45,1E-45,0E0,1E-45,0E0,1E0,4.1190934E0,8E0,1E-45,1E-45,1.98E0,7E0,9.2754716E-1,6.86E0,1E-45,1.0108242E0,0E0,1E-45,4E0,3E0,1E-45,2.8E1,1.0616299E0,1E-45,1E-45,3.149704E-1,4E0,8.825944E-1,1E-45,7.005289E-1,5.47964E-1,1.0568705E0,1E-45,1E0,1.095928E0,7.926581E-1,1E-1,1E-45,1E0,4E0,1E-45,1E-45,1E-45,9.993384E-1,1.3348206E0,1E-45,5E0,1E0,9.5611435E-1,1E-45,0E0,2.0892773E0,0E0,2E0,1E-45,1E0,9.383179E-1,1.7E1,1E-45,1E-2,5.7065587E0,1E-45,2E0,2E0,3E0,1E0,0E0,0E0,5.7065587E0,1.0101174E0,0E0,1.5E-1,5E0,9.508845E-1,8.410107E-1,1E-45,1E-45,9.725889E-1,0E0,7E0,4.4E1,0E0,1E1,1E-45,9.688798E-1,1E-45,8E0,1E-45,1E1,3.2E1,1E1,1E-45,4.6E1,1.5E1,1E-45,2.1E1,4E0,4E0,1.094542E0,4E0,1.1E1,5.714286E-1,1E-45,3.5634834E-1,1E-45,4.600437E-1,4.7E1,3E0,1E-1,1E-45,4E0,5.74E0,1E0,1.0882951E0,1E-45,1E-45,3.3333334E-1,2E0,1E-45,2.8E1,2E0,1E-45,1.530553E0,1.4230714E0,1E0,3.3333334E-1,1E-45,5E0,1.5647404E0,2.4E1,1E-45,4E0,1E-45,7.867958E-1,4E0,1E-45,4.7E1,5E0,1E-45,1E-45,1E-45,1E0,2.5E1,1E-45,1E-45,5E0,2.56E0,5E0,4E0,1E-45,1E-45,1E-45,6.96E0,2E0,1E0,2.7E1,1.3738872E0,3.5E0,4.428571E0,2E0,4E0,1E-45,8.166667E0,1E-45,3E0,1.25E0,1.7E1,4.3E1,1.0079285E0,1E0,3E0,4.426203E0,5E-2,1E-45,5E0,2.4E1,0E0,0E0,0E0,0E0,0E0,0E0,0E0,0E0,0E0,0E0,0E0,0E0,0E0,0E0,0E0,0E0,0E0,0E0,0E0,0E0,0E0,0E0,0E0,0E0,0E0,0E0,0E0,0E0,0E0,0E0,0E0,0E0,0E0,0E0,0E0,0E0,0E0,0E0,0E0,0E0,0E0,0E0,0E0,0E0,0E0,0E0,0E0,0E0,0E0,0E0,0E0,0E0,0E0,0E0,1E-1,0E0,0E0,0E0,0E0,0E0,0E0,0E0,0E0,0E0,0E0,0E0,0E0,0E0,0E0,0E0,0E0,0E0,0E0,0E0,0E0,0E0,0E0,0E0,0E0,0E0,0E0,0E0,0E0,0E0,0E0,0E0,1E-1,0E0,1E-1,1E-1,1E-1,0E0,0E0,0E0,0E0,0E0,0E0,0E0,0E0,0E0,0E0,0E0,1E-1,0E0,0E0,0E0,0E0,0E0,0E0,0E0,0E0,1E-1,1E-1,1E-1,0E0,1E-1,1E-1,1E-1,1E-1,0E0,1E-1,1E-1,1E-1,0E0,0E0,1E-1,0E0,0E0,1E-1,0E0,0E0,1E-1,0E0,1E-1,1E-1,3E-1,1.5E-1,0E0,0E0,0E0,0E0,0E0,0E0,1E-1,2E-1,1E-1,1E-1,1E-1,2E-1,2E-1,3E-1,1E-1,0E0,1E-1,0E0,1E-1,0E0,0E0,0E0,1E-1,0E0,1E-1,1E-1,0E0,1E-1,0E0,0E0,3E-1,4E-1,0E0,0E0,2E-1,3E-1,2E-1,3E-1,8E-1,1E0,7.5E-1,0E0,6E-1,4E-1,6E-1,9.0000004E-1,0E0,1E-1,1E-1,0E0,2E-1,1E-1,2E-1,1E-1,0E0,1E-1,1E-1,1E-1,0E0,0E0,1E-1,0E0,1E-1,2E-1,1E-1,0E0],"split_indices":[33,33,33,37,37,33,38,37,38,38,39,38,38,33,39,38,38,37,31,39,39,38,38,39,39,33,39,15,15,38,37,3,38,3,39,10,38,38,2,38,38,39,37,4,10,33,38,37,38,37,38,30,30,38,38,38,0,38,0,31,37,30,38,39,10,2,13,10,39,13,0,39,4,31,39,2,13,38,38,37,4,13,15,37,37,13,38,32,37,37,0,39,31,4,39,39,38,37,37,38,4,30,13,39,0,37,0,31,39,32,13,30,39,11,37,39,7,30,30,31,0,0,37,13,0,0,4,13,13,38,15,13,0,1,2,0,3,38,13,39,1,39,3,2,2,38,2,32,38,2,1,7,13,1,1,33,39,37,39,37,2,4,0,39,4,10,4,13,39,38,33,32,38,2,7,38,37,37,32,33,39,1,37,3,38,4,39,37,4,39,2,4,39,38,38,32,3,38,38,31,10,4,4,15,15,38,10,7,30,2,37,33,33,31,4,38,33,39,4,10,3,2,13,32,4,37,0,38,30,2,0,0,0,0,0,0,0,0,0,0,0,0,0,0,0,0,0,0,0,0,0,0,0,0,0,0,0,0,0,0,0,0,0,0,0,0,0,0,0,0,0,0,0,0,0,0,0,0,0,0,0,0,0,0,0,0,0,0,0,0,0,0,0,0,0,0,0,0,0,0,0,0,0,0,0,0,0,0,0,0,0,0,0,0,0,0,0,0,0,0,0,0,0,0,0,0,0,0,0,0,0,0,0,0,0,0,0,0,0,0,0,0,0,0,0,0,0,0,0,0,0,0,0,0,0,0,0,0,0,0,0,0,0,0,0,0,0,0,0,0,0,0,0,0,0,0,0,0,0,0,0,0,0,0,0,0,0,0,0,0,0,0,0,0,0,0,0,0,0,0,0,0,0,0,0,0,0,0,0,0,0,0,0,0,0,0,0,0,0,0,0,0,0,0,0,0,0,0,0,0,0,0,0],"split_type":[0,0,0,0,0,0,1,0,1,1,1,1,1,0,1,1,1,0,0,1,1,1,1,1,1,0,1,1,1,1,0,0,1,0,1,0,1,1,0,1,1,1,0,0,0,0,1,0,1,0,1,0,0,1,1,1,0,1,0,0,0,0,1,1,0,0,0,0,1,0,0,1,0,0,1,0,0,1,1,0,0,0,1,0,0,0,1,0,0,0,0,1,0,0,1,1,1,0,0,1,0,0,0,1,0,0,0,0,1,0,0,0,1,0,0,1,0,0,0,0,0,0,0,0,0,0,0,0,0,1,1,0,0,0,0,0,0,1,0,1,0,1,0,0,0,1,0,0,1,0,0,0,0,0,0,0,1,0,1,0,0,0,0,1,0,0,0,0,1,1,0,0,1,0,0,1,0,0,0,0,1,0,0,0,1,0,1,0,0,1,0,0,1,1,1,0,0,1,1,0,0,0,0,1,1,1,0,0,0,0,0,0,0,0,0,1,0,1,0,0,0,0,0,0,0,0,0,1,0,0,0,0,0,0,0,0,0,0,0,0,0,0,0,0,0,0,0,0,0,0,0,0,0,0,0,0,0,0,0,0,0,0,0,0,0,0,0,0,0,0,0,0,0,0,0,0,0,0,0,0,0,0,0,0,0,0,0,0,0,0,0,0,0,0,0,0,0,0,0,0,0,0,0,0,0,0,0,0,0,0,0,0,0,0,0,0,0,0,0,0,0,0,0,0,0,0,0,0,0,0,0,0,0,0,0,0,0,0,0,0,0,0,0,0,0,0,0,0,0,0,0,0,0,0,0,0,0,0,0,0,0,0,0,0,0,0,0,0,0,0,0,0,0,0,0,0,0,0,0,0,0,0,0,0,0,0,0,0,0,0,0,0,0,0,0,0,0,0,0,0,0,0,0,0,0,0,0,0,0,0,0,0,0,0,0,0,0,0,0,0,0,0,0,0,0,0,0,0,0,0,0,0,0],"sum_hessian":[3.016E5,1.62793E5,1.38807E5,8.8221E4,7.4572E4,8.5101E4,5.3706E4,6.6622E4,2.1599E4,3.6754E4,3.7818E4,4.6832E4,3.8269E4,4.6225E4,7.481E3,6.4208E4,2.414E3,1.0309E4,1.129E4,1.7674E4,1.908E4,9.495E3,2.8323E4,2.0424E4,2.6408E4,1.2335E4,2.5934E4,1.8992E4,2.7233E4,6.836E3,6.45E2,5.82E2,6.3626E4,1.027E3,1.387E3,5.284E3,5.025E3,8.454E3,2.836E3,6.08E3,1.1594E4,1.4024E4,5.056E3,7.515E3,1.98E3,1.0481E4,1.7842E4,8.67E3,1.1754E4,1.3383E4,1.3025E4,7.337E3,4.998E3,1.9797E4,6.137E3,1.893E4,6.2E1,2.7153E4,8E1,6.22E3,6.16E2,3.29E2,3.16E2,4.97E2,8.5E1,1.8166E4,4.546E4,4.83E2,5.44E2,5.63E2,8.24E2,3.956E3,1.328E3,3.832E3,1.193E3,3.98E3,4.474E3,1.497E3,1.339E3,2.427E3,3.653E3,1.652E3,9.942E3,5.73E2,1.3451E4,1.883E3,3.173E3,4.241E3,3.274E3,1.945E3,3.5E1,4.061E3,6.42E3,1.1974E4,5.868E3,9.13E2,7.757E3,5.993E3,5.761E3,7.576E3,5.807E3,2.65E2,1.276E4,7.303E3,3.4E1,4.962E3,3.6E1,1.8847E4,9.5E2,4.407E3,1.73E3,1.0042E4,8.888E3,2.3063E4,4.09E3,1.896E3,4.324E3,5.45E2,7.1E1,3.02E2,2.7E1,2.9E1,2.87E2,1.64E2,3.33E2,2E1,6.5E1,2.194E3,1.5972E4,9.07E2,4.4553E4,4.59E2,2.4E1,9.7E1,4.47E2,3.32E2,2.31E2,1.358E3,2.598E3,7.57E2,5.71E2,3.564E3,2.68E2,2.37E2,9.56E2,1.683E3,2.297E3,3.748E3,7.26E2,1.19E3,3.07E2,3.02E2,1.037E3,1.21E2,2.306E3,2.083E3,1.57E3,1.88E2,1.464E3,9.623E3,3.19E2,5.52E2,2.1E1,6.723E3,6.728E3,1.477E3,4.06E2,1.497E3,1.676E3,2.349E3,1.892E3,1.699E3,1.575E3,3.79E2,1.566E3,1.465E3,2.596E3,3.241E3,3.179E3,6.841E3,5.133E3,8.53E2,5.015E3,2.89E2,6.24E2,3.57E3,4.187E3,2.712E3,3.281E3,3.681E3,2.08E3,6.359E3,1.217E3,4.115E3,1.692E3,1.19E2,1.46E2,3.863E3,8.897E3,4.809E3,2.494E3,3.294E3,1.668E3,1.2107E4,6.74E3,5.34E2,4.16E2,2.216E3,2.191E3,4.15E2,1.315E3,1.0001E4,4.1E1,5.588E3,3.3E3,2.3023E4,4E1,2.709E3,1.381E3,1.369E3,5.27E2,6.63E2,3.661E3,2.42E2,3.03E2,5.1E1,2E1,1.41E2,1.61E2,2.57E2,3E1,9.4E1,7E1,3.6E1,2.9E1,2.55E2,1.939E3,2.97E2,1.5675E4,4E1,8.67E2,1.72E2,4.4381E4,1.51E2,3.08E2,3.3E1,6.4E1,3.68E2,7.9E1,7.7E1,1.54E2,1.37E2,1.221E3,3.85E2,2.213E3,4.08E2,3.49E2,3.38E2,2.33E2,1.32E3,2.244E3,7.8E1,1.9E2,1.45E2,9.2E1,3.22E2,6.34E2,6.74E2,1.009E3,1.842E3,4.55E2,3.695E3,5.3E1,5.57E2,1.69E2,9.17E2,2.73E2,6.9E1,2.38E2,1.11E2,1.91E2,9.4E2,9.7E1,6.1E1,6E1,1.991E3,3.15E2,1.7E3,3.83E2,6.12E2,9.58E2,8.1E1,1.07E2,4.12E2,1.052E3,2.778E3,6.845E3,2.5E2,6.9E1,2.38E2,3.14E2,1.733E3,4.99E3,3.884E3,2.844E3,9.86E2,4.91E2,5.8E1,3.48E2,1.403E3,9.4E1,9.77E2,6.99E2,1.487E3,8.62E2,6.36E2,1.256E3,1.319E3,3.8E2,5.93E2,9.82E2,2.04E2,1.75E2,2.25E2,1.341E3,6.94E2,7.71E2,2.116E3,4.8E2,2.63E3,6.11E2,1.535E3,1.644E3,3.007E3,3.834E3,5.5E2,4.583E3,2.45E2,6.08E2,4.343E3,6.72E2,2.23E2,6.6E1,1.76E2,4.48E2,2.044E3,1.526E3,1.621E3,2.566E3,9.5E2,1.762E3,1.858E3,1.423E3,2.29E3,1.391E3,1.807E3,2.73E2,4.545E3,1.814E3,5.57E2,6.6E2,3.931E3,1.84E2,1.042E3,6.5E2,6.7E1,5.2E1,1.14E2,3.2E1,1.32E3,2.543E3,2.252E3,6.645E3,4.482E3,3.27E2,1.309E3,1.185E3,2.353E3,9.41E2,9.82E2,6.86E2,1.2024E4,8.3E1,6.719E3,2.1E1,1.93E2,3.41E2,2.08E2,2.08E2,2.82E2,1.934E3,7.76E2,1.415E3,1.73E2,2.42E2,6.57E2,6.58E2,4.032E3,5.969E3,2.1E1,2E1,1.907E3,3.681E3,1.892E3,1.408E3,1.4466E4,8.557E3,2E1,2E1,1.949E3,7.6E2,6E2,7.81E2,4.2E1,1.327E3,3.23E2,2.04E2,5.61E2,1.02E2,2.24E3,1.421E3,1.26E2,1.16E2,1.16E2,1.87E2,2.7E1,2.4E1,1.11E2,3E1,1.37E2,2.4E1,9.7E1,1.6E2],"tree_param":{"num_deleted":"0","num_feature":"40","num_nodes":"433","size_leaf_vector":"1"}},{"base_weights":[-1.0005335E-1,-2.9717895E-1,2.1718268E-1,-4.599938E-1,-1.5321544E-1,9.14416E-2,3.856955E-1,-4.8393556E-1,-3.281704E-1,-2.0194438E-1,-8.328609E-2,5.510739E-2,1.9053514E-1,4.2628288E-1,2.8701326E-1,-4.9039719E-1,-4.412158E-1,-3.07341E-1,-3.6858833E-1,-2.3235448E-1,-1.5068494E-1,-8.221592E-3,-1.0854884E-1,-3.3249158E-1,5.9915196E-2,-2.68018E-1,1.9632478E-1,4.2896214E-1,-4.9509805E-2,3.220926E-1,1.9128297E-1,-4.112069E-1,-4.9111143E-1,-4.129329E-1,-4.6201286E-1,-3.2804495E-1,-2.62775E-1,-3.8497046E-1,-3.444744E-1,-1.9543514E-1,-2.6564127E-1,-6.512358E-2,-1.62076E-1,5.355819E-2,-3.0385638E-2,-5.8044564E-2,-1.4443505E-1,1.1363637E-2,-3.4904015E-1,1.266436E-1,3.5028104E-2,1.607143E-2,-3.2820514E-1,2.6868615E-1,1.625877E-1,-1.7419355E-1,4.3163905E-1,2.9544002E-1,3.9885777E-1,2.1549673E-1,2.970297E-2,-2.5403225E-1,-4.5295405E-1,-4.8227912E-1,-4.9460867E-1,-4.1645277E-1,-3.525641E-1,-4.2004505E-1,-4.6554068E-1,-3.888158E-1,-3.1925547E-1,-2.517914E-1,-3.5179153E-1,-4.0141279E-1,-3.59852E-1,-3.5144928E-1,-1.3709678E-1,-1.4834325E-1,-2.1963474E-1,-2.4712278E-1,-3.1752476E-1,2.4698796E-2,-1.0843023E-1,-9.75547E-2,-1.7850351E-1,-4.375E-2,5.7943925E-2,-1.1961268E-2,-7.3425025E-2,-4.000554E-2,-1.6807432E-1,-9.2450224E-2,-1.6523318E-1,-2.0535715E-1,-3.6389962E-1,7.6227635E-2,1.6079721E-1,6.0965717E-2,-1.8034935E-2,-2.0192307E-1,-3.715278E-1,3.2116106E-1,2.4748617E-1,1.8228427E-1,7.112577E-2,1.9607843E-1,-3.5238096E-1,3.6511484E-1,4.5168477E-1,2.9929307E-1,-3.1E-1,4.4214585E-1,3.5065943E-1,-2.7380952E-1,2.2162E-1,-3.9039038E-2,1.618497E-1,2.3255814E-2,-3.9634147E-1,-4.0939596E-1,-4.7249192E-1,-4.443443E-1,-4.8755357E-1,-4.2819148E-1,-4.948731E-1,-3.909644E-1,-4.269847E-1,-3.0357143E-1,-4.2105263E-1,-3.4653464E-1,-4.4040698E-1,-3.1666666E-2,-4.6632174E-1,-3.5654595E-1,-4.1666666E-1,-2.6699716E-1,-3.272291E-1,-3.881579E-1,-2.4743538E-1,-3.721374E-1,-2.2826087E-1,-3.8168895E-1,-4.5496535E-1,-3.9746544E-1,-3.3410493E-1,-3.2524753E-1,-3.8471338E-1,-2.9032258E-2,1.5625E-3,-1.044279E-1,-1.8191361E-1,-2.5641835E-1,-1.9348574E-1,-1.3086642E-1,-2.518369E-1,-3.483356E-1,-2.7432367E-1,9.586056E-2,-6.317204E-2,-1.254061E-1,3.5714287E-2,-6.423729E-2,-2.0245726E-1,-1.6116557E-1,-2.2512709E-1,-4.276316E-2,7.86036E-2,-7.4501574E-2,1.8539977E-3,2.49501E-3,-1.3407822E-1,2.183053E-2,-6.4686894E-2,-1.0174029E-1,-2.1601942E-1,-1.0919126E-1,-1.5435502E-2,-1.5150458E-1,-2.1739955E-1,-1.1428571E-2,-3.409091E-2,-3.773585E-1,-2.0238096E-1,1.03641935E-1,4.1432887E-2,2.0495495E-1,1.2751526E-1,7.643488E-2,-2.7348224E-2,1.7307455E-2,-1.0306365E-1,-4.3478264E-3,-3.1666666E-2,-4.144144E-1,-2.2058824E-2,3.7079832E-1,2.9991126E-1,2.1180555E-1,2.897196E-1,1.8543284E-1,-3.8181818E-1,8.903061E-2,-1.4329268E-1,-4E-3,4.074074E-2,-4.5762714E-2,-2.1276596E-1,3.3717874E-1,3.8568652E-1,4.7120917E-1,4.1820675E-1,3.1706396E-1,1.968777E-1,-4.761905E-3,-4.8333332E-2,4.5560977E-1,4.067164E-1,4.2649728E-1,2.9364005E-1,-1.4285715E-2,-3.8636364E-2,2.2513644E-1,-2.7083335E-2,8.445946E-2,-1.3709678E-1,2.644628E-1,-7.54717E-2,1.4285715E-2,-8.695653E-3,-4.489796E-2,-3.0882353E-2,-3.125E-2,-4.246032E-2,-4.3656718E-2,-4.971591E-2,-2.9588014E-2,-4.6441372E-2,-4.4310346E-2,-4.8834972E-2,-3.4375E-2,-4.8623856E-2,-4.713161E-2,-4.95333E-2,-2.8214285E-2,-4.056324E-2,-4.3506198E-2,-3.952465E-2,-2.3595506E-2,-4.1346155E-2,-3.2E-2,-4.507042E-2,-2.5531916E-2,-4.1818183E-2,-4.1148327E-2,-4.8161767E-2,-4.7519945E-2,-4.546875E-2,-3.2019705E-2,-4.012739E-2,-4.375E-2,-3.8064517E-2,-2.2715736E-2,-3.1629395E-2,-3.1440914E-2,-3.5783224E-2,-2.3809524E-2,-4.375E-2,-2.2303082E-2,-2.6968503E-2,-2.5641028E-2,-3.90625E-2,-3.478261E-2,-1.0416667E-2,-3.7113402E-2,-4.653846E-2,-4.0789474E-2,-4.897541E-2,-3.269231E-2,-4.262295E-2,-2.7868852E-2,-3.8226746E-2,-2.8375912E-2,-3.7365012E-2,-3.95574E-2,-2.5396828E-2,-5.65635E-3,-1.3211633E-2,-1.3181505E-2,-2.2030754E-2,-3.759214E-2,-2.4516797E-2,-1.15272375E-2,-2.0764207E-2,-1.64859E-2,3.7234041E-3,-2.6673628E-2,-2.260617E-2,-2.5523013E-2,-3.5643015E-2,-2.4579832E-2,-3.1100217E-2,1.5120275E-2,-0E0,-9.319527E-3,2.2857143E-2,-1.9545456E-2,-1.0619835E-2,3.409091E-2,-6.2111806E-4,-4.0545887E-3,-2.0567376E-2,-1.4211439E-2,-2.9861111E-2,-1.3826291E-2,-1.9207189E-2,-1.951031E-2,-2.5159672E-2,-1.904762E-2,1.4204546E-4,9.930643E-3,2.6771654E-3,2.819549E-3,-1.1409884E-2,4.87069E-3,-1.5367554E-3,3.6671367E-3,-7.993198E-3,-1.0337838E-2,-1.7801557E-2,5.6949155E-3,-1.0197776E-3,-6.1830766E-3,-3.125E-2,1.9444445E-2,-1.2463978E-2,-1.9208383E-2,-3.3430234E-2,-7.6815644E-3,-1.3351557E-2,4.079254E-4,-3.5E-2,-1.2819103E-2,-1.707628E-2,-1.9070279E-2,-2.4587588E-2,-2.3404256E-2,-3.9211135E-2,-3.409091E-2,-4.761905E-3,1.826698E-2,9.01672E-3,5.7488657E-3,-5.3731347E-3,-2.0454546E-2,2.076156E-2,1.5769377E-2,8.365652E-3,1.304876E-2,5.444601E-3,-6.5605403E-3,2.8521128E-3,2.229824E-3,-1.8274112E-2,-8.536174E-3,-2.3209875E-2,-2.857143E-2,-4.6753246E-2,2.8333334E-2,3.901809E-2,3.74502E-2,2.7822122E-2,2.5834365E-2,1.8380178E-2,2.9707232E-2,1.2179487E-2,1.9738179E-2,7.2115385E-3,-2.173913E-2,-4.848485E-2,1.2261996E-2,2.0833334E-3,-9.642857E-3,-4.0000003E-2,-6.8181823E-3,-3.269231E-2,3.4946423E-2,2.6973685E-2,3.895131E-2,1.9680852E-2,4.7203567E-2,1.0256411E-2,4.2230356E-2,1.5231788E-2,3.414092E-2,2.728044E-2,8.158508E-3,2.6482759E-2,4.8788927E-2,4.4233378E-2,2.0454546E-2,4.1732285E-2,3.6024846E-2,4.5268543E-2,3.0638298E-2,2.8571428E-3,2.6266236E-2,1.9215463E-2,1.6504854E-2,-9.782609E-3,5.4347827E-3,-1.9858157E-2,4.117647E-2,1.5492958E-2,-2.5E-2,8.928572E-3],"categories":[0,1,2,4,5,6,7,8,9,11,12,13,14,15,17,3,4,7,8,9,10,17,18,0,1,2,6,7,8,9,11,12,13,14,15,17,1,0,1,3,5,6,7,8,10,11,12,13,14,16,18,19,0,1,3,4,6,7,8,9,10,11,12,13,14,15,17,18,19,0,3,4,7,9,10,13,15,17,18,1,2,6,8,9,0,1,2,5,6,7,8,9,11,13,14,15,17,19,1,3,4,5,6,9,3,4,5,6,8,9,0,1,2,5,6,7,8,9,11,12,13,14,15,17,0,1,2,4,5,6,7,8,9,11,12,13,14,15,17,3,6,7,8,10,12,15,17,19,2,4,6,8,9,4,6,1,3,4,6,9,2,3,4,5,6,8,9,5,6,8,17,0,1,2,6,7,8,9,14,15,0,1,2,3,5,6,7,8,9,3,4,5,6,9,0,1,2,4,5,6,1,27,3,8,9,0,1,2,3,4,5,6,7,8,9,10,11,12,13,14,15,16,17,18,19,20,21,22,24,25,26,27,28,29,30,5,6,8,11,12,14,0,5,6,2,3,5,6,8,9,0,1,2,4,5,6,8,9,0,1,2,3,4,5,6,7,8,9,10,11,12,13,14,15,16,17,18,19,20,30,0,1,3,5,7,0,1,2,3,4,5,0,11,13,14,0,1,2,3,5,8,9,3,4,6,8,1,6,7,9,4,5,6,0,1,2,3,4,5,6,1,4,5,6,1,3,4,6,8,9,10,16,17,18,19,0,1,2,6,7,9,13,14,1,27,0,1,2,3,4,5,6,7,8,9,11,12,13,14,15,17,18,19,4,6,1,3,5,6,0,1,0,1,3,4,1,2,3,4,6,8,9,3,7,7,13,18,1,2,6,5,6,11,12,13,1,5,0,1,2,3,4,5,6,7,8,9,10,11,9,18,0,1,3,4,5,0,2,3,4,1,4,5,6,0,5,7,11,13,14,15,17,19,1,2,6,8,4,5,6,5,0,1,5,6,4,5,6,9,1,4,0,2,3,4,5,7,8,9,1,6,1,17,25,27,0,1,5,6,1,2,6,7,9,1,2,3,4,5,6,0,1,2,3,4,5,6,7,8,9,10,11,12,13,14,15,17,18,19,4,6,0,3,4,6,8,1,11,22,23,25,26,27,2,4,5,6,8,0,3,4,5,6,7,8,9],"categories_nodes":[6,8,10,13,14,15,16,19,20,21,22,24,26,32,39,40,41,42,44,45,46,48,50,55,57,62,64,65,66,67,70,71,75,76,77,79,81,83,84,88,90,95,96,97,98,103,108,111,112,114,120,125,129,130,133,135,136,140,142,143,144,150,152,155,156,161,162,163,164,166,168,169,172,175,178,184,186,196,199,201,210,211,223],"categories_segments":[0,15,23,36,37,52,69,79,84,98,104,110,124,139,148,153,155,160,167,168,171,180,189,194,200,202,205,235,241,244,250,258,280,285,291,295,302,304,306,310,313,316,320,324,335,343,345,363,365,369,371,375,382,384,387,390,395,397,409,411,416,420,424,433,437,440,441,442,445,449,451,459,461,465,469,474,475,480,499,501,506,513,518],"categories_sizes":[15,8,13,1,15,17,10,5,14,6,6,14,15,9,5,2,5,7,1,3,9,9,5,6,2,3,30,6,3,6,8,22,5,6,4,7,2,2,4,3,3,4,4,11,8,2,18,2,4,2,4,7,2,3,3,5,2,12,2,5,4,4,9,4,3,1,1,3,4,2,8,2,4,4,5,1,5,19,2,5,7,5,8],"default_left":[0,0,0,0,0,0,1,0,1,0,1,0,0,1,1,1,1,0,0,1,1,1,1,0,1,0,1,0,0,0,0,0,1,0,0,0,0,0,0,1,1,1,1,0,1,1,1,0,1,0,1,0,0,0,0,1,0,1,0,0,0,0,1,0,1,1,1,1,0,0,1,1,0,0,0,1,1,1,0,1,0,1,0,1,1,0,0,0,1,0,1,0,0,0,0,1,1,1,1,0,0,0,0,1,0,0,0,0,1,0,0,1,1,0,1,0,0,0,0,0,1,0,0,0,0,1,0,0,0,1,1,0,0,1,0,1,1,0,0,0,1,0,1,1,1,0,0,0,0,0,1,0,1,0,0,1,1,0,0,0,0,1,1,1,1,0,1,0,1,1,0,0,1,0,0,1,0,0,1,0,0,0,0,0,1,0,1,0,0,0,0,0,0,0,0,0,1,0,0,1,0,1,0,0,0,0,0,0,0,0,1,1,0,0,0,0,0,0,0,0,0,0,0,1,0,0,0,0,0,0,0,0,0,0,0,0,0,0,0,0,0,0,0,0,0,0,0,0,0,0,0,0,0,0,0,0,0,0,0,0,0,0,0,0,0,0,0,0,0,0,0,0,0,0,0,0,0,0,0,0,0,0,0,0,0,0,0,0,0,0,0,0,0,0,0,0,0,0,0,0,0,0,0,0,0,0,0,0,0,0,0,0,0,0,0,0,0,0,0,0,0,0,0,0,0,0,0,0,0,0,0,0,0,0,0,0,0,0,0,0,0,0,0,0,0,0,0,0,0,0,0,0,0,0,0,0,0,0,0,0,0,0,0,0,0,0,0,0,0,0,0,0,0,0,0,0,0,0,0,0,0,0,0,0,0,0,0,0,0,0,0,0,0,0,0,0,0,0,0,0,0,0,0,0,0,0,0,0,0,0,0,0,0,0,0],"id":1,"left_children":[1,3,5,7,9,11,13,15,17,19,21,23,25,27,29,31,33,35,37,39,41,43,45,47,49,51,53,55,-1,57,59,61,63,65,67,69,71,73,75,77,79,81,83,85,87,89,91,-1,93,95,97,-1,99,101,103,105,107,109,111,113,115,117,119,121,123,125,127,129,131,133,135,137,139,141,143,145,147,149,151,153,155,157,159,161,163,-1,165,167,169,171,173,175,177,179,181,183,185,187,189,191,193,195,197,199,201,203,205,207,209,211,213,215,217,219,221,223,225,227,229,231,233,235,237,239,241,243,245,247,249,251,253,-1,255,257,259,261,263,265,267,269,271,273,275,277,279,281,283,-1,-1,285,287,289,291,293,295,297,299,301,303,305,307,309,311,313,315,317,319,321,323,325,327,329,331,333,335,337,339,341,343,-1,-1,345,347,349,351,353,355,357,359,361,363,-1,-1,365,-1,367,369,371,373,375,377,379,381,-1,-1,-1,383,385,387,389,391,393,395,-1,-1,397,399,401,403,-1,-1,405,-1,407,409,411,413,-1,-1,-1,-1,-1,-1,-1,-1,-1,-1,-1,-1,-1,-1,-1,-1,-1,-1,-1,-1,-1,-1,-1,-1,-1,-1,-1,-1,-1,-1,-1,-1,-1,-1,-1,-1,-1,-1,-1,-1,-1,-1,-1,-1,-1,-1,-1,-1,-1,-1,-1,-1,-1,-1,-1,-1,-1,-1,-1,-1,-1,-1,-1,-1,-1,-1,-1,-1,-1,-1,-1,-1,-1,-1,-1,-1,-1,-1,-1,-1,-1,-1,-1,-1,-1,-1,-1,-1,-1,-1,-1,-1,-1,-1,-1,-1,-1,-1,-1,-1,-1,-1,-1,-1,-1,-1,-1,-1,-1,-1,-1,-1,-1,-1,-1,-1,-1,-1,-1,-1,-1,-1,-1,-1,-1,-1,-1,-1,-1,-1,-1,-1,-1,-1,-1,-1,-1,-1,-1,-1,-1,-1,-1,-1,-1,-1,-1,-1,-1,-1,-1,-1,-1,-1,-1,-1,-1,-1,-1,-1,-1,-1,-1,-1,-1,-1,-1,-1,-1,-1,-1,-1,-1,-1,-1,-1,-1,-1,-1,-1,-1,-1,-1,-1,-1,-1,-1,-1],"loss_changes":[1.887317E4,4.362867E3,2.4507466E3,2.7552148E2,3.3661523E2,2.3848206E2,1.9783691E2,2.0189453E1,1.1192383E1,9.07168E1,7.693533E1,9.0341995E1,4.7232117E1,8.666113E1,4.8319214E1,3.4296875E0,5.52771E0,8.096252E0,1.6694946E0,4.485193E1,2.1120483E1,1.3991664E1,5.5007233E1,4.4250336E0,7.950209E1,5.781272E0,4.2800476E1,5.6453125E1,0E0,2.145105E1,1.5119156E1,3.6906586E0,1.7265625E0,7.305908E-1,6.326904E-1,3.1079712E0,2.6666412E0,9.739685E-1,2.634964E0,1.9714478E1,1.8380493E1,9.91805E0,2.0262085E1,5.8358994E0,5.9622827E0,2.5023968E1,1.917038E1,0E0,1.1486588E0,2.2380905E1,4.799643E1,0E0,9.917984E-1,6.1269836E0,2.1554413E1,1.0295654E1,4.6193848E1,1.835608E1,5.5075073E0,1.0133743E1,4.5937543E0,4.902337E0,1.9548035E-1,3.4018555E0,5.888672E-1,8.7890625E-1,6.5735435E-1,5.119705E-1,4.5117188E-1,5.3448486E-1,2.1177368E0,1.3961182E0,6.8665314E-1,1.5459595E0,9.14093E-1,1.4384766E0,1.4553931E0,8.656998E0,1.0957886E1,7.728943E0,6.6262817E0,5.1960826E0,4.2132835E0,1.3565384E1,1.2290375E1,0E0,5.568902E0,4.550884E0,1.0379535E1,1.6539295E1,5.626396E0,6.538967E0,9.043091E0,6.52354E-1,1.0496902E0,5.0073566E0,1.1366638E1,3.200125E1,3.4410385E1,9.316194E-1,8.407383E-1,1.5785522E0,5.9331512E0,1.7565552E1,8.163229E0,2.560697E0,1.4454966E0,4.4991455E0,1.7261719E1,1.4097229E1,2.2509522E0,4.9490356E-1,5.4486847E0,5.63853E-1,5.81192E0,4.0442038E0,4.2329044E0,5.7922864E-1,2.3910046E-1,8.686638E-2,5.6777954E-2,6.474304E0,3.449707E-1,7.5435257E-1,2.578125E-1,1.7227631E0,5.3201294E-1,9.426937E-1,1.4042854E-1,5.532999E-1,2.1186066E-1,0E0,3.1298828E-1,4.5518112E-1,1.3515472E-1,1.3147202E0,1.6871033E0,4.5856857E-1,1.2631378E0,4.60392E-1,6.4628625E-1,8.8383484E-1,5.09285E-1,7.412796E-1,1.6229782E0,1.9222031E0,1.0142136E0,0E0,0E0,3.3746681E0,6.3838425E0,6.2966614E0,7.3866577E0,3.1717882E0,5.166382E0,2.1277466E0,2.1280518E0,2.4350562E0,3.2796793E0,2.0499268E0,2.3308866E0,9.876606E0,5.388424E0,7.843872E0,3.2339172E0,2.9763525E0,2.379552E0,3.8786125E0,3.482434E0,2.8256195E0,1.67173E0,3.4784312E0,5.4624825E0,5.090744E0,2.8518944E0,3.2713127E0,5.9231806E0,4.4840546E0,1.95858E0,0E0,0E0,9.167633E-1,8.8419926E-1,3.1121426E0,3.5433135E0,3.6706085E0,5.841057E0,2.3683235E1,7.465685E0,8.080126E0,7.659565E0,0E0,0E0,6.2524986E-1,0E0,6.9641113E-1,1.7191544E0,2.7675247E0,2.2097473E0,1.3249786E1,8.263502E-1,4.48722E0,1.9344075E0,0E0,0E0,0E0,7.5345945E-1,2.7427063E0,3.2711182E0,5.0893555E0,1.0663086E1,7.048645E0,9.011135E0,0E0,0E0,2.234497E-1,7.766571E-1,7.9286957E-1,2.4874077E0,0E0,0E0,4.031372E0,0E0,2.1902995E0,2.2001855E0,1.8884745E0,1.5463275E0,0E0,0E0,0E0,0E0,0E0,0E0,0E0,0E0,0E0,0E0,0E0,0E0,0E0,0E0,0E0,0E0,0E0,0E0,0E0,0E0,0E0,0E0,0E0,0E0,0E0,0E0,0E0,0E0,0E0,0E0,0E0,0E0,0E0,0E0,0E0,0E0,0E0,0E0,0E0,0E0,0E0,0E0,0E0,0E0,0E0,0E0,0E0,0E0,0E0,0E0,0E0,0E0,0E0,0E0,0E0,0E0,0E0,0E0,0E0,0E0,0E0,0E0,0E0,0E0,0E0,0E0,0E0,0E0,0E0,0E0,0E0,0E0,0E0,0E0,0E0,0E0,0E0,0E0,0E0,0E0,0E0,0E0,0E0,0E0,0E0,0E0,0E0,0E0,0E0,0E0,0E0,0E0,0E0,0E0,0E0,0E0,0E0,0E0,0E0,0E0,0E0,0E0,0E0,0E0,0E0,0E0,0E0,0E0,0E0,0E0,0E0,0E0,0E0,0E0,0E0,0E0,0E0,0E0,0E0,0E0,0E0,0E0,0E0,0E0,0E0,0E0,0E0,0E0,0E0,0E0,0E0,0E0,0E0,0E0,0E0,0E0,0E0,0E0,0E0,0E0,0E0,0E0,0E0,0E0,0E0,0E0,0E0,0E0,0E0,0E0,0E0,0E0,0E0,0E0,0E0,0E0,0E0,0E0,0E0,0E0,0E0,0E0,0E0,0E0,0E0,0E0,0E0,0E0,0E0,0E0,0E0,0E0,0E0,0E0,0E0,0E0,0E0,0E0,0E0,0E0,0E0,0E0,0E0,0E0,0E0,0E0,0E0,0E0],"parents":[2147483647,0,0,1,1,2,2,3,3,4,4,5,5,6,6,7,7,8,8,9,9,10,10,11,11,12,12,13,13,14,14,15,15,16,16,17,17,18,18,19,19,20,20,21,21,22,22,23,23,24,24,25,25,26,26,27,27,29,29,30,30,31,31,32,32,33,33,34,34,35,35,36,36,37,37,38,38,39,39,40,40,41,41,42,42,43,43,44,44,45,45,46,46,48,48,49,49,50,50,52,52,53,53,54,54,55,55,56,56,57,57,58,58,59,59,60,60,61,61,62,62,63,63,64,64,65,65,66,66,67,67,68,68,69,69,70,70,71,71,72,72,73,73,74,74,75,75,76,76,77,77,78,78,79,79,80,80,81,81,82,82,83,83,84,84,86,86,87,87,88,88,89,89,90,90,91,91,92,92,93,93,94,94,95,95,96,96,97,97,98,98,99,99,100,100,101,101,102,102,103,103,104,104,105,105,106,106,107,107,108,108,109,109,110,110,111,111,112,112,113,113,114,114,115,115,116,116,117,117,118,118,119,119,120,120,121,121,122,122,123,123,124,124,125,125,126,126,127,127,128,128,129,129,130,130,132,132,133,133,134,134,135,135,136,136,137,137,138,138,139,139,140,140,141,141,142,142,143,143,144,144,145,145,146,146,149,149,150,150,151,151,152,152,153,153,154,154,155,155,156,156,157,157,158,158,159,159,160,160,161,161,162,162,163,163,164,164,165,165,166,166,167,167,168,168,169,169,170,170,171,171,172,172,173,173,174,174,175,175,176,176,177,177,178,178,181,181,182,182,183,183,184,184,185,185,186,186,187,187,188,188,189,189,190,190,193,193,195,195,196,196,197,197,198,198,199,199,200,200,201,201,202,202,206,206,207,207,208,208,209,209,210,210,211,211,212,212,215,215,216,216,217,217,218,218,221,221,223,223,224,224,225,225,226,226],"right_children":[2,4,6,8,10,12,14,16,18,20,22,24,26,28,30,32,34,36,38,40,42,44,46,48,50,52,54,56,-1,58,60,62,64,66,68,70,72,74,76,78,80,82,84,86,88,90,92,-1,94,96,98,-1,100,102,104,106,108,110,112,114,116,118,120,122,124,126,128,130,132,134,136,138,140,142,144,146,148,150,152,154,156,158,160,162,164,-1,166,168,170,172,174,176,178,180,182,184,186,188,190,192,194,196,198,200,202,204,206,208,210,212,214,216,218,220,222,224,226,228,230,232,234,236,238,240,242,244,246,248,250,252,254,-1,256,258,260,262,264,266,268,270,272,274,276,278,280,282,284,-1,-1,286,288,290,292,294,296,298,300,302,304,306,308,310,312,314,316,318,320,322,324,326,328,330,332,334,336,338,340,342,344,-1,-1,346,348,350,352,354,356,358,360,362,364,-1,-1,366,-1,368,370,372,374,376,378,380,382,-1,-1,-1,384,386,388,390,392,394,396,-1,-1,398,400,402,404,-1,-1,406,-1,408,410,412,414,-1,-1,-1,-1,-1,-1,-1,-1,-1,-1,-1,-1,-1,-1,-1,-1,-1,-1,-1,-1,-1,-1,-1,-1,-1,-1,-1,-1,-1,-1,-1,-1,-1,-1,-1,-1,-1,-1,-1,-1,-1,-1,-1,-1,-1,-1,-1,-1,-1,-1,-1,-1,-1,-1,-1,-1,-1,-1,-1,-1,-1,-1,-1,-1,-1,-1,-1,-1,-1,-1,-1,-1,-1,-1,-1,-1,-1,-1,-1,-1,-1,-1,-1,-1,-1,-1,-1,-1,-1,-1,-1,-1,-1,-1,-1,-1,-1,-1,-1,-1,-1,-1,-1,-1,-1,-1,-1,-1,-1,-1,-1,-1,-1,-1,-1,-1,-1,-1,-1,-1,-1,-1,-1,-1,-1,-1,-1,-1,-1,-1,-1,-1,-1,-1,-1,-1,-1,-1,-1,-1,-1,-1,-1,-1,-1,-1,-1,-1,-1,-1,-1,-1,-1,-1,-1,-1,-1,-1,-1,-1,-1,-1,-1,-1,-1,-1,-1,-1,-1,-1,-1,-1,-1,-1,-1,-1,-1,-1,-1,-1,-1,-1,-1,-1,-1,-1,-1,-1],"split_conditions":[8.888889E-1,3.7796447E-1,2.6E0,7.1428575E-2,5.3846157E-1,1.7692307E0,1E-45,1.3288318E-6,1E-45,7.373268E-1,1E-45,3.7796447E-1,4.8795003E-1,1E-45,1E-45,1E-45,1E-45,2.2222222E-1,2.2222222E-1,1E-45,1E-45,1E-45,1E-45,1.040833E0,1E-45,1.8922706E0,1E-45,5E-1,0E0,6.285714E0,6.0474315E0,2.013E3,1E-45,2.016E3,7E0,3.149704E-1,1.5013222E0,3.48E0,1.1064119E0,1E-45,1E-45,1E-45,1E-45,8.825944E-1,1E-45,1E-45,1E-45,8.9999996E-2,1E-45,1.1666666E0,1E-45,1E-1,8E0,3E0,2.9840848E0,1E-45,4.4166665E0,1E-45,5.7065587E0,1.7923475E-7,4.4444447E0,3E0,1E-45,7E0,1E-45,1E-45,1E-45,1E-45,9.2E-1,1.6E1,1E-45,1E-45,8E-1,4.2E1,4.1626966E-1,1E-45,1E-45,1E-45,2.3076923E-1,1E-45,2.2222222E-1,1E-45,1.1401755E0,1E-45,1E-45,-1.0000001E-2,8.5449326E-1,7.4535596E-1,1E-45,3E0,1E-45,8E-1,1.2909944E0,2.9E1,4.8E1,1E-45,1E-45,1E-45,1E-45,3E0,5.123672E-7,1.3972763E0,2.1538463E0,1E-45,6.0474315E0,2.1E1,2.1E1,3.357143E0,1E-45,4.548824E0,1.2E1,1E-45,1E-45,2.5E1,1E-45,1.5E1,4E1,1.98E0,2.9E1,2E0,1E-45,9.508845E-1,8.410107E-1,1.1E1,9.2754716E-1,1E-45,4.1E1,1.0620588E0,5E0,1E-45,1E-45,0E0,1.0066574E0,1E-45,1.033428E0,1E-45,1E-45,1.2E1,2.8E1,8E0,1E-45,2.94E0,1E-45,1E-45,1E-45,1.1239339E0,4.7E1,0E0,1E-1,1.0004603E0,1E-45,8.882899E-1,1E-45,4E1,3.3333334E-1,1E-45,1E-45,1E0,1.2247449E0,4.082483E-1,9.5645356E-1,1E-45,1E-45,1E-45,1E-45,9E0,1E-45,1.2E1,1E-45,1E-45,3.1E1,2.014E3,1E-45,9.773616E-1,1.5735916E0,1E-45,1.0866257E0,9.693486E-1,1E-45,0E0,0E0,1.530553E0,4E0,2E0,1E-45,4.082483E-1,1E-45,3E0,1.2E0,5.2E1,2.6095064E0,0E0,0E0,1.19E0,0E0,9.824646E-1,1E-45,1.643892E0,3.8483145E0,1E-45,1.2E1,1E-45,1.0638484E0,0E0,1.15E0,0E0,3.6E0,3.2659864E0,1.0531287E0,1E-2,1E-45,1E-45,4.4166665E0,-1.5000001E-2,0E0,3.3876526E0,9.250796E-1,5E0,1.2E1,0E0,0E0,2.699206E0,0E0,1E-45,4.312373E0,5.137784E0,2.013E3,1.85E-1,0E0,0E0,0E0,0E0,0E0,0E0,0E0,0E0,0E0,0E0,0E0,0E0,0E0,0E0,0E0,0E0,0E0,0E0,0E0,0E0,0E0,0E0,0E0,0E0,0E0,0E0,0E0,0E0,0E0,0E0,0E0,0E0,0E0,0E0,0E0,0E0,0E0,0E0,0E0,0E0,0E0,0E0,0E0,0E0,0E0,0E0,0E0,0E0,0E0,0E0,0E0,0E0,0E0,0E0,0E0,0E0,0E0,0E0,0E0,0E0,0E0,0E0,0E0,0E0,0E0,0E0,1E-1,0E0,0E0,0E0,0E0,0E0,0E0,1E-1,4.4999998E-2,0E0,1.9500001E-1,0E0,0E0,1.9E-1,0E0,0E0,0E0,0E0,0E0,0E0,0E0,0E0,0E0,0E0,8.9999996E-2,8.9999996E-2,8.9999996E-2,8.9999996E-2,0E0,8.9999996E-2,0E0,8.9999996E-2,0E0,0E0,0E0,8.9999996E-2,0E0,0E0,0E0,1E-1,0E0,0E0,0E0,0E0,0E0,8.9999996E-2,0E0,0E0,0E0,0E0,0E0,0E0,0E0,0E0,0E0,8.9999996E-2,8.9999996E-2,8.9999996E-2,0E0,0E0,8.9999996E-2,8.9999996E-2,8.9999996E-2,8.9999996E-2,8.9999996E-2,0E0,8.9999996E-2,8.9999996E-2,0E0,0E0,0E0,0E0,0E0,8.9999996E-2,1.9E-1,2.7E-1,1.7E-1,8.9999996E-2,8.9999996E-2,1.7E-1,7E-2,8.9999996E-2,8.9999996E-2,0E0,-1.0000001E-2,8.9999996E-2,7E-2,0E0,-2.0000001E-2,0E0,0E0,2.6E-1,1.7999999E-1,2.8E-1,2.6E-1,6.2E-1,4.1E-1,8E-1,4E-1,2.8E-1,2.7E-1,1E-1,3.8E-1,5.6E-1,6.6E-1,1.4E-1,5.4E-1,7.1E-1,1.11E0,6.4000005E-1,9.999997E-3,1.9E-1,1.7999999E-1,1.7999999E-1,0E0,8.0000006E-2,-1.0000001E-2,4.3500003E-1,1.8499999E-1,-1.0000001E-2,1.9E-1],"split_indices":[34,36,34,34,34,34,38,37,38,37,38,36,36,15,38,38,38,34,34,38,38,39,39,37,38,37,38,36,0,34,36,0,38,0,2,37,37,10,13,39,39,39,39,13,38,38,38,0,39,34,39,0,3,7,36,8,34,15,37,36,34,1,39,2,15,38,8,39,10,3,39,15,34,2,37,39,39,38,34,39,34,38,36,38,38,0,37,37,39,7,39,34,36,2,2,39,8,38,38,7,36,36,34,15,36,3,2,34,38,37,1,8,8,3,15,3,2,10,2,7,8,13,13,2,13,39,2,13,2,38,38,0,13,8,13,38,8,3,2,3,38,10,38,8,39,37,2,0,0,13,8,13,38,2,34,38,8,28,36,36,13,8,39,8,39,2,8,2,39,8,2,0,15,13,36,8,13,13,38,0,0,37,7,7,8,36,39,7,34,2,36,0,0,10,0,13,38,37,36,39,1,39,13,0,0,0,34,36,13,11,15,39,34,0,0,36,13,32,1,0,0,36,0,39,37,37,0,0,0,0,0,0,0,0,0,0,0,0,0,0,0,0,0,0,0,0,0,0,0,0,0,0,0,0,0,0,0,0,0,0,0,0,0,0,0,0,0,0,0,0,0,0,0,0,0,0,0,0,0,0,0,0,0,0,0,0,0,0,0,0,0,0,0,0,0,0,0,0,0,0,0,0,0,0,0,0,0,0,0,0,0,0,0,0,0,0,0,0,0,0,0,0,0,0,0,0,0,0,0,0,0,0,0,0,0,0,0,0,0,0,0,0,0,0,0,0,0,0,0,0,0,0,0,0,0,0,0,0,0,0,0,0,0,0,0,0,0,0,0,0,0,0,0,0,0,0,0,0,0,0,0,0,0,0,0,0,0,0,0,0,0,0,0,0,0,0,0,0,0,0,0,0,0,0,0,0,0,0,0,0,0,0,0,0,0],"split_type":[0,0,0,0,0,0,1,0,1,0,1,0,0,1,1,1,1,0,0,1,1,1,1,0,1,0,1,0,0,0,0,0,1,0,0,0,0,0,0,1,1,1,1,0,1,1,1,0,1,0,1,0,0,0,0,1,0,1,0,0,0,0,1,0,1,1,1,1,0,0,1,1,0,0,0,1,1,1,0,1,0,1,0,1,1,0,0,0,1,0,1,0,0,0,0,1,1,1,1,0,0,0,0,1,0,0,0,0,1,0,0,1,1,0,1,0,0,0,0,0,1,0,0,0,0,1,0,0,0,1,1,0,0,1,0,1,1,0,0,0,1,0,1,1,1,0,0,0,0,0,1,0,1,0,0,1,1,0,0,0,0,1,1,1,1,0,1,0,1,1,0,0,1,0,0,1,0,0,1,0,0,0,0,0,1,0,1,0,0,0,0,0,0,0,0,0,1,0,0,1,0,1,0,0,0,0,0,0,0,0,1,1,0,0,0,0,0,0,0,0,0,0,0,1,0,0,0,0,0,0,0,0,0,0,0,0,0,0,0,0,0,0,0,0,0,0,0,0,0,0,0,0,0,0,0,0,0,0,0,0,0,0,0,0,0,0,0,0,0,0,0,0,0,0,0,0,0,0,0,0,0,0,0,0,0,0,0,0,0,0,0,0,0,0,0,0,0,0,0,0,0,0,0,0,0,0,0,0,0,0,0,0,0,0,0,0,0,0,0,0,0,0,0,0,0,0,0,0,0,0,0,0,0,0,0,0,0,0,0,0,0,0,0,0,0,0,0,0,0,0,0,0,0,0,0,0,0,0,0,0,0,0,0,0,0,0,0,0,0,0,0,0,0,0,0,0,0,0,0,0,0,0,0,0,0,0,0,0,0,0,0,0,0,0,0,0,0,0,0,0,0,0,0,0,0,0,0,0,0,0,0,0,0,0,0],"sum_hessian":[3.01798E5,1.86136E5,1.15662E5,8.7348E4,9.8788E4,6.6238E4,4.9424E4,7.392E4,1.3428E4,5.8218E4,4.057E4,4.8468E4,1.777E4,3.5018E4,1.4406E4,6.4199E4,9.721E3,8.867E3,4.561E3,3.6538E4,2.168E4,1.0216E4,3.0354E4,5.93E2,4.7875E4,2.21E2,1.7549E4,3.4917E4,1.01E2,1.0541E4,3.865E3,5.79E2,6.362E4,4.128E3,5.593E3,6.05E3,2.817E3,2.707E3,1.854E3,1.7327E4,1.9211E4,2.548E3,1.9132E4,2.697E3,7.519E3,1.261E4,1.7744E4,2.1E1,5.72E2,1.3004E4,3.4871E4,2.7E1,1.94E2,5.578E3,1.1971E4,1.54E2,3.4763E4,7.828E3,2.713E3,3.361E3,5.04E2,1.23E2,4.56E2,1.8085E4,4.5535E4,3.895E3,2.33E2,4.43E2,5.15E3,7.59E2,5.291E3,2.511E3,3.06E2,1.627E3,1.08E3,1.793E3,6.1E1,5.884E3,1.1443E4,1.4162E4,5.049E3,8.29E2,1.719E3,3.884E3,1.5248E4,2.3E1,2.674E3,5.266E3,2.253E3,1.0835E4,1.775E3,5.072E3,1.2672E4,5.5E1,5.17E2,5.253E3,7.751E3,2.3422E4,1.1449E4,5.1E1,1.43E2,1.601E3,3.977E3,9.849E3,2.122E3,5E1,1.04E2,8.054E3,2.6709E4,7.779E3,4.9E1,1.425E3,1.288E3,4.1E1,3.32E3,3.32E2,1.72E2,4.2E1,8.1E1,1.48E2,3.08E2,2.218E3,1.5867E4,1.87E2,4.5348E4,1.15E3,2.745E3,1.39E2,9.4E1,1E2,3.43E2,2.9E1,5.121E3,3.58E2,4.01E2,7.05E2,4.586E3,7.5E1,2.436E3,2.61E2,4.5E1,1.195E3,4.32E2,4.33E2,6.47E2,1.009E3,7.84E2,3E1,3.1E1,2.551E3,3.333E3,4.751E3,6.692E3,5.53E2,1.3609E4,2.943E3,2.106E3,4.58E2,3.71E2,1.538E3,1.81E2,2.949E3,9.35E2,1.1118E4,4.13E3,4.55E2,2.219E3,9.52E2,4.314E3,1.001E3,1.252E3,3.091E3,7.744E3,7.46E2,1.029E3,4.166E3,9.06E2,1.0035E4,2.637E3,3.4E1,2.1E1,4.76E2,4.1E1,2.937E3,2.316E3,3.329E3,4.422E3,1.9931E4,3.491E3,8.088E3,3.361E3,2.2E1,2.9E1,1.1E2,3.3E1,4.75E2,1.126E3,2.159E3,1.818E3,9.795E3,5.4E1,1.959E3,1.63E2,2.4E1,2.6E1,5.8E1,4.6E1,3.423E3,4.631E3,1.6862E4,9.847E3,6.627E3,1.152E3,2E1,2.9E1,1.024E3,4.01E2,5.5E2,7.38E2,2E1,2.1E1,3.297E3,2.3E1,1.47E2,1.85E2,1.2E2,5.2E1,2E1,2.2E1,4.8E1,3.3E1,2.3E1,1.25E2,1.33E2,1.75E2,2.66E2,1.952E3,2.89E2,1.5578E4,7.9E1,1.08E2,8.88E2,4.446E4,1.39E2,1.011E3,2.178E3,5.67E2,8.8E1,5.1E1,2.4E1,7E1,4.6E1,5.4E1,2.08E2,1.35E2,2.882E3,2.239E3,2.02E2,1.56E2,2.47E2,1.54E2,3.93E2,3.12E2,3.24E3,1.346E3,2E1,5.5E1,1.167E3,1.269E3,3.8E1,2.23E2,2.2E1,2.3E1,1.066E3,1.29E2,1.89E2,2.43E2,1.29E2,3.04E2,3.04E2,3.43E2,5.47E2,4.62E2,7.22E2,6.2E1,9.36E2,1.615E3,1.448E3,1.885E3,4.06E2,4.345E3,1.027E3,5.665E3,4.6E2,9.3E1,8.618E3,4.991E3,2.38E2,2.705E3,1.189E3,9.17E2,2.9E2,1.68E2,3.37E2,3.4E1,3.29E2,1.209E3,2.1E1,1.6E2,2.527E3,4.22E2,5.76E2,3.59E2,6.389E3,4.729E3,1.939E3,2.191E3,1.04E2,3.51E2,1.585E3,6.34E2,2.65E2,6.87E2,1.159E3,3.155E3,7.08E2,2.93E2,7.39E2,5.13E2,1.474E3,1.617E3,7.657E3,8.7E1,5.3E1,6.93E2,8.58E2,1.71E2,1.789E3,2.377E3,8.57E2,4.9E1,4.543E3,5.492E3,1.365E3,1.272E3,4.6E1,4.3E2,2.1E1,2E1,4.26E2,2.511E3,1.982E3,3.34E2,2.1E1,3.308E3,2.618E3,1.804E3,5.762E3,1.4169E4,2.072E3,1.419E3,7.892E3,1.96E2,2.957E3,4.04E2,3.4E1,7.6E1,8.9E1,3.86E2,2.5E2,8.76E2,8.08E2,1.351E3,1.741E3,7.7E1,8.86E3,9.35E2,2.2E1,3.2E1,1.312E3,6.47E2,1.39E2,2.4E1,2.1E1,2.5E1,2.892E3,5.31E2,4.538E3,9.3E1,1.6824E4,3.8E1,9.697E3,1.5E2,4.271E3,2.356E3,4.28E2,7.24E2,2.88E2,7.36E2,2.1E1,3.8E2,1.6E2,3.9E2,7.04E2,3.4E1,1.539E3,1.758E3,1.02E2,4.5E1,4.5E1,1.4E2,5E1,7E1,2.5E1,2.7E1],"tree_param":{"num_deleted":"0","num_feature":"40","num_nodes":"415","size_leaf_vector":"1"}},{"base_weights":[-1.0281102E-1,4.916133E-1,-4.9964887E-1,4.9953088E-1,4.7172636E-1,-4.9973702E-1,-4.2142856E-1,4.9984064E-2,4.830142E-1,4.6226192E-1,4.8652685E-1,-4.9984145E-1,-4.7761193E-1,9.52381E-3,-4.763158E-1,4.9305554E-2,4.6203703E-1,4.786256E-1,4.4569898E-1,4.8815274E-1,4.257703E-1,-4.7744846E-1,-4.9993575E-2,-2.2222223E-2,-4.852071E-1,-3.783784E-2,-4.9675327E-2,4.827044E-2,4.3049327E-1,4.9859866E-2,4.7450668E-1,4.6260145E-1,4.325471E-1,4.6882424E-1,4.9097553E-1,4.3524095E-1,2.8846154E-2,-4.990775E-2,-4.2553192E-1,-4.9928263E-2,-4.161074E-1,4.6333334E-1,3.581081E-1,4.762867E-1,4.3098593E-1,4.7337806E-1,4.52043E-1,4.7810858E-1,4.2757842E-1,4.846398E-2,4.480432E-1,4.915948E-2,4.2672414E-1,4.4224423E-1,3.5E-2,-3.4862384E-1,-4.8818897E-2,-1.9354839E-2,-4.7058824E-1,4.857143E-2,4.021739E-1,4.464286E-2,2.9787233E-1,4.8363782E-2,4.654821E-1,3.0882353E-2,4.4254658E-1,4.1558442E-1,4.7522E-2,4.45058E-1,4.7572818E-2,4.9534164E-2,4.54E-1,4.1492897E-1,4.4813895E-1,4.706573E-1,4.1613925E-1,3.0434782E-2,4.5212767E-1,4.235808E-1,4.9333334E-2,-4.1538462E-1,-2.4444444E-1,-3.409091E-2,-4.9489796E-2,4.8076924E-2,2.857143E-2,3.7037037E-2,1.904762E-2,4.780176E-2,4.580852E-2,4.51505E-2,3.125E-2,3.4285717E-2,4.651163E-2,4.4628795E-2,3.6764707E-2,3.6000002E-2,4.623894E-2,4.346183E-2,4.0161047E-2,4.713823E-2,4.2798165E-2,3.59375E-2,4.78481E-2,4.283217E-2,2.9032258E-2,4.7945205E-2,3.409091E-2,3.8655464E-2,4.5945946E-2,-3.448276E-2,-4.5945946E-2,-1.6E-2,-3.3333335E-2],"categories":[0,1,2,3,5,6,7,8,9,12,13,14,15,18,19,1,2,3,6,8,12,14,15,16,18,19,0,1,2,4,5,6,7,8,9,11,12,14,15,18,19,0,2,3,4,5,6,7,8,9,10,11,12,13,14,15,16,17,18,19,20,21,22,23,24,25,26,27,28,29,30,1,2,3,4,0,1,2,3,6,7,8,10,12,14,15,16,17,18,19,1,4,5,6,1,5,0,1,3,8,9,1,16,18,23,27,0,3,6,4,5,6,3,4,6,7,8,9,0,1,3,4,6,8,1,2,3,7,8],"categories_nodes":[8,9,10,11,16,17,18,28,31,34,43,50,66,73,74],"categories_segments":[0,15,26,41,71,75,90,94,96,101,106,109,112,118,124],"categories_sizes":[15,11,15,30,4,15,4,2,5,5,3,3,6,6,5],"default_left":[0,0,0,0,0,0,0,0,1,1,1,1,0,0,0,0,1,1,1,0,0,0,0,0,0,0,0,0,1,0,0,1,0,0,1,0,0,0,0,0,0,0,0,1,0,0,0,0,0,0,1,0,0,0,0,0,0,0,0,0,0,0,0,0,0,0,1,0,0,0,0,0,0,1,1,0,0,0,0,0,0,0,0,0,0,0,0,0,0,0,0,0,0,0,0,0,0,0,0,0,0,0,0,0,0,0,0,0,0,0,0,0,0,0,0],"id":2,"left_children":[1,3,5,7,9,11,13,-1,15,17,19,21,23,-1,25,-1,27,29,31,33,35,37,-1,-1,39,-1,-1,-1,41,-1,43,45,47,49,51,53,-1,-1,55,-1,57,59,61,63,65,67,69,71,73,-1,75,-1,77,79,-1,81,-1,-1,83,-1,85,-1,87,-1,89,-1,91,93,-1,95,-1,-1,97,99,101,103,105,-1,107,109,-1,111,113,-1,-1,-1,-1,-1,-1,-1,-1,-1,-1,-1,-1,-1,-1,-1,-1,-1,-1,-1,-1,-1,-1,-1,-1,-1,-1,-1,-1,-1,-1,-1,-1],"loss_changes":[7.113596E4,1.8773438E1,1.0390625E0,1.9921875E-1,4.59375E0,1.796875E-1,6.0006256E0,0E0,1.13220215E-1,5.4780273E0,1.1154785E0,1.40625E-1,1.581665E0,0E0,1.9234467E-1,0E0,1.442337E-1,6.3134766E-1,2.1230469E0,4.814453E-1,3.386917E-1,6.589966E-1,0E0,0E0,6.141205E-1,0E0,0E0,0E0,3.641777E-1,0E0,4.7387695E-1,3.0474854E-1,1.1296387E0,3.3633423E-1,2.4194336E-1,4.340744E-2,0E0,0E0,9.622307E-1,0E0,1.7155743E0,9.979248E-3,2.60705E-1,4.4299316E-1,3.646927E-1,4.043579E-2,1.7294312E-1,1.234436E-2,1.1984253E0,0E0,3.3876038E-1,0E0,2.2301483E-1,7.994461E-2,0E0,6.565666E-1,0E0,0E0,2.0642662E-1,0E0,2.8368378E-1,0E0,2.9539585E-1,0E0,9.93042E-2,0E0,2.340393E-1,1.1790943E-1,0E0,8.331299E-3,0E0,0E0,3.0693054E-2,6.9317627E-1,7.423401E-1,1.9894409E-1,3.600006E-1,0E0,1.2221527E-1,1.2660599E-1,0E0,4.3702126E-2,2.8444457E-1,0E0,0E0,0E0,0E0,0E0,0E0,0E0,0E0,0E0,0E0,0E0,0E0,0E0,0E0,0E0,0E0,0E0,0E0,0E0,0E0,0E0,0E0,0E0,0E0,0E0,0E0,0E0,0E0,0E0,0E0,0E0,0E0],"parents":[2147483647,0,0,1,1,2,2,3,3,4,4,5,5,6,6,8,8,9,9,10,10,11,11,12,12,14,14,16,16,17,17,18,18,19,19,20,20,21,21,24,24,28,28,30,30,31,31,32,32,33,33,34,34,35,35,38,38,40,40,41,41,42,42,43,43,44,44,45,45,46,46,47,47,48,48,50,50,52,52,53,53,55,55,58,58,60,60,62,62,64,64,66,66,67,67,69,69,72,72,73,73,74,74,75,75,76,76,78,78,79,79,81,81,82,82],"right_children":[2,4,6,8,10,12,14,-1,16,18,20,22,24,-1,26,-1,28,30,32,34,36,38,-1,-1,40,-1,-1,-1,42,-1,44,46,48,50,52,54,-1,-1,56,-1,58,60,62,64,66,68,70,72,74,-1,76,-1,78,80,-1,82,-1,-1,84,-1,86,-1,88,-1,90,-1,92,94,-1,96,-1,-1,98,100,102,104,106,-1,108,110,-1,112,114,-1,-1,-1,-1,-1,-1,-1,-1,-1,-1,-1,-1,-1,-1,-1,-1,-1,-1,-1,-1,-1,-1,-1,-1,-1,-1,-1,-1,-1,-1,-1,-1],"split_conditions":[1E0,3.75E0,1.0483547E1,4.607143E0,8.571428E0,6.0474315E0,2E0,1.4400001E-1,1E-45,1E-45,1E-45,1E-45,8.410107E-1,1E-3,2.6785715E0,3.98E-1,1E-45,1E-45,1E-45,7.678571E0,2.4E1,1.1481482E0,0E0,-1.9E-2,2.6E1,-5.0000004E-3,-1.5400001E-1,3.9000002E-1,1E-45,2.72E-1,6.4137545E0,1E-45,2.676569E0,5.5291433E0,1E-45,1.35E1,3.2000002E-1,0E0,2.1851852E0,-8.0000006E-2,2.3214285E0,3.3333333E0,1.4E1,1E-45,3E0,1.7182494E0,8E0,3.9285715E0,7.107143E0,6.58E-1,1E-45,9.58E-1,5E0,1.1714286E1,4.3899998E-1,1.6428572E0,0E0,-8.5E-3,3.4642856E0,3.42E-1,9.819606E-1,3.42E-1,5E0,4.58E-1,5.23E0,5.7600003E-1,1E-45,9.9E-1,5.2E-1,1.0531287E0,7.1999997E-1,2.3400001E-1,4E0,1E-45,1E-45,3E0,1.1E1,5.58E-1,7E0,6E0,6.2E-1,2.19E0,2.28E0,-9.000001E-3,-1.24000005E-1,4.32E-1,3.1100002E-1,3.7150002E-1,4.45E-1,4.52E-1,4.32E-1,7.76E-1,2.815E-1,3.9000002E-1,3.8E-1,4.58E-1,5.2E-1,2.82E-1,2.98E-1,3.58E-1,3.2000002E-1,4.98E-1,4.58E-1,8.58E-1,8.58E-1,5.58E-1,3.285E-1,1.1389999E0,3.5999998E-1,3.2000002E-1,5.2E-1,-9E-3,-9E-3,-7E-3,-9.000001E-3],"split_indices":[9,33,36,35,33,36,1,0,38,38,38,15,13,0,35,0,39,38,8,35,31,35,0,0,3,0,0,0,8,0,37,39,37,36,15,33,0,0,35,0,35,33,3,39,3,36,35,35,35,0,8,0,31,33,0,35,0,0,35,0,13,0,31,0,10,0,39,10,0,13,0,0,3,39,39,3,32,0,1,32,0,10,10,0,0,0,0,0,0,0,0,0,0,0,0,0,0,0,0,0,0,0,0,0,0,0,0,0,0,0,0,0,0,0,0],"split_type":[0,0,0,0,0,0,0,0,1,1,1,1,0,0,0,0,1,1,1,0,0,0,0,0,0,0,0,0,1,0,0,1,0,0,1,0,0,0,0,0,0,0,0,1,0,0,0,0,0,0,1,0,0,0,0,0,0,0,0,0,0,0,0,0,0,0,1,0,0,0,0,0,0,1,1,0,0,0,0,0,0,0,0,0,0,0,0,0,0,0,0,0,0,0,0,0,0,0,0,0,0,0,0,0,0,0,0,0,0,0,0,0,0,0,0],"sum_hessian":[3.01562E5,1.20726E5,1.80836E5,8.6331E4,3.4395E4,1.80627E5,2.09E2,8.4713E4,1.618E3,2.0999E4,1.3396E4,1.79757E5,8.7E2,2E1,1.89E2,1.079E3,5.39E2,1.0549E4,1.045E4,1.304E4,3.56E2,7.75E2,1.78982E5,2.6E1,8.44E2,3.6E1,1.53E2,3.17E2,2.22E2,1.783E3,8.766E3,4.558E3,5.892E3,1.683E3,1.1357E4,3.31E2,2.5E1,5.41E2,2.34E2,6.96E2,1.48E2,1.49E2,7.3E1,8.412E3,3.54E2,2.234E3,2.324E3,5.7E2,5.322E3,9.43E2,7.4E2,1.1242E4,1.15E2,3.02E2,2.9E1,1.08E2,1.26E2,3E1,1.18E2,1.04E2,4.5E1,2.7E1,4.6E1,4.98E3,3.432E3,3.3E1,3.21E2,7.6E1,2.158E3,1.81E3,5.14E2,3.21E2,2.49E2,3.308E3,2.014E3,4.25E2,3.15E2,2.2E1,9.3E1,2.28E2,7.4E1,6.4E1,4.4E1,2.1E1,9.7E1,2.5E1,2E1,2.6E1,2E1,1.25E3,2.182E3,2.98E2,2.3E1,3.4E1,4.2E1,1.777E3,3.3E1,2.4E1,2.25E2,1.322E3,1.986E3,9.25E2,1.089E3,3.1E1,3.94E2,2.85E2,3E1,7.2E1,2.1E1,1.18E2,1.1E2,2.8E1,3.6E1,2.4E1,2E1],"tree_param":{"num_deleted":"0","num_feature":"40","num_nodes":"115","size_leaf_vector":"1"}},{"base_weights":[-1.0595801E-1,4.834362E-1,-4.9908555E-1,4.988007E-1,4.4489482E-1,-4.9978042E-1,-3.858303E-1,4.995141E-2,4.784746E-1,4.335522E-1,4.8011702E-1,-4.611842E-1,-4.9994137E-2,3.2812502E-2,-4.0668523E-1,4.973038E-2,4.5358816E-1,4.597285E-1,4.2246982E-1,4.820647E-1,3.7086093E-1,-4.9721193E-2,-3.721973E-1,-1.9939578E-1,-4.97992E-2,4.7456574E-2,4.171908E-1,4.684484E-1,4.005994E-1,4.2739147E-1,3.6867705E-1,4.9084738E-2,4.6922392E-1,2.375E-2,4.1517857E-1,-2.8E-1,-4.848485E-2,4.347826E-2,-3.2718894E-1,4.339152E-1,3.2467532E-1,4.8193088E-1,4.5093378E-1,4.7868854E-1,3.6585367E-1,4.4350928E-1,4.1453496E-1,4.3153846E-1,3.225084E-1,4.850798E-1,4.5709828E-1,3.2812502E-2,4.4444445E-1,-2.3300971E-1,-4.782609E-2,-2.3529412E-1,2.6153848E-1,-4.0350878E-1,-4.255319E-2,4.49827E-1,3.8938054E-1,4.761905E-2,2.631579E-1,4.8490945E-2,4.4728434E-1,3.97541E-1,4.5833334E-1,4.9786326E-2,4.097222E-1,3.8537908E-1,2.8819445E-1,4.265403E-1,4.6328261E-1,4.1653794E-1,3.482143E-1,4.4288224E-1,3.4756097E-1,3.752418E-1,2.4933687E-1,4.2105263E-1,4.8736464E-2,4.3386245E-1,4.6647015E-1,4.913793E-2,3.125E-2,-1.736111E-1,-3.59375E-2,-9.677419E-3,-4.2857144E-2,1.6666668E-3,4.5833334E-2,-4.6180555E-1,-8.928572E-3,-2.2916667E-2,1.4583333E-2,4.8760332E-2,4.2011835E-2,4.5833334E-2,3.5256412E-2,1.2E-2,3.636364E-2,3.872549E-2,4.740566E-2,4.1853037E-2,2.6851851E-2,4.623894E-2,3.4736842E-2,4.8387095E-2,3.452381E-2,3.7093498E-2,4.920635E-2,2.4537038E-2,4.0540542E-2,3.99126E-2,4.4065226E-2,4.7055513E-2,4.36919E-2,4.24915E-2,4.029615E-2,4.1935485E-2,2.5793651E-2,4.478022E-2,3.125E-2,2.2222223E-2,4.017857E-2,3.8650308E-2,1.724138E-2,1.4285715E-2,2.8937731E-2,4.8333332E-2,3.392857E-2,3.94E-2,4.638365E-2,4.0822785E-2,4.7375E-2,-3.125E-2,-1.0204082E-2,-2.3809524E-2,-4.9596775E-2],"categories":[0,2,3,4,5,6,7,8,9,10,11,12,13,14,15,16,17,18,19,20,21,22,23,24,25,26,27,28,29,30,0,2,3,4,5,6,7,8,9,10,11,12,13,14,15,16,17,18,19,20,21,22,23,24,25,26,27,28,29,30,1,2,3,6,8,10,12,14,15,16,18,19,0,1,2,3,6,7,8,12,14,15,16,17,18,19,0,1,2,4,5,6,7,8,9,11,12,14,15,18,19,3,4,10,16,17,19,0,7,9,0,1,2,4,5,6,7,8,9,10,11,12,13,14,15,19,0,1,2,4,5,6,7,8,9,11,12,13,14,15,16,17,18,19,3,10,16,17,0,1,2,0,3,4,6,7,9,0,1,2,3,6,7,8,9,10,12,14,15,16,17,18,19,1,4,5,6,1,4,5,6,0,1,3,4,5,6,1,3,4,7,12,15,16,20,21,22,25,26,27,28,1,5,6,1,4,5,6,0,1,2,3,4,5,6,7,8,9,10,11,12,13,14,15,17,18,19,4,3,4,8,1,3,4,9,3,4,7,9],"categories_nodes":[5,6,8,9,10,14,17,18,19,22,23,27,28,29,32,40,46,48,59,62,65,72,73,74],"categories_segments":[0,30,60,72,86,101,107,110,126,144,148,151,157,173,177,181,187,201,204,208,227,228,231,235],"categories_sizes":[30,30,12,14,15,6,3,16,18,4,3,6,16,4,4,6,14,3,4,19,1,3,4,4],"default_left":[0,0,0,0,0,1,1,0,1,1,1,0,0,0,1,0,0,1,1,1,0,0,1,1,0,0,0,1,1,1,0,0,1,0,0,0,0,0,0,0,1,0,0,0,0,0,1,0,1,0,0,0,0,0,0,0,0,0,0,1,0,0,1,0,0,1,0,0,0,0,0,0,1,1,1,0,0,0,0,0,0,0,0,0,0,0,0,0,0,0,0,0,0,0,0,0,0,0,0,0,0,0,0,0,0,0,0,0,0,0,0,0,0,0,0,0,0,0,0,0,0,0,0,0,0,0,0,0,0,0,0,0,0,0,0,0,0,0,0],"id":3,"left_children":[1,3,5,7,9,11,13,-1,15,17,19,21,-1,-1,23,-1,25,27,29,31,33,-1,35,37,-1,-1,39,41,43,45,47,-1,49,-1,51,53,-1,55,57,59,61,63,65,67,69,71,73,75,77,79,81,-1,83,85,-1,87,89,91,93,95,97,-1,99,-1,101,103,105,-1,107,109,111,113,115,117,119,121,123,125,127,129,-1,131,133,-1,-1,135,-1,-1,-1,-1,-1,137,-1,-1,-1,-1,-1,-1,-1,-1,-1,-1,-1,-1,-1,-1,-1,-1,-1,-1,-1,-1,-1,-1,-1,-1,-1,-1,-1,-1,-1,-1,-1,-1,-1,-1,-1,-1,-1,-1,-1,-1,-1,-1,-1,-1,-1,-1,-1],"loss_changes":[6.990512E4,7.126367E1,1.4046875E1,1.0117188E0,1.3541504E1,8.8671875E-1,1.6630981E1,0E0,1.1567993E0,7.36084E0,1.6031494E0,2.2514954E0,0E0,0E0,2.0285004E1,0E0,7.808533E-1,3.800537E0,4.6901855E0,6.9714355E-1,7.938423E-1,0E0,2.1803513E0,1.0287686E1,0E0,0E0,5.9716034E-1,1.373169E0,2.5408478E0,3.2907715E0,4.3360596E0,0E0,4.2486572E-1,0E0,1.395092E-1,1.0531025E0,0E0,7.0522914E0,4.6967964E0,1.0900879E-1,5.9239006E-1,1.743164E-1,9.8132324E-1,1.9934845E-1,9.458084E-1,2.2940674E0,1.0960693E0,4.65271E-1,3.3521576E0,5.6152344E-3,2.1636963E-1,0E0,3.480606E-1,7.1071815E-1,0E0,1.3239362E0,3.1246796E0,3.091179E0,1.6857269E0,1.1948776E-1,1.2526894E-1,0E0,7.7626824E-1,0E0,3.1945038E-1,8.7878036E-1,1.0005493E0,0E0,1.7721176E-1,6.711731E-1,6.233263E-1,1.375061E0,4.4970703E-1,8.5961914E-1,1.6901054E0,2.2506714E-1,4.680233E-1,1.1142426E0,1.5659962E0,1.262846E-1,0E0,4.9472046E-1,3.81958E-1,0E0,0E0,6.8381524E-1,0E0,0E0,0E0,0E0,0E0,9.824219E-1,0E0,0E0,0E0,0E0,0E0,0E0,0E0,0E0,0E0,0E0,0E0,0E0,0E0,0E0,0E0,0E0,0E0,0E0,0E0,0E0,0E0,0E0,0E0,0E0,0E0,0E0,0E0,0E0,0E0,0E0,0E0,0E0,0E0,0E0,0E0,0E0,0E0,0E0,0E0,0E0,0E0,0E0,0E0,0E0,0E0,0E0,0E0],"parents":[2147483647,0,0,1,1,2,2,3,3,4,4,5,5,6,6,8,8,9,9,10,10,11,11,14,14,16,16,17,17,18,18,19,19,20,20,22,22,23,23,26,26,27,27,28,28,29,29,30,30,32,32,34,34,35,35,37,37,38,38,39,39,40,40,41,41,42,42,43,43,44,44,45,45,46,46,47,47,48,48,49,49,50,50,52,52,53,53,55,55,56,56,57,57,58,58,59,59,60,60,62,62,64,64,65,65,66,66,68,68,69,69,70,70,71,71,72,72,73,73,74,74,75,75,76,76,77,77,78,78,79,79,81,81,82,82,85,85,91,91],"right_children":[2,4,6,8,10,12,14,-1,16,18,20,22,-1,-1,24,-1,26,28,30,32,34,-1,36,38,-1,-1,40,42,44,46,48,-1,50,-1,52,54,-1,56,58,60,62,64,66,68,70,72,74,76,78,80,82,-1,84,86,-1,88,90,92,94,96,98,-1,100,-1,102,104,106,-1,108,110,112,114,116,118,120,122,124,126,128,130,-1,132,134,-1,-1,136,-1,-1,-1,-1,-1,138,-1,-1,-1,-1,-1,-1,-1,-1,-1,-1,-1,-1,-1,-1,-1,-1,-1,-1,-1,-1,-1,-1,-1,-1,-1,-1,-1,-1,-1,-1,-1,-1,-1,-1,-1,-1,-1,-1,-1,-1,-1,-1,-1,-1,-1,-1,-1],"split_conditions":[1E0,3.75E0,6.0474315E0,3.736528E0,1.0714286E1,1E-45,1E-45,1.286E-1,1E-45,1E-45,1E-45,1.5647404E0,0E0,8E-3,1E-45,2.6659998E-1,3.142857E0,1E-45,1E-45,1E-45,3E0,0E0,1E-45,1E-45,-1.2660001E-1,2.61E-1,7E0,1E-45,1E-45,1E-45,5.1666665E0,1.1242001E0,1E-45,3.77E-1,1.1571428E1,3.1091263E0,0E0,4.827583E0,2.6E1,5.7065587E0,1E-45,6.7682734E0,2.5184505E0,5.1666665E0,9.945805E-1,6.857143E0,1E-45,4.827583E0,1E-45,1E0,1.18E1,3.68E-1,1.3428572E1,1.0101174E0,-6.1000003E-3,2E0,3E0,1.0242292E0,2.014E3,1E-45,2E0,3.872E-1,1E-45,5.122E-1,9.853582E-1,1E-45,8.714286E0,2.3380001E-1,8.5126144E-1,9.822547E-1,4.5E0,4E0,1E-45,1E-45,1E-45,1.2E1,5.7065587E0,1.0483547E1,3E0,7.0912423E0,1.1622E0,1.4E1,2.012E3,6.58E-1,3.951E-1,1.7787696E0,-8.1E-3,-9.999995E-4,-1.9999996E-3,5E-4,1.9000001E-3,8.9018977E-1,-9.999991E-4,-8.1E-3,1.85E-3,3.51E-1,2.682E-1,6.51E-1,2.682E-1,1.0769999E-1,2.99E-1,3.622E-1,4.193E-1,2.8620002E-1,1.882E-1,4.1279998E-1,3.622E-1,5.488E-1,1.8480001E-1,2.548E-1,2.692E-1,1.888E-1,1.888E-1,3.522E-1,4.5220003E-1,7.082E-1,5.68E-1,4.1219997E-1,3.622E-1,3.6810002E-1,2.2219999E-1,2.2620001E-1,1.262E-1,1.921E-1,2.6799998E-1,3.88E-1,1.01100005E-1,1.861E-1,2.842E-1,7.622E-1,1.0622E0,5.622E-1,6.622E-1,7.802E-1,8.062E-1,-9E-3,0E0,-1.0999999E-2,-1.3099998E-2],"split_indices":[9,33,36,37,33,15,15,0,38,38,38,37,0,0,38,0,33,39,38,38,32,0,38,39,0,0,30,39,38,8,33,0,8,0,33,36,0,37,3,37,8,36,37,33,13,33,15,37,8,31,33,0,33,13,0,30,6,13,0,8,6,0,38,0,13,8,33,0,13,13,33,32,39,39,39,30,37,36,30,37,0,3,0,0,0,37,0,0,0,0,0,13,0,0,0,0,0,0,0,0,0,0,0,0,0,0,0,0,0,0,0,0,0,0,0,0,0,0,0,0,0,0,0,0,0,0,0,0,0,0,0,0,0,0,0,0,0,0,0],"split_type":[0,0,0,0,0,1,1,0,1,1,1,0,0,0,1,0,0,1,1,1,0,0,1,1,0,0,0,1,1,1,0,0,1,0,0,0,0,0,0,0,1,0,0,0,0,0,1,0,1,0,0,0,0,0,0,0,0,0,0,1,0,0,1,0,0,1,0,0,0,0,0,0,1,1,1,0,0,0,0,0,0,0,0,0,0,0,0,0,0,0,0,0,0,0,0,0,0,0,0,0,0,0,0,0,0,0,0,0,0,0,0,0,0,0,0,0,0,0,0,0,0,0,0,0,0,0,0,0,0,0,0,0,0,0,0,0,0,0,0],"sum_hessian":[3.01694E5,1.20714E5,1.8098E5,8.6299E4,3.4415E4,1.79873E5,1.107E3,8.335E4,2.949E3,2.6042E4,8.373E3,7.59E2,1.79114E5,3.1E1,1.076E3,1.668E3,1.281E3,7.734E3,1.8308E4,8.223E3,1.5E2,5.37E2,2.22E2,3.3E2,7.46E2,8.05E2,4.76E2,6.734E3,1E3,1.6767E4,1.541E3,4.861E3,3.362E3,3.9E1,1.11E2,1.24E2,9.8E1,1.14E2,2.16E2,4E2,7.6E1,3.79E3,2.944E3,3.04E2,6.96E2,7.425E3,9.342E3,6.49E2,8.92E2,1.44E3,1.922E3,3.1E1,8E1,1.02E2,2.2E1,5E1,6.4E1,1.7E2,4.6E1,2.88E2,1.12E2,2E1,5.6E1,3.478E3,3.12E2,3.65E2,2.579E3,2.33E2,7.1E1,5.53E2,1.43E2,4.008E3,3.417E3,9.063E3,2.79E2,5.68E2,8.1E1,5.16E2,3.76E2,5.6E1,1.384E3,5.66E2,1.356E3,5.7E1,2.3E1,7.1E1,3.1E1,3E1,2E1,2.9E1,3.5E1,1.43E2,2.7E1,2.3E1,2.3E1,1.2E2,1.68E2,3.5E1,7.7E1,2.4E1,3.2E1,1.01E2,2.11E2,3.12E2,5.3E1,2.485E3,9.4E1,3E1,4.1E1,4.91E2,6.2E1,1.07E2,3.6E1,1.372E3,2.636E3,2.665E3,7.52E2,5.586E3,3.477E3,1.54E2,1.25E2,5.45E2,2.3E1,2.6E1,5.5E1,4.88E2,2.8E1,1.04E2,2.72E2,2.9E1,2.7E1,2.49E2,3.17E2,1.57E2,1.199E3,2.3E1,4.8E1,2E1,1.23E2],"tree_param":{"num_deleted":"0","num_feature":"40","num_nodes":"139","size_leaf_vector":"1"}},{"base_weights":[-1.10337324E-1,4.720379E-1,-4.9865344E-1,4.975537E-1,4.0843132E-1,-4.9966896E-1,-3.3227274E-1,4.996034E-1,3.8815376E-1,3.848603E-1,4.5138207E-1,-4.351733E-1,-4.9994692E-2,-5.8309037E-2,-4.5580474E-1,4.9991082E-2,4.2535213E-1,4.1007194E-1,3.5284552E-1,3.6771834E-1,4.0701863E-1,4.3135384E-1,4.6631864E-1,-4.9909748E-2,-2.7654868E-1,1.1070111E-2,-3.1506848E-1,4.8E-2,-4.870572E-1,4.744186E-1,3.4751773E-1,4.158628E-1,2.682927E-1,4.0778688E-1,3.158602E-1,3.872725E-1,3.3573818E-1,3.7744972E-1,4.2701676E-1,4.3498605E-1,3.449074E-1,4.7955525E-1,4.4646034E-1,-9.5454544E-2,-4.4444445E-1,-1.6521738E-1,1.4012739E-1,-4.8809525E-2,-7.8125E-3,-1.9354839E-2,-4.9928978E-2,3.6538463E-2,4.868421E-2,4.6428572E-2,2.95E-1,4.673367E-2,4.0136054E-1,3.3333335E-2,1.904762E-2,4.25E-1,2.4E-2,2.652439E-1,3.54067E-1,3.658615E-1,4.01341E-1,3.5076645E-1,3.0116758E-1,3.7999478E-1,2.7722773E-1,4.1928303E-1,4.4842312E-1,4.1988078E-1,4.546292E-1,4.0064102E-1,1.9672132E-1,4.6994033E-1,4.8977047E-2,4.504086E-1,3.5416666E-1,-1.6049382E-1,8.333334E-3,-2.0454546E-2,-4.9479168E-2,8.6538464E-2,-3.671875E-1,-4.375E-2,3.2692307E-1,2.2222222E-1,4.0789474E-2,3.8036808E-1,4.4129553E-1,4.3979058E-1,3.1666666E-2,3.4567901E-1,1.845238E-1,4E-1,2.1818182E-1,3.7864557E-1,3.4164357E-1,3.8523793E-1,4.3198758E-1,3.5651323E-1,2.8301886E-1,3.632385E-1,2.725E-1,4.0545624E-1,3.7007588E-1,6.944445E-3,3.8636363E-1,4.4009694E-1,4.0849558E-1,4.2487374E-1,4.733242E-1,4.0876827E-1,4.7707424E-2,4.3002027E-1,4.6158427E-1,4.2962962E-1,2.0454546E-2,2.9268292E-1,-0E0,4.742978E-2,4.4027305E-1,4.653273E-1,4.3E-1,3.85E-1,1.904762E-2,-0E0,-2.4528302E-1,-2.4E-2,3.75E-2,-9.52381E-3,-4.886364E-2,1.3750001E-2,-2.195122E-1,1.2E-2,4.1666666E-1,3.142857E-2,1.03448285E-2,4.2512078E-2,3.4628976E-2,4.1717794E-2,4.8235293E-2,3.8356166E-2,4.7058824E-2,4.0833335E-2,1.590909E-2,3.0303032E-3,2.7884616E-2,4.2519685E-2,2.7586207E-2,-0E0,3.4285717E-2,3.8315356E-2,2.5974026E-2,3.742284E-2,2.924312E-2,3.7860155E-2,4.610656E-2,4.609145E-2,4.1050375E-2,3.858575E-2,3.441828E-2,5.357143E-3,3.0882353E-2,4.375E-2,3.3579882E-2,2.9753266E-2,2.1634616E-2,4.1354906E-2,2.9333333E-2,3.0769233E-2,3.774808E-2,4.2391304E-2,2.857143E-2,4.448052E-2,3.220339E-2,3.3163264E-2,4.1110706E-2,4.7098216E-2,4.059754E-2,4.7652915E-2,3.7931036E-2,3.799716E-2,4.2050827E-2,3.125E-2,4.394273E-2,4.5025952E-2,4.8568703E-2,4.5588236E-2,3.382353E-2,3.809524E-2,1.904762E-2,4.7256097E-2,3.9615385E-2,4.7352266E-2,4.1908715E-2,4.3761726E-2,3.2941177E-2,2.8333334E-2,4.225352E-2,-3.448276E-2,-1.2E-2,-1.4285715E-2,-2.857143E-2,3.125E-2,4.8387095E-2],"categories":[0,2,3,4,5,6,7,8,9,10,11,12,13,14,15,16,17,18,19,20,21,22,23,24,25,26,27,28,29,30,3,4,10,16,17,19,0,1,2,4,5,6,7,8,9,12,13,14,15,16,18,0,2,3,4,5,6,7,8,9,10,11,12,13,14,15,16,17,18,19,20,21,22,23,24,25,26,27,28,29,30,0,1,2,3,5,6,7,8,9,12,13,14,15,16,18,19,1,2,4,6,7,8,0,1,2,4,6,7,8,9,12,14,15,16,18,19,0,1,2,4,5,6,7,8,9,11,12,13,14,15,16,17,18,19,0,1,2,3,10,16,17,0,2,3,4,5,6,7,8,9,0,1,3,4,6,7,9,0,1,2,6,7,8,9,12,14,15,0,1,2,4,5,6,7,8,9,11,12,13,14,15,18,19,0,1,2,3,4,5,6,7,8,9,10,11,12,13,14,15,18,19,0,1,2,0,1,2,4,5,6,0,1,2,3,4,5,6,7,8,9,11,12,13,14,15,16,17,18,19,20,21,22,23,24,25,26,27,28,0,1,2,4,7,9,0,1,3,4,5,6,3,5,1,4,5,0,1,3,4,5,6,7,8,9,1,3,5,6,2,3,0,1,3,6,0,1,3,4,6,7,8,9,1,3,5,6,7,9,0,1,2,3,4,5,6,7,8,9,10,11,12,13,14,15,16,17,18,19,20,21,22,23,24,25,0,1,2,6,7,8,9,12,14,15,18,19,0,1,2,3,4,5,6,7,8,9,10,11,12,13,14,15,17,18,19,3,4,6,7],"categories_nodes":[5,6,8,14,16,18,19,22,24,30,31,37,40,42,45,54,59,62,65,66,69,75,77,85,89,97,98,100,101,102,105,123,124],"categories_segments":[0,30,36,51,81,97,103,117,135,142,151,158,168,184,202,205,208,209,211,239,245,251,253,256,265,269,271,275,283,289,315,327,346],"categories_sizes":[30,6,15,30,16,6,14,18,7,9,7,10,16,18,3,3,1,2,28,6,6,2,3,9,4,2,4,8,6,26,12,19,4],"default_left":[0,0,0,0,0,1,1,0,1,0,0,0,0,0,1,0,1,0,1,1,0,0,1,0,1,0,0,0,0,0,1,1,0,0,0,0,0,1,0,0,1,0,1,0,0,1,0,0,0,0,0,0,0,0,1,0,0,0,0,1,0,0,1,0,0,1,1,0,0,1,0,0,0,0,0,1,0,1,0,0,0,0,0,0,0,1,0,0,0,1,0,0,0,0,0,0,0,1,1,0,1,1,1,0,0,1,0,0,0,0,0,0,0,0,0,0,0,0,0,0,0,0,0,1,1,0,0,0,0,0,0,0,0,0,0,0,0,0,0,0,0,0,0,0,0,0,0,0,0,0,0,0,0,0,0,0,0,0,0,0,0,0,0,0,0,0,0,0,0,0,0,0,0,0,0,0,0,0,0,0,0,0,0,0,0,0,0,0,0,0,0,0,0,0,0,0,0,0,0,0,0,0,0,0,0,0,0],"id":4,"left_children":[1,3,5,7,9,11,13,15,17,19,21,23,-1,25,27,-1,29,31,33,35,37,39,41,-1,43,45,47,-1,49,51,53,55,57,59,61,63,65,67,69,71,73,75,77,79,81,83,85,-1,-1,-1,-1,-1,-1,-1,87,-1,89,-1,-1,91,-1,93,95,97,99,101,103,105,107,109,111,113,115,117,119,121,-1,123,125,127,-1,-1,-1,129,131,133,135,137,-1,139,141,143,-1,145,147,149,151,153,155,157,159,161,163,165,167,169,171,-1,173,175,177,179,181,183,-1,185,187,189,-1,191,-1,-1,193,195,197,199,-1,-1,201,-1,-1,-1,-1,-1,203,-1,205,-1,-1,-1,-1,-1,-1,-1,-1,-1,-1,-1,-1,-1,-1,-1,-1,-1,-1,-1,-1,-1,-1,-1,-1,-1,-1,-1,-1,-1,-1,-1,-1,-1,-1,-1,-1,-1,-1,-1,-1,-1,-1,-1,-1,-1,-1,-1,-1,-1,-1,-1,-1,-1,-1,-1,-1,-1,-1,-1,-1,-1,-1,-1,-1,-1,-1,-1,-1,-1,-1],"loss_changes":[6.816123E4,1.9548633E2,3.0386719E1,1.9101562E1,3.4779785E1,3.0039062E0,3.720105E1,1.7148438E0,1.0834808E0,8.3203125E0,3.456787E0,7.7610016E0,0E0,6.113605E0,2.2402405E1,0E0,1.1908951E0,6.872864E-1,1.1208878E0,7.7386475E0,5.584717E0,1.4943237E0,1.6239014E0,0E0,6.829092E0,6.1887226E0,2.95469E0,0E0,2.538681E0,1.13349915E-1,7.27705E-1,5.0891113E-1,1.4401841E-1,6.027031E-1,6.254921E-1,2.2033691E0,2.3787842E0,8.968506E-1,7.7038574E-1,1.2992554E0,1.7051163E0,1.8054199E-1,8.647461E-1,1.2924803E0,1.3119469E0,5.879199E0,5.4068604E0,0E0,0E0,0E0,0E0,0E0,0E0,0E0,7.3097897E-1,0E0,4.483261E-1,0E0,0E0,2.1324539E-1,0E0,1.0010214E0,1.2172241E0,8.319397E-1,2.1520386E0,1.194397E0,2.4918518E0,8.1695557E-1,2.2635074E0,7.785034E-1,6.9137573E-1,1.6176147E0,1.730957E-1,7.9890823E-1,1.1515393E0,7.287598E-2,0E0,6.195679E-1,5.3232193E-1,1.1022594E0,0E0,0E0,0E0,4.988077E0,2.0672522E0,2.5787346E0,1.3984613E0,6.5637636E-1,0E0,5.9856415E-1,4.3354034E-2,1.5025711E-1,0E0,8.819723E-1,1.213453E0,3.67527E-1,1.4961042E0,9.8483276E-1,1.627243E0,1.3799133E0,8.1134033E-1,9.7546387E-1,1.5524712E0,7.8432465E-1,1.3413086E0,8.4324646E-1,1.1620483E0,0E0,1.2831688E-1,6.5945435E-1,4.3069458E-1,4.9891663E-1,3.9505005E-2,6.4990234E-1,0E0,4.0769958E-1,2.395935E-1,1.6971779E-1,0E0,2.973287E-1,0E0,0E0,2.3017502E-1,3.862915E-1,7.3698425E-1,2.618885E-1,0E0,0E0,6.195965E-1,0E0,0E0,0E0,0E0,0E0,1.672473E-1,0E0,2.2681427E-1,0E0,0E0,0E0,0E0,0E0,0E0,0E0,0E0,0E0,0E0,0E0,0E0,0E0,0E0,0E0,0E0,0E0,0E0,0E0,0E0,0E0,0E0,0E0,0E0,0E0,0E0,0E0,0E0,0E0,0E0,0E0,0E0,0E0,0E0,0E0,0E0,0E0,0E0,0E0,0E0,0E0,0E0,0E0,0E0,0E0,0E0,0E0,0E0,0E0,0E0,0E0,0E0,0E0,0E0,0E0,0E0,0E0,0E0,0E0,0E0,0E0,0E0,0E0,0E0,0E0,0E0,0E0,0E0,0E0,0E0],"parents":[2147483647,0,0,1,1,2,2,3,3,4,4,5,5,6,6,7,7,8,8,9,9,10,10,11,11,13,13,14,14,16,16,17,17,18,18,19,19,20,20,21,21,22,22,24,24,25,25,26,26,28,28,29,29,30,30,31,31,32,32,33,33,34,34,35,35,36,36,37,37,38,38,39,39,40,40,41,41,42,42,43,43,44,44,45,45,46,46,54,54,56,56,59,59,61,61,62,62,63,63,64,64,65,65,66,66,67,67,68,68,69,69,70,70,71,71,72,72,73,73,74,74,75,75,77,77,78,78,79,79,83,83,84,84,85,85,86,86,87,87,89,89,90,90,91,91,93,93,94,94,95,95,96,96,97,97,98,98,99,99,100,100,101,101,102,102,103,103,104,104,105,105,106,106,108,108,109,109,110,110,111,111,112,112,113,113,115,115,116,116,117,117,119,119,122,122,123,123,124,124,125,125,128,128,134,134,136,136],"right_children":[2,4,6,8,10,12,14,16,18,20,22,24,-1,26,28,-1,30,32,34,36,38,40,42,-1,44,46,48,-1,50,52,54,56,58,60,62,64,66,68,70,72,74,76,78,80,82,84,86,-1,-1,-1,-1,-1,-1,-1,88,-1,90,-1,-1,92,-1,94,96,98,100,102,104,106,108,110,112,114,116,118,120,122,-1,124,126,128,-1,-1,-1,130,132,134,136,138,-1,140,142,144,-1,146,148,150,152,154,156,158,160,162,164,166,168,170,172,-1,174,176,178,180,182,184,-1,186,188,190,-1,192,-1,-1,194,196,198,200,-1,-1,202,-1,-1,-1,-1,-1,204,-1,206,-1,-1,-1,-1,-1,-1,-1,-1,-1,-1,-1,-1,-1,-1,-1,-1,-1,-1,-1,-1,-1,-1,-1,-1,-1,-1,-1,-1,-1,-1,-1,-1,-1,-1,-1,-1,-1,-1,-1,-1,-1,-1,-1,-1,-1,-1,-1,-1,-1,-1,-1,-1,-1,-1,-1,-1,-1,-1,-1,-1,-1,-1,-1,-1,-1,-1,-1,-1,-1,-1],"split_conditions":[1E0,3.75E0,6.0474315E0,4.607143E0,8.75E0,1E-45,1E-45,4.428571E0,1E-45,4E0,1.1E1,1.5647404E0,0E0,4.4444447E0,1E-45,1.15739994E-1,1E-45,2.016E3,1E-45,1E-45,5.214286E0,8.826367E0,1E-45,0E0,1E-45,1.5E1,4.1E1,7.2000003E-3,2.6E0,4E0,1E-45,1E-45,9E0,6.4137545E0,2.1E1,5.214286E0,9.9860746E-1,1E-45,3.48E0,4E0,1E-45,1.5428572E1,1E-45,2.6E0,2.2222223E0,1E-45,4.827583E0,-1.9189999E-2,-1.2289998E-2,-7.3399977E-3,-1.1394E-1,1.7074E-1,3.1194E-1,3.2474002E-1,1E-45,5.2386E-1,4.928571E0,1.7926E-1,5.784E-2,1E-45,1.24239996E-1,5.678571E0,1E-45,5.1666665E0,5.33E0,1E-45,1E-45,2E0,3.258688E0,1E-45,6.821429E0,1.97E0,7.714286E0,6E0,9.666667E0,1E-45,1.31178E0,1E-45,1.4142858E1,1.4960265E0,6.1000005E-4,-8.1899995E-3,0E0,2E1,1.7857143E0,1E-45,2.014E3,3.0834942E0,2.8074E-1,1E-45,1.0130119E0,2.2E1,1.8609999E-1,1E0,2.6E0,5.142857E0,4.1190934E0,1E-45,1E-45,1.0857142E1,1E-45,1E-45,1E-45,2E0,1.0044489E0,1E-45,3.107143E0,1.3580001E-2,2.014E3,5.1E1,3E0,5.3333335E0,1.6E1,7.857143E0,6.1098E-1,2E0,1E0,3.6E1,8.2027E-1,1.9E1,9.580016E-3,8.5177994E-1,5.137784E0,1E-45,1E-45,9.535714E0,3.1174E-1,-3.2399993E-3,1.99E0,-1.7999996E-3,7.8100003E-3,-6.899998E-4,-1.869E-2,3.1000003E-4,2.4E1,3.1000003E-4,2.6E1,1.1673999E-1,9.336E-2,3.4534E-1,2.8574E-1,3.2454E-1,5.1702E-1,2.8272E-1,2.8772002E-1,2.691E-1,1.5534E-1,1.061E-1,1.761E-1,2.4836E-1,1.6544E-1,4.4339996E-2,2.5910002E-1,2.5890002E-1,2.1567002E-1,3.1798002E-1,2.3058E-1,3.5998002E-1,7.4178E-1,5.1098E-1,3.7352E-1,3.6098E-1,2.8978E-1,2.5389994E-2,3.2098E-1,2.6698E-1,2.5958002E-1,2.0239E-1,1.22420006E-1,3.4478E-1,1.8908E-1,2.2092E-1,3.1092E-1,2.7358E-1,1.9358E-1,6.2178004E-1,3.6518002E-1,4.5738003E-1,4.5798E-1,4.1352E-1,3.7352E-1,5.1252E-1,7.6098E-1,4.2898002E-1,5.2598E-1,3.9718002E-1,5.9718E-1,6.9718E-1,7.6098E-1,9.8297995E-1,5.2098E-1,4.8039505E-1,2.2549E-1,6.4978E-1,8.5177994E-1,9.4598E-1,7.9828E-1,7.8158E-1,5.8158E-1,4.3120003E-1,4.43895E-1,-8.1E-3,-7.2E-3,-7.4499944E-4,-7.475E-3,8.5000007E-4,1.6625001E-3],"split_indices":[9,33,36,35,35,15,38,34,38,4,33,37,0,34,15,0,38,0,39,38,35,36,38,0,38,3,2,0,34,3,39,39,3,37,2,35,13,38,10,4,38,33,38,34,34,39,37,0,0,0,0,0,0,0,8,0,34,0,0,8,0,35,8,33,10,15,39,31,36,8,35,10,33,4,33,39,0,8,33,36,0,0,0,2,35,39,0,37,0,8,13,2,0,29,33,34,37,16,39,33,39,39,15,31,13,38,35,0,0,2,2,33,31,33,0,1,29,2,0,2,0,0,37,38,39,35,0,0,10,0,0,0,0,0,3,0,2,0,0,0,0,0,0,0,0,0,0,0,0,0,0,0,0,0,0,0,0,0,0,0,0,0,0,0,0,0,0,0,0,0,0,0,0,0,0,0,0,0,0,0,0,0,0,0,0,0,0,0,0,0,0,0,0,0,0,0,0,0,0,0,0,0,0,0,0,0,0],"split_type":[0,0,0,0,0,1,1,0,1,0,0,0,0,0,1,0,1,0,1,1,0,0,1,0,1,0,0,0,0,0,1,1,0,0,0,0,0,1,0,0,1,0,1,0,0,1,0,0,0,0,0,0,0,0,1,0,0,0,0,1,0,0,1,0,0,1,1,0,0,1,0,0,0,0,0,1,0,1,0,0,0,0,0,0,0,1,0,0,0,1,0,0,0,0,0,0,0,1,1,0,1,1,1,0,0,1,0,0,0,0,0,0,0,0,0,0,0,0,0,0,0,0,0,1,1,0,0,0,0,0,0,0,0,0,0,0,0,0,0,0,0,0,0,0,0,0,0,0,0,0,0,0,0,0,0,0,0,0,0,0,0,0,0,0,0,0,0,0,0,0,0,0,0,0,0,0,0,0,0,0,0,0,0,0,0,0,0,0,0,0,0,0,0,0,0,0,0,0,0,0,0,0,0,0,0,0,0],"sum_hessian":[3.01402E5,1.20573E5,1.80829E5,8.6048E4,3.4525E4,1.7973E5,1.099E3,8.4462E4,1.586E3,2.2298E4,1.2227E4,7.78E2,1.78952E5,3.42E2,7.57E2,8.4108E4,3.54E2,9.72E2,6.14E2,1.2582E4,9.716E3,5.236E3,6.991E3,5.53E2,2.25E2,2.7E2,7.2E1,2.4E1,7.33E2,2.14E2,1.4E2,9.32E2,4E1,2.43E2,3.71E2,7.801E3,4.781E3,3.928E3,5.788E3,5.021E3,2.15E2,4.181E3,2.81E3,1.09E2,1.16E2,1.14E2,1.56E2,4.1E1,3.1E1,3E1,7.03E2,2.5E1,1.89E2,4.1E1,9.9E1,1.98E2,7.34E2,2E1,2E1,2.19E2,2.4E1,1.63E2,2.08E2,3.104E3,4.697E3,3.326E3,1.455E3,3.828E3,1E2,4.267E3,1.521E3,2.851E3,2.17E3,1.55E2,6E1,2.178E3,2.003E3,2.691E3,1.19E2,8E1,2.9E1,2.1E1,9.5E1,5.1E1,6.3E1,7.9E1,7.7E1,6.2E1,3.7E1,4.88E2,2.46E2,1.9E2,2.9E1,8E1,8.3E1,1.54E2,5.4E1,2.022E3,1.082E3,3.088E3,1.609E3,3.062E3,2.64E2,4.56E2,9.99E2,1.062E3,2.766E3,3.5E1,6.5E1,1.443E3,2.824E3,7.91E2,7.3E2,2.394E3,4.57E2,4.92E2,1.678E3,1.34E2,2.1E1,4E1,2E1,1.886E3,2.92E2,1.542E3,1.149E3,9.9E1,2E1,2.8E1,5.2E1,2.4E1,2.7E1,2E1,4.3E1,3.9E1,4E1,2.4E1,5.3E1,3.4E1,2.8E1,2.06E2,2.82E2,1.62E2,8.4E1,7.2E1,1.18E2,5.9E1,2.1E1,3.2E1,5.1E1,1.26E2,2.8E1,2E1,3.4E1,1.946E3,7.6E1,6.47E2,4.35E2,2.845E3,2.43E2,6.77E2,9.32E2,8.97E2,2.165E3,2.7E1,2.37E2,1.19E2,3.37E2,6.88E2,3.11E2,9.88E2,7.4E1,2.98E2,2.468E3,4.5E1,2E1,1.385E3,5.8E1,9.7E1,2.727E3,2.23E2,5.68E2,7.02E2,2.8E1,7.03E2,1.691E3,3.9E1,4.53E2,1.155E3,5.23E2,1.01E2,3.3E1,2E1,2E1,1.63E2,1.29E2,1.302E3,2.4E2,1.065E3,8.4E1,2.9E1,7E1,2.8E1,2.4E1,2E1,2E1,2.3E1,3E1],"tree_param":{"num_deleted":"0","num_feature":"40","num_nodes":"207","size_leaf_vector":"1"}},{"base_weights":[-1.1363839E-1,4.626634E-1,-4.9854386E-1,4.9748346E-1,3.9119676E-1,-4.9963582E-1,-3.1921676E-1,4.9789628E-1,3.402778E-1,3.73182E-1,4.3017587E-1,-4.2728442E-1,-4.9994696E-2,-8.4635414E-2,-4.4475526E-1,4.9928352E-1,4.6780038E-1,3.0057803E-1,4.886364E-2,4.0823516E-1,3.5785875E-1,4.144435E-1,4.4990072E-1,-4.972826E-2,-2.5442478E-1,-2.3507462E-1,-3.984064E-3,4.4E-2,-4.7612157E-1,4.996413E-2,4.6410578E-1,4.8216912E-1,4.22235E-1,3.3333334E-1,1.5151516E-2,4.296528E-1,3.757622E-1,3.2120562E-1,3.7151387E-1,4.1993412E-1,3.551089E-1,4.431844E-1,4.7568526E-2,-1.0294118E-1,-3.76E-1,1.3888889E-3,-3.2323232E-1,6.553398E-2,-3.152174E-1,-2.6666668E-1,-4.8995364E-1,4.8600745E-1,4.169884E-1,4.863103E-1,4.5833334E-1,4.36214E-1,3.4642857E-1,2.1212121E-2,3.6697248E-1,4.384208E-1,3.666121E-1,3.5012516E-1,3.9988115E-1,2.977131E-1,3.4184423E-1,4.2368555E-1,3.6280254E-1,4.0315005E-1,4.4180566E-1,4.054487E-1,2.9895106E-1,4.4980425E-1,4.1426858E-1,8.62069E-3,-2.4444444E-1,-3.0405405E-1,-4.7115386E-2,-4.8333332E-2,-2.5E-1,-1.01123594E-1,1.9067797E-1,-1.875E-2,-4.347826E-2,-0E0,-4.8E-2,-4.9440894E-1,-3.409091E-2,4.931507E-2,3.269231E-2,2.5E-2,4.3695652E-1,3.8333334E-2,4.87456E-2,3.809524E-1,4.7067042E-2,3.8761467E-1,4.560547E-1,4.0957448E-1,2.1276596E-1,3.9325842E-1,2.3809524E-2,4.5177665E-1,4.1900223E-1,3.8307986E-1,2.616279E-1,2.9046243E-1,3.6632082E-1,4.128225E-1,3.580247E-1,3.328467E-1,2.8355607E-1,2.9261744E-1,3.6021233E-1,4.0551582E-1,4.4138634E-1,3.6435965E-1,1.4942528E-1,4.2011374E-1,3.8345197E-1,4.178303E-1,4.5377463E-1,2.7868852E-1,4.3452382E-1,3.510101E-1,1.7977528E-1,4.39937E-1,4.7350675E-2,3.8337803E-1,4.383117E-1,1.875E-2,-1.1428571E-2,-3.8636364E-2,-1.0416667E-2,-4.1935485E-2,-2.159091E-1,-6.25E-3,-3.4042552E-1,-2.9787233E-1,1.1627907E-1,2.6436782E-1,-1.5625E-3,-3.409091E-2,-4.9917355E-2,4.9411766E-2,4.0068492E-2,2.173913E-2,4.6341464E-2,3.5757575E-2,4.7222223E-2,4.2291667E-2,4.835165E-2,4.888889E-2,3.3000004E-2,4.3478264E-3,3.6000002E-2,4.5945946E-2,3.3962265E-2,4.728889E-2,4.349339E-2,3.7724014E-2,4.3765284E-2,3.9468303E-2,2.2368422E-2,4.0384617E-2,1.9672131E-2,3.202847E-2,1.590909E-2,3.7359793E-2,2.736842E-2,4.2473637E-2,3.586498E-2,2.781955E-2,3.956044E-2,3.5283364E-2,2.5179857E-2,4.2028986E-2,2.7767694E-2,3.252896E-2,2.1710528E-2,3.6463227E-2,2.1774193E-2,4.1589327E-2,3.2627117E-2,4.461371E-2,3.6507938E-2,3.716881E-2,3.218424E-2,-1.6666668E-3,2.3275863E-2,4.017857E-2,4.3082025E-2,4.3951612E-2,3.673004E-2,2.8333334E-2,4.2184036E-2,4.361264E-2,4.6503183E-2,9.52381E-3,3.658537E-2,4.8598133E-2,3.938356E-2,3.1543624E-2,4.4999998E-2,1.4705883E-3,2.767857E-2,4.4194456E-2,3.3333335E-2,2.767857E-2,4.0094342E-2,3.2812502E-2,4.4547565E-2,-3.809524E-2,-6.25E-3,-2.5E-2,-4.0384617E-2,-3.9130434E-2,-2.0000001E-2,2.3809524E-2,-0E0,4.761905E-3,3.2835823E-2],"categories":[0,2,3,4,5,6,7,8,9,10,11,12,13,14,15,16,17,18,19,20,21,22,23,24,25,26,27,28,29,30,0,2,3,4,5,6,7,8,9,10,11,12,13,14,15,16,17,18,19,20,21,22,23,24,25,26,27,28,30,0,1,2,4,1,21,22,27,0,1,2,3,4,5,6,7,8,9,10,11,12,13,14,15,16,17,18,19,20,21,22,23,24,25,26,27,0,1,2,3,4,5,6,7,8,9,10],"categories_nodes":[5,14,48,60,66,106,125],"categories_segments":[0,30,59,62,63,67,95],"categories_sizes":[30,29,3,1,4,28,11],"default_left":[0,0,0,0,0,1,0,0,0,0,0,0,0,0,1,0,0,0,0,0,0,0,0,0,0,0,0,0,0,0,0,0,0,0,0,0,0,0,0,0,0,0,0,0,0,0,0,0,1,0,0,0,0,0,0,0,0,0,0,0,1,0,0,0,0,0,1,0,0,0,0,0,0,0,0,0,0,0,0,0,0,0,0,0,0,0,0,0,0,0,0,0,0,0,0,0,0,0,0,0,0,0,0,0,0,0,1,0,0,0,0,0,0,0,0,0,0,0,0,0,0,0,0,0,0,1,0,0,0,0,0,0,0,0,0,0,0,0,0,0,0,0,0,0,0,0,0,0,0,0,0,0,0,0,0,0,0,0,0,0,0,0,0,0,0,0,0,0,0,0,0,0,0,0,0,0,0,0,0,0,0,0,0,0,0,0,0,0,0,0,0,0,0,0,0,0,0,0,0,0,0,0,0,0,0,0,0,0,0,0,0,0,0,0,0,0,0,0,0,0,0],"id":5,"left_children":[1,3,5,7,9,11,13,15,17,19,21,23,-1,25,27,29,31,33,-1,35,37,39,41,-1,43,45,47,-1,49,-1,51,53,55,57,-1,59,61,63,65,67,69,71,-1,73,75,-1,77,79,81,83,85,87,89,91,93,95,97,-1,99,101,103,105,107,109,111,113,115,117,119,121,123,125,127,129,131,133,-1,-1,135,137,139,-1,-1,-1,-1,141,-1,-1,-1,-1,143,-1,-1,145,-1,147,149,151,153,155,-1,157,159,161,163,165,167,169,171,173,175,177,179,181,183,185,187,189,191,193,195,197,199,201,203,205,-1,207,209,-1,-1,-1,-1,-1,211,-1,213,215,217,219,-1,-1,-1,-1,-1,-1,-1,-1,-1,-1,-1,-1,-1,-1,-1,-1,-1,-1,-1,-1,-1,-1,-1,-1,-1,-1,-1,-1,-1,-1,-1,-1,-1,-1,-1,-1,-1,-1,-1,-1,-1,-1,-1,-1,-1,-1,-1,-1,-1,-1,-1,-1,-1,-1,-1,-1,-1,-1,-1,-1,-1,-1,-1,-1,-1,-1,-1,-1,-1,-1,-1,-1,-1,-1,-1,-1,-1,-1,-1,-1,-1],"loss_changes":[6.69498E4,3.005625E2,3.5277344E1,5.1035156E0,2.7645996E1,3.8359375E0,3.2297356E1,3.1503906E0,1.1253223E0,1.4404785E1,3.6955566E0,9.27507E0,0E0,4.658184E0,2.0051819E1,7.421875E-1,2.1448975E0,7.941847E-1,0E0,5.564453E0,9.319092E0,2.1221924E0,7.484131E-1,0E0,4.123459E0,2.945528E0,5.451377E0,0E0,1.8713074E0,0E0,6.167145E-1,4.559326E-2,7.687073E-1,4.970808E-1,0E0,2.5775757E0,1.8881531E0,2.383606E0,6.0877686E0,2.1625977E0,1.5664978E0,6.575928E-1,0E0,1.6123168E0,7.1248436E-1,0E0,1.0398989E0,4.3156576E0,6.20924E-1,2.5600002E0,2.6107788E-1,4.4787598E-1,7.543831E-1,8.459473E-2,2.216568E-1,5.261688E-1,1.09449E0,0E0,2.7562237E-1,9.373169E-1,9.5610046E-1,1.4377136E0,7.63855E-1,1.1018372E0,2.355835E0,4.5108032E-1,3.857788E0,1.0482178E0,6.0180664E-1,1.0287971E0,1.7112923E0,6.2805176E-1,4.513855E-1,1.2965825E0,8.5561895E-1,6.6153336E-1,0E0,0E0,1.1655583E0,3.8414955E0,1.798018E0,0E0,0E0,0E0,0E0,2.8767395E-1,0E0,0E0,0E0,0E0,2.7887726E-1,0E0,0E0,7.489767E-1,0E0,3.851967E-1,2.614441E-1,4.3193913E-1,1.1558187E0,1.599741E-1,0E0,7.050171E-1,1.2244568E0,8.845444E-1,7.144127E-1,1.3046017E0,7.424164E-1,6.731415E-1,1.1049232E0,1.0207901E0,1.2667542E0,1.7674026E0,1.1661682E0,6.693878E-1,1.9274902E-1,3.522461E0,1.2080462E0,2.0639038E-1,1.3652802E0,3.8261414E-1,1.6036987E-1,9.4057655E-1,3.362198E-1,5.5530167E-1,1.4211271E0,3.9605713E-1,0E0,5.8740616E-1,2.1852112E-1,0E0,0E0,0E0,0E0,0E0,1.0902328E0,0E0,1.6857624E-1,3.5152626E-1,6.0908085E-1,1.19104E0,0E0,0E0,0E0,0E0,0E0,0E0,0E0,0E0,0E0,0E0,0E0,0E0,0E0,0E0,0E0,0E0,0E0,0E0,0E0,0E0,0E0,0E0,0E0,0E0,0E0,0E0,0E0,0E0,0E0,0E0,0E0,0E0,0E0,0E0,0E0,0E0,0E0,0E0,0E0,0E0,0E0,0E0,0E0,0E0,0E0,0E0,0E0,0E0,0E0,0E0,0E0,0E0,0E0,0E0,0E0,0E0,0E0,0E0,0E0,0E0,0E0,0E0,0E0,0E0,0E0,0E0,0E0,0E0,0E0,0E0,0E0,0E0,0E0,0E0,0E0,0E0,0E0,0E0,0E0,0E0,0E0],"parents":[2147483647,0,0,1,1,2,2,3,3,4,4,5,5,6,6,7,7,8,8,9,9,10,10,11,11,13,13,14,14,15,15,16,16,17,17,19,19,20,20,21,21,22,22,24,24,25,25,26,26,28,28,30,30,31,31,32,32,33,33,35,35,36,36,37,37,38,38,39,39,40,40,41,41,43,43,44,44,46,46,47,47,48,48,49,49,50,50,51,51,52,52,53,53,54,54,55,55,56,56,58,58,59,59,60,60,61,61,62,62,63,63,64,64,65,65,66,66,67,67,68,68,69,69,70,70,71,71,72,72,73,73,74,74,75,75,78,78,79,79,80,80,85,85,90,90,93,93,95,95,96,96,97,97,98,98,99,99,101,101,102,102,103,103,104,104,105,105,106,106,107,107,108,108,109,109,110,110,111,111,112,112,113,113,114,114,115,115,116,116,117,117,118,118,119,119,120,120,121,121,122,122,123,123,124,124,125,125,127,127,128,128,134,134,136,136,137,137,138,138,139,139],"right_children":[2,4,6,8,10,12,14,16,18,20,22,24,-1,26,28,30,32,34,-1,36,38,40,42,-1,44,46,48,-1,50,-1,52,54,56,58,-1,60,62,64,66,68,70,72,-1,74,76,-1,78,80,82,84,86,88,90,92,94,96,98,-1,100,102,104,106,108,110,112,114,116,118,120,122,124,126,128,130,132,134,-1,-1,136,138,140,-1,-1,-1,-1,142,-1,-1,-1,-1,144,-1,-1,146,-1,148,150,152,154,156,-1,158,160,162,164,166,168,170,172,174,176,178,180,182,184,186,188,190,192,194,196,198,200,202,204,206,-1,208,210,-1,-1,-1,-1,-1,212,-1,214,216,218,220,-1,-1,-1,-1,-1,-1,-1,-1,-1,-1,-1,-1,-1,-1,-1,-1,-1,-1,-1,-1,-1,-1,-1,-1,-1,-1,-1,-1,-1,-1,-1,-1,-1,-1,-1,-1,-1,-1,-1,-1,-1,-1,-1,-1,-1,-1,-1,-1,-1,-1,-1,-1,-1,-1,-1,-1,-1,-1,-1,-1,-1,-1,-1,-1,-1,-1,-1,-1,-1,-1,-1,-1,-1,-1,-1,-1,-1,-1,-1,-1,-1],"split_conditions":[1E0,3.142857E0,6.0474315E0,4.607143E0,8.785714E0,1E-45,4.4166665E0,2.6923077E0,3.1091263E0,4.357143E0,1.1928572E1,1.5647404E0,0E0,1.0011734E0,1E-45,4.0590873E0,3.047247E0,1.1E1,6.37502E-1,2.8867514E0,5.214286E0,8.826367E0,1.8285715E1,0E0,2.1851852E0,8.9018977E-1,1.039328E0,6.4800004E-3,8.882899E-1,6.1166E-2,2.3E0,2.6726124E0,4.92322E0,1.1401755E0,1.29795E-1,4.607143E0,3E0,3.349761E0,2E0,4E0,2.4E1,7.8830743E0,1.326602E0,1E0,5.464286E0,6.900011E-5,1.2E1,7.267016E0,1E-45,4E0,5.2E1,5.2E1,1.5238096E0,8.410107E-1,2.1851852E0,2E0,2.3E1,1.95433E-1,1.0296775E0,3.7142856E0,1E-45,2.7857144E0,3.8317802E0,2.676569E0,2E0,6.821429E0,1E-45,4.92322E0,7E0,9.571428E0,9.019893E0,5E0,1.375E1,1.6329932E0,1.6428572E0,2.013E3,0E0,-1.7946E-2,1.5E1,1.9E1,3E0,-4.106E-3,-6.6059977E-3,-1.8260003E-3,-5.2481007E-2,4.5833335E0,-2.1546E-2,1.51666E-1,1.54166E-1,1.47366E-1,2.25E0,2.1836601E-1,2.0516601E-1,2.8199966E0,2.0516601E-1,4E0,1.5E1,2.014E3,2.4117646E0,1.4E1,1.30141E-1,2E0,2.4198802E0,6.7222877E0,1.1E1,4.5E1,1E-45,4.3E1,3E0,1.0131546E0,1.7182494E0,4.92322E0,5.2E1,5.137784E0,7.267016E0,5.5291433E0,5E0,9.571428E0,9.6400124E-1,9.254297E-1,4.3094583E0,6E0,9.9860257E-1,2.4E1,1.0642858E1,1E-45,9.26602E-1,5E0,2.012E3,1.2239999E-3,-5.9355E-3,-8.181E-3,-7.0760003E-3,0E0,3.019119E0,-6.820999E-3,9.68707E-1,4.2168407E0,2.6785715E0,1.1E1,-1.5249988E-4,-2.5945997E-2,-1.0794599E-1,1.3366601E-1,2.0316601E-1,1.3662802E-1,2.19166E-1,1.33166E-1,2.19366E-1,1.76222E-1,2.0516601E-1,3.40779E-1,2.13166E-1,7.4749948E-3,2.0226598E-1,2.63315E-1,1.69286E-1,2.13166E-1,2.13166E-1,2.0316601E-1,2.3671599E-1,2.6675352E-1,2.5669E-1,2.47954E-1,1.87343E-1,2.0369701E-1,8.4882E-2,2.40828E-1,2.69577E-1,2.4431601E-1,2.1185799E-1,2.39704E-1,3.31427E-1,2.35888E-1,2.3939E-1,2.94406E-1,2.20847E-1,2.4509001E-1,2.0318201E-1,3.25452E-1,2.36306E-1,4.1862804E-1,5.04462E-1,5.6181204E-1,7.37002E-1,3.50182E-1,3.73382E-1,-3.200803E-2,2.8539202E-1,4.30382E-1,5.27822E-1,6.54382E-1,5.1594204E-1,5.18806E-1,6.7698205E-1,6.51382E-1,7.26602E-1,2.400115E-1,7.27852E-1,1.479102E0,6.05416E-1,5.4157573E-1,5.45482E-1,4.9079992E-2,7.86982E-1,7.68382E-1,9.3099195E-1,5.86982E-1,7.68382E-1,8.2235205E-1,1.0410321E0,0E0,0E0,-6.3209995E-3,-1.73025E-2,-1.7199997E-3,-8.0309985E-3,5.4375007E-4,-1.660499E-3,6.899991E-5,1.365E-3],"split_indices":[9,34,36,35,34,15,34,34,36,34,35,37,0,13,15,36,36,1,0,36,35,36,34,0,35,13,13,0,13,0,34,36,36,36,0,35,31,37,7,4,2,36,0,32,35,0,2,36,8,31,2,2,35,13,35,4,3,0,13,34,8,35,37,37,4,35,15,36,32,34,37,4,35,36,35,0,0,0,3,3,32,0,0,0,0,34,0,0,0,0,35,0,0,36,0,31,3,0,35,3,0,36,37,37,3,2,15,2,4,13,36,36,2,37,36,36,31,34,13,13,36,32,13,3,34,15,0,32,0,0,0,0,0,0,37,0,13,37,35,2,0,0,0,0,0,0,0,0,0,0,0,0,0,0,0,0,0,0,0,0,0,0,0,0,0,0,0,0,0,0,0,0,0,0,0,0,0,0,0,0,0,0,0,0,0,0,0,0,0,0,0,0,0,0,0,0,0,0,0,0,0,0,0,0,0,0,0,0,0,0,0,0,0,0,0,0,0,0,0,0,0],"split_type":[0,0,0,0,0,1,0,0,0,0,0,0,0,0,1,0,0,0,0,0,0,0,0,0,0,0,0,0,0,0,0,0,0,0,0,0,0,0,0,0,0,0,0,0,0,0,0,0,1,0,0,0,0,0,0,0,0,0,0,0,1,0,0,0,0,0,1,0,0,0,0,0,0,0,0,0,0,0,0,0,0,0,0,0,0,0,0,0,0,0,0,0,0,0,0,0,0,0,0,0,0,0,0,0,0,0,1,0,0,0,0,0,0,0,0,0,0,0,0,0,0,0,0,0,0,1,0,0,0,0,0,0,0,0,0,0,0,0,0,0,0,0,0,0,0,0,0,0,0,0,0,0,0,0,0,0,0,0,0,0,0,0,0,0,0,0,0,0,0,0,0,0,0,0,0,0,0,0,0,0,0,0,0,0,0,0,0,0,0,0,0,0,0,0,0,0,0,0,0,0,0,0,0,0,0,0,0,0,0,0,0,0,0,0,0,0,0,0,0,0,0],"sum_hessian":[3.01816E5,1.20859E5,1.80957E5,8.1261E4,3.9598E4,1.7986E5,1.097E3,8.1046E4,2.15E2,2.7089E4,1.2509E4,7.76E2,1.79084E5,3.83E2,7.14E2,7.746E4,3.586E3,1.72E2,4.3E1,8.232E3,1.8857E4,6.971E3,5.538E3,5.51E2,2.25E2,1.33E2,2.5E2,2.4E1,6.9E2,7.6667E4,7.93E2,2.719E3,8.67E2,1.4E2,3.2E1,4.953E3,3.279E3,5.125E3,1.3732E4,6.375E3,5.96E2,4.408E3,1.13E3,1.01E2,1.24E2,3.5E1,9.8E1,2.05E2,4.5E1,4.4E1,6.46E2,5.35E2,2.58E2,2.3E3,4.19E2,7.28E2,1.39E2,3.2E1,1.08E2,4.343E3,6.1E2,1.597E3,1.682E3,2.404E3,2.721E3,1.958E3,1.1774E4,3.618E3,2.757E3,3.11E2,2.85E2,3.575E3,8.33E2,5.7E1,4.4E1,7.3E1,5.1E1,2.9E1,6.9E1,8.8E1,1.17E2,2.3E1,2.2E1,2E1,2.4E1,6.25E2,2.1E1,5.1E2,2.5E1,2.9E1,2.29E2,2.9E1,2.271E3,6.2E1,3.57E2,2.17E2,5.11E2,9.3E1,4.6E1,8.8E1,2E1,2.56E3,1.783E3,5.25E2,8.5E1,3.45E2,1.252E3,1.278E3,4.04E2,6.84E2,1.72E3,7.44E2,1.977E3,9.78E2,9.8E2,1.1688E4,8.6E1,1.933E3,1.685E3,9.3E2,1.827E3,6E1,2.51E2,1.97E2,8.8E1,2.538E3,1.037E3,3.72E2,4.61E2,2.3E1,3.4E1,2.1E1,2.3E1,3E1,4.3E1,2.3E1,4.6E1,4.6E1,4.2E1,8.6E1,3.1E1,2.1E1,6.04E2,8.4E1,1.45E2,2.2E1,4E1,1.64E2,5.3E1,2.39E2,2.72E2,4.4E1,4.9E1,2.2E1,2.4E1,3.6E1,5.2E1,1.124E3,1.436E3,5.57E2,1.226E3,4.88E2,3.7E1,2.5E1,6E1,2.8E2,6.5E1,1.158E3,9.4E1,1.042E3,2.36E2,1.32E2,2.72E2,5.46E2,1.38E2,6.8E1,1.652E3,5.17E2,2.27E2,1.916E3,6.1E1,8.61E2,1.17E2,9.18E2,6.2E1,9.963E3,1.725E3,2.9E1,5.7E1,7.27E2,1.206E3,3.71E2,1.314E3,2.9E1,9.01E2,7.27E2,1.1E3,2E1,4E1,1.06E2,1.45E2,1.48E2,4.9E1,3.3E1,5.5E1,2.488E3,5E1,5.5E1,3.17E2,3.1E1,4.3E2,2E1,2.3E1,2.1E1,2.5E1,2.2E1,2.4E1,2E1,2.2E1,2E1,6.6E1],"tree_param":{"num_deleted":"0","num_feature":"40","num_nodes":"221","size_leaf_vector":"1"}},{"base_weights":[-1.20642565E-1,4.4565108E-1,-4.9844253E-1,4.9839026E-1,3.5339245E-1,-4.9962425E-1,-3.0517712E-1,4.9919534E-1,2.8668943E-1,3.3468255E-1,4.0103534E-1,-4.2528737E-1,-4.999469E-2,8.169935E-3,-4.2525125E-1,4.9936506E-1,2.0652173E-1,4.0449437E-1,2.3414634E-1,3.637893E-1,3.086609E-1,3.8435492E-1,4.4071743E-1,-4.9726278E-2,-2.5635594E-1,-1.4285715E-1,1.23563215E-1,4.4E-2,-4.527202E-1,4.9980605E-1,4.7879532E-1,-0E0,3.6538463E-2,4.625E-2,3.5E-1,3.9534885E-1,1.9018404E-1,4.057334E-1,3.4387705E-1,2.9497153E-1,3.495204E-1,3.6830735E-1,4.3077958E-1,4.5548522E-1,4.130943E-1,-7.751938E-2,-4.675926E-1,1.1320755E-1,-3.0864197E-1,2.4806201E-1,-2.2826087E-1,-2.6408452E-1,-4.9445325E-1,4.9985945E-1,4.021739E-1,4.978051E-2,4.3353784E-1,4.375E-2,2.5925925E-2,2.857143E-2,4.782609E-2,2.4122807E-1,7E-2,4.715447E-1,3.9117122E-1,3.1630075E-1,3.7254506E-1,3.5167858E-1,2.8527176E-1,3.3129874E-1,3.9320785E-1,3.4715864E-1,3.9653304E-1,4.441507E-1,4.0208334E-1,3.5638297E-1,4.5937636E-1,3.9407632E-1,4.7743056E-2,7.954545E-2,-1.5697674E-1,-3.409091E-2,-4.9425285E-2,-3.7037039E-3,2.5925925E-2,-1.03448285E-2,-4.1509435E-1,1.015625E-1,3.8636363E-1,-3.8636364E-2,-8E-3,1.7857144E-3,-3.3043477E-1,-3.90625E-2,-4.9916666E-2,4.998862E-2,3.9130434E-2,4.8E-2,2.9545454E-2,4.778761E-1,3.3112583E-1,3.2876712E-1,8.3333336E-2,-9.52381E-3,1.8333334E-2,4.871099E-1,3.76E-1,3.9627945E-1,2.853261E-1,3.1849316E-1,1.3157895E-3,3.8186878E-1,3.07815E-1,3.841642E-1,3.0943397E-1,3.6331362E-1,2.7851972E-1,3.4082603E-1,2.0794393E-1,4.1163057E-1,3.4537572E-1,3.5276845E-1,1.9927536E-1,4.2141008E-1,3.6478758E-1,4.3698114E-1,4.920635E-2,3.287037E-1,4.1435564E-1,2.9464287E-1,4.3589745E-2,4.4620016E-1,4.7734458E-2,3.5511982E-1,4.2657992E-1,-4.761905E-3,1.875E-2,4E-3,-2.3387097E-1,-3.2E-2,-4.8275862E-2,2.7380953E-2,-2.173913E-2,4.673913E-2,1.904762E-2,-4.1975307E-1,-1.1428571E-2,4.920886E-2,2.7083335E-2,2.2807017E-2,3.894737E-2,3.877551E-2,2.0000001E-2,2.0454546E-2,-4.761905E-3,4.920635E-2,4.0000003E-2,4.4354837E-2,3.046875E-2,4.0789936E-2,3.578767E-2,2.1138212E-2,4.2741936E-2,3.1034902E-2,3.5228427E-2,3.9153803E-2,3.3017494E-2,3.2685187E-2,1.875E-2,2.9508198E-2,4.0309157E-2,3.5015773E-2,2.8183717E-2,4.513889E-2,3.3253968E-2,2.7964627E-2,-1.25E-2,3.6056336E-2,3.0405406E-2,2.3834197E-2,-6.8181823E-3,3.9484978E-2,4.7486033E-2,1.7105265E-2,3.656958E-2,2.9175049E-2,3.6250003E-2,-0E0,2.4553573E-2,4.3360233E-2,3.2880437E-2,4.310811E-2,3.3567254E-2,3.3333335E-2,4.4028103E-2,3.8690478E-2,1.2E-2,3.5869565E-2,4.2962186E-2,3.472222E-2,1.904762E-2,3.9750002E-2,4.5442477E-2,3.8344596E-2,3.0182928E-2,4.3776374E-2,3.3846155E-2,-3.026316E-2,-1.2E-2,-4.9000002E-2,-2.96875E-2],"categories":[0,2,3,4,5,6,7,8,9,10,11,12,13,14,15,16,17,18,19,20,21,22,23,24,25,26,27,28,29,30,3,4,5,10,16,17,19,0,1,2,4,5,6,8,1,2,3,4,6,8,9,15,16,18,19,0,2,3,4,5,6,7,8,9,10,11,12,13,14,15,16,17,18,19,20,21,22,23,24,25,26,27,28,30,16,0,1,2,4,5,6,7,8,9,10,11,12,13,14,15,16,17,18,3,10,16,17,1,2,3,4,6,8,9,10,11,15,16,17,18,19,2,3,7,8,9,0,1,2,3,5,6,7,8,9,10,11,13,14,15,16,17,18,19,1,2,0,1,2,3,4,6,7,8,9,12,4,7,2,3,4,5,6,0,1,2,5,6,7,8,9,10,11,12,13,14,15,17,18,19,0,1,2,4,5,6,7,8,9,10,11,12,13,14,15,18,19,1,3,4,5,8,0,1,2,3,5,7,8,9,0,1,2,4,5,6,7,8,10,11,12,13,14,15,16,17,19,27,0,1],"categories_nodes":[5,6,8,9,14,15,18,24,37,42,45,48,65,66,67,69,71,72,100,115,116,138],"categories_segments":[0,30,37,44,55,84,85,103,107,121,126,144,146,156,158,163,180,197,202,210,227,228],"categories_sizes":[30,7,7,11,29,1,18,4,14,5,18,2,10,2,5,17,17,5,8,17,1,2],"default_left":[0,0,0,0,0,1,1,0,1,1,0,0,0,0,1,1,0,0,1,0,0,0,0,0,1,0,0,0,0,0,0,0,0,0,0,0,0,1,0,0,0,0,1,0,0,1,0,0,1,0,0,0,0,0,0,0,0,0,0,0,0,0,0,0,0,1,1,1,0,1,0,1,1,0,0,0,0,0,0,0,0,0,0,0,0,0,0,0,0,0,0,0,0,0,0,0,0,0,0,0,1,0,0,0,0,0,0,0,0,0,0,0,0,0,0,1,1,0,0,0,0,0,0,0,0,0,0,0,0,0,0,0,0,0,0,0,0,0,1,0,0,0,0,0,0,0,0,0,0,0,0,0,0,0,0,0,0,0,0,0,0,0,0,0,0,0,0,0,0,0,0,0,0,0,0,0,0,0,0,0,0,0,0,0,0,0,0,0,0,0,0,0,0,0,0,0,0,0,0,0,0,0,0,0,0,0,0,0,0,0,0],"id":6,"left_children":[1,3,5,7,9,11,13,15,17,19,21,23,-1,25,27,29,31,33,35,37,39,41,43,-1,45,47,49,-1,51,53,55,-1,-1,-1,57,59,61,63,65,67,69,71,73,75,77,79,81,83,85,87,89,91,93,95,97,-1,99,-1,-1,-1,-1,101,103,105,107,109,111,113,115,117,119,121,123,125,127,129,131,133,-1,135,137,-1,-1,-1,-1,-1,139,141,143,-1,-1,-1,145,-1,-1,-1,-1,-1,-1,147,149,151,153,-1,-1,155,157,159,161,163,-1,165,167,169,171,173,175,177,179,181,183,185,187,189,191,193,-1,195,197,199,-1,201,-1,203,205,-1,-1,-1,207,-1,-1,-1,-1,-1,-1,209,-1,-1,-1,-1,-1,-1,-1,-1,-1,-1,-1,-1,-1,-1,-1,-1,-1,-1,-1,-1,-1,-1,-1,-1,-1,-1,-1,-1,-1,-1,-1,-1,-1,-1,-1,-1,-1,-1,-1,-1,-1,-1,-1,-1,-1,-1,-1,-1,-1,-1,-1,-1,-1,-1,-1,-1,-1,-1,-1,-1,-1,-1,-1,-1,-1],"loss_changes":[6.44672E4,5.865332E2,4.1125E1,1.2933594E1,3.8963867E1,4.0976562E0,4.1428474E1,3.6933594E0,1.7189121E0,2.3746094E1,8.013916E0,9.392944E0,0E0,5.35047E0,1.9118149E1,4.53125E-1,1.5091972E0,1.1945152E-1,1.3776121E0,1.227417E1,9.203247E0,6.331787E0,1.3016357E0,0E0,8.8790865E0,5.6810083E0,7.678114E0,0E0,5.946869E0,1.8945312E-1,1.18396E0,0E0,0E0,0E0,2.8356457E-1,2.5422525E-1,9.830661E-1,4.395508E0,7.8549805E0,6.7581787E0,3.18927E0,3.731079E0,6.778259E-1,7.502136E-1,1.3816681E0,1.6224014E0,1.9626617E-1,1.1726065E0,1.7263708E0,2.5744448E0,1.0473518E0,2.662281E0,1.1381531E-1,2.1484375E-2,2.4023724E-1,0E0,2.0622025E0,0E0,0E0,0E0,0E0,1.5483055E0,9.538095E-1,1.09729E0,2.0058594E0,3.416565E0,2.8632812E0,2.3746643E0,5.512329E0,3.394928E0,9.3466187E-1,3.0099792E0,2.0330505E0,3.0471802E-1,5.121918E-1,3.3303452E-1,3.2608032E-1,1.1096649E0,0E0,6.1296E-1,1.3119428E0,0E0,0E0,0E0,0E0,0E0,1.8654537E-1,3.5756097E0,9.5854473E-1,0E0,0E0,0E0,2.172226E0,0E0,0E0,0E0,0E0,0E0,0E0,8.642578E-1,8.191471E-1,4.7693586E-1,6.76407E-1,0E0,0E0,1.2120056E-1,4.669857E-1,1.5211792E0,1.8429279E0,1.296936E0,0E0,2.0265503E0,1.3748055E0,1.6059418E0,7.947693E-1,2.1401978E0,4.4940186E0,1.8760986E0,1.812499E0,7.43042E-1,1.1630669E0,2.0177002E0,1.2721596E0,1.6029968E0,2.2177887E0,3.06427E-1,0E0,1.2654228E0,3.6676788E-1,2.4057531E-1,0E0,3.5168457E-1,0E0,5.7712936E-1,3.8202667E-1,0E0,0E0,0E0,4.4913435E-1,0E0,0E0,0E0,0E0,0E0,0E0,5.537081E-1,0E0,0E0,0E0,0E0,0E0,0E0,0E0,0E0,0E0,0E0,0E0,0E0,0E0,0E0,0E0,0E0,0E0,0E0,0E0,0E0,0E0,0E0,0E0,0E0,0E0,0E0,0E0,0E0,0E0,0E0,0E0,0E0,0E0,0E0,0E0,0E0,0E0,0E0,0E0,0E0,0E0,0E0,0E0,0E0,0E0,0E0,0E0,0E0,0E0,0E0,0E0,0E0,0E0,0E0,0E0,0E0,0E0,0E0,0E0,0E0,0E0,0E0,0E0,0E0,0E0],"parents":[2147483647,0,0,1,1,2,2,3,3,4,4,5,5,6,6,7,7,8,8,9,9,10,10,11,11,13,13,14,14,15,15,16,16,17,17,18,18,19,19,20,20,21,21,22,22,24,24,25,25,26,26,28,28,29,29,30,30,34,34,35,35,36,36,37,37,38,38,39,39,40,40,41,41,42,42,43,43,44,44,45,45,46,46,47,47,48,48,49,49,50,50,51,51,52,52,53,53,54,54,56,56,61,61,62,62,63,63,64,64,65,65,66,66,67,67,68,68,69,69,70,70,71,71,72,72,73,73,74,74,75,75,76,76,77,77,79,79,80,80,86,86,87,87,88,88,92,92,99,99,100,100,101,101,102,102,105,105,106,106,107,107,108,108,109,109,111,111,112,112,113,113,114,114,115,115,116,116,117,117,118,118,119,119,120,120,121,121,122,122,123,123,124,124,125,125,127,127,128,128,129,129,131,131,133,133,134,134,138,138,145,145],"right_children":[2,4,6,8,10,12,14,16,18,20,22,24,-1,26,28,30,32,34,36,38,40,42,44,-1,46,48,50,-1,52,54,56,-1,-1,-1,58,60,62,64,66,68,70,72,74,76,78,80,82,84,86,88,90,92,94,96,98,-1,100,-1,-1,-1,-1,102,104,106,108,110,112,114,116,118,120,122,124,126,128,130,132,134,-1,136,138,-1,-1,-1,-1,-1,140,142,144,-1,-1,-1,146,-1,-1,-1,-1,-1,-1,148,150,152,154,-1,-1,156,158,160,162,164,-1,166,168,170,172,174,176,178,180,182,184,186,188,190,192,194,-1,196,198,200,-1,202,-1,204,206,-1,-1,-1,208,-1,-1,-1,-1,-1,-1,210,-1,-1,-1,-1,-1,-1,-1,-1,-1,-1,-1,-1,-1,-1,-1,-1,-1,-1,-1,-1,-1,-1,-1,-1,-1,-1,-1,-1,-1,-1,-1,-1,-1,-1,-1,-1,-1,-1,-1,-1,-1,-1,-1,-1,-1,-1,-1,-1,-1,-1,-1,-1,-1,-1,-1,-1,-1,-1,-1,-1,-1,-1,-1,-1,-1],"split_conditions":[1E0,2.6E0,6.0474315E0,3.75E0,8.75E0,1E-45,1E-45,5.464286E0,1E-45,1E-45,1.4142858E1,1.5647404E0,0E0,1.6E1,1E-45,1E-45,9.7445697E-1,2.3E0,1E-45,3.75E0,7.142857E0,1.94E0,7.8830743E0,0E0,1E-45,2.7272727E0,4.4444447E0,5.832E-3,4.4166665E0,4.428571E0,2.2E0,9.922946E-3,1.523974E-1,3.345134E-1,4E0,2.3846154E0,1E0,1E-45,5.678571E0,2E0,5E0,4E0,1E-45,8E0,2.4E1,1E-45,3.1538463E0,2.3846154E0,1E-45,4.827583E0,4.821429E0,7E0,4.548824E0,8.182767E0,3E0,1.360494E-1,5E0,1.3213539E-1,1.5157239E-1,3.601854E-1,2.728549E-1,5.1223135E0,3.391165E0,3.2142856E0,7.18E0,1E-45,1E-45,1E-45,2.3333333E0,1E-45,1E1,1E-45,1E-45,1.7E1,1E0,1.2E1,1.7142857E1,1.1E1,1.5479418E0,1.7182494E0,1.4960265E0,-8.181E-3,0E0,-6.332496E-4,8.2559994E-4,-1.6268997E-3,1.0095363E0,2E0,4E0,-8.906398E-3,-1.9188985E-3,2.0471015E-3,1.0737522E0,-7.1151406E-2,-9.91514E-2,5.50494E-2,9.98094E-2,4.4922996E-1,2.4643742E-1,3.3333333E0,1E-45,9.983614E-1,1.75E0,-5.291605E-3,7.13154E-2,3.6E0,3.645683E0,3.645683E0,4E0,7E0,4.67116E-2,5.5291433E0,2.7E1,2E0,4E0,1E-45,1E-45,5.5291433E0,1.7E1,1.2E1,7.3333335E0,7.285714E0,3E0,7.8830743E0,1E1,2E0,8.428528E-1,1.2071428E1,8E0,7E0,6.891538E-1,7E0,1.1448529E0,1.0483547E1,2.8E1,-6.1000006E-5,7.4900006E-4,7.4900006E-4,1E-45,-1.60784E-2,-1.5122148E-2,4.9750006E-4,-7.1733254E-3,7.581E-4,2.9425003E-4,5.137784E0,-3.25065E-3,1.3593249E-1,8.049399E-3,1.030494E-1,2.170494E-1,3.2889938E-1,2.691724E-1,9.046539E-2,-4.7924104E-3,1.1723941E-1,1.1792441E-1,2.0184942E-1,1.8469441E-1,2.809819E-1,3.1054083E-1,9.6849404E-2,1.946494E-1,2.1075463E-1,2.837282E-1,3.7470978E-1,4.2624378E-1,2.985498E-1,2.3854981E-1,1.9264941E-1,3.3337694E-1,2.8184938E-1,2.189468E-1,2.0697069E-1,1.18049406E-1,1.894944E-1,-1.5769197E-2,3.767533E-1,4.0828782E-1,2.2369881E-1,-1.3441182E-2,5.6666034E-1,6.5670234E-1,2.2024381E-1,5.6103384E-1,3.2355723E-1,4.6116382E-1,4.911101E-3,2.962163E-1,6.5560234E-1,5.7454383E-1,6.877638E-1,5.412038E-1,5.050038E-1,5.877638E-1,4.1506377E-1,4.4976377E-1,4.236958E-1,5.497638E-1,7.497638E-1,3.949078E-1,8.278198E-1,8.7872183E-1,7.707618E-1,6.473238E-1,1.0144988E0,7.852203E-1,-5.8774496E-3,-6.3241743E-3,-1.4810371E-2,-9.727899E-3],"split_indices":[9,34,36,33,35,15,38,35,39,38,33,37,0,3,15,38,13,34,38,33,33,10,36,0,38,